tree
version=v3
num_class=4
num_tree_per_iteration=4
label_index=0
max_feature_idx=29
objective=multiclass num_class:4
feature_names=country_code state_code has_domain num_completed_degrees_from_top_500_schools num_incomplete_degrees_from_top_500_schools num_FAANG_exp_founder percentage_of_male_founder percentage_of_female_founder is_category_Artificial_Intelligence is_category_Data_and_Analytics is_category_Financial_Services is_category_Lending_and_Investments is_category_Payments is_category_Platforms is_category_Privacy_and_Security PreSeries_investor_count PreSeries_from_founded_binned PreSeries_num_top_500_investors PreSeries_num_ea_org PreSeries_post_money_valuation_usd_augmented RoundA_investor_count RoundA_from_founded_binned RoundA_num_top_500_investors RoundA_num_ea_org RoundA_post_money_valuation_usd_augmented RoundB_investor_count RoundB_from_founded_binned RoundB_num_top_500_investors RoundB_num_ea_org RoundB_post_money_valuation_usd_augmented
feature_infos=-1:5:4:1:2:3:0 -1:3:0:2:1:4:5 none [0:149] [0:106] [0:4] [0:1] [0:1] [0:1] [0:1] [0:1] [0:1] [0:1] [0:1] [0:1] [0:84] [0:5] [0:10] [0:26] [0:26649999360] [0:21] [0:5] [0:9] [0:45] [0:9685000192] [1:22] [0:5] [0:10] [0:45] [639700.5:60000002048]
tree_sizes=3283 3348 2899 1359

Tree=0
num_leaves=31
num_cat=0
split_feature=24 27 24 20 14 19 20 4 25 4 16 4 25 4 26 7 24 15 4 24 21 25 27 9 15 24 26 25 26 27
split_gain=16.2669 12.274 5.90082 7.53617 6.41525 5.19324 4.90861 3.95165 3.73911 3.51899 3.33227 4.82284 3.31759 3.82779 3.32132 2.80763 2.79158 3.49571 4.5454 2.82129 2.46664 3.39554 1.58689 4.02078 1.4805 1.45195 1.33777 1.73819 1.29162 1.17516
threshold=7690366.0000000009 2.5000000000000004 7049553.5000000009 1.0000000180025095e-35 1.0000000180025095e-35 5511493.7500000009 3.5000000000000004 4.5000000000000009 4.5000000000000009 3.5000000000000004 1.0000000180025095e-35 3.5000000000000004 4.5000000000000009 5.5000000000000009 1.5000000000000002 1.0000000180025095e-35 36289198.000000007 1.0000000180025095e-35 2.5000000000000004 51349218.000000007 1.5000000000000002 3.5000000000000004 3.5000000000000004 1.0000000180025095e-35 2.5000000000000004 14486708.500000002 1.0000000180025095e-35 7.5000000000000009 1.5000000000000002 1.0000000180025095e-35
decision_type=2 2 2 2 2 2 2 2 2 2 2 2 2 2 2 2 2 2 2 2 2 2 2 2 2 2 2 2 2 2
left_child=1 2 3 4 8 6 12 -3 9 -1 11 -7 15 14 -14 16 17 18 25 -18 21 -20 24 -24 -8 -2 -12 -28 -6 -5
right_child=5 7 -4 29 28 10 22 -9 -10 -11 26 -13 13 -15 -16 -17 19 -19 20 -21 -22 -23 23 -25 -26 -27 27 -29 -30 -31
leaf_value=-1.9389796319762926 -1.9167016123921934 -1.8198297744253804 -1.8588974292432721 -1.9346408416453069 -1.8844109997365892 -1.9589277981725992 -1.9545521980878355 -1.8883250133918139 -1.8700596163340983 -1.8901515530975854 -1.9294221567716741 -1.8826170768112778 -1.8413568495291166 -1.9328469187199957 -1.9059380748403254 -1.9613866016226762 -1.9639675816417013 -1.9537760195152947 -1.9504273633880469 -1.9173347616599503 -1.9009702882779247 -1.8981883278029803 -1.9579618396743546 -1.8844109997365892 -1.9261988514085477 -1.8838212168570347 -1.9664189048936795 -1.9294221567716741 -1.8413568495291168 -1.9635104850014804
leaf_weight=14.267746597528467 4.6453128457069424 4.9771209061145765 4.4794088155031195 6.9679692685604078 3.4839846342802039 4.3135047852992994 25.051508560776714 3.649888664484024 3.4839846342802039 4.9771209061145774 3.6498886644840267 3.9816967248916626 3.483984634280203 5.3089289665222159 4.6453128457069397 5.4748329967260352 7.6315853893756849 5.972545087337493 12.442802265286451 5.6407370269298553 6.4702571779489508 4.147600755095481 3.9816967248916617 3.4839846342802048 5.6407370269298545 12.110994204878805 24.387892439961437 3.6498886644840232 3.4839846342802048 7.1338732987642288
leaf_count=86 28 30 27 42 21 26 151 22 21 30 22 24 21 32 28 33 46 36 75 34 39 25 24 21 34 73 147 22 21 43
internal_value=-1.92663 -1.90374 -1.91356 -1.91915 -1.90486 -1.93497 -1.92962 -1.84881 -1.91772 -1.92635 -1.95051 -1.9223 -1.92243 -1.89983 -1.87826 -1.92713 -1.92396 -1.91811 -1.91275 -1.94415 -1.92716 -1.93737 -1.94431 -1.92364 -1.94934 -1.89294 -1.9579 -1.9616 -1.86288 -1.94925
internal_weight=0 56.9051 48.2781 43.7987 29.6968 156.116 116.133 8.62701 22.7289 19.2449 39.9829 8.2952 77.9749 13.4382 8.1293 64.5367 59.0618 45.7895 39.817 13.2723 23.0607 16.5904 38.1579 7.46568 30.6922 16.7563 31.6877 28.0378 6.96797 14.1018
internal_count=1284 343 291 264 179 941 700 52 137 116 241 50 470 81 49 389 356 276 240 80 139 100 230 45 185 101 191 169 42 85
shrinkage=1


Tree=1
num_leaves=31
num_cat=0
split_feature=24 15 27 6 22 24 27 21 14 10 26 8 6 24 4 4 26 24 22 24 24 19 25 19 27 15 22 10 19 24
split_gain=12.8558 6.25777 7.22172 7.33783 7.42316 6.35544 6.16516 5.65267 13.4955 7.30138 5.42862 4.38909 5.08329 4.35647 5.41446 4.23939 4.56655 4.39592 3.2817 2.67531 2.6711 2.52714 2.36426 2.16491 2.03289 1.88794 2.21564 1.86109 1.97951 1.65868
threshold=19265800.000000004 2.5000000000000004 2.5000000000000004 0.84523808956146251 1.5000000000000002 17460186.000000004 1.5000000000000002 1.5000000000000002 1.0000000180025095e-35 1.0000000180025095e-35 1.0000000180025095e-35 1.0000000180025095e-35 0.70833334326744091 99897648.000000015 17.500000000000004 10.500000000000002 1.0000000180025095e-35 28487022.000000004 1.0000000180025095e-35 8056202.5000000009 7690366.0000000009 5305948.5000000009 4.5000000000000009 3506083.6250000005 1.0000000180025095e-35 1.0000000180025095e-35 1.5000000000000002 1.0000000180025095e-35 9926852.5000000019 36180186.000000007
decision_type=2 2 2 2 2 2 2 2 2 2 2 2 2 2 2 2 2 2 2 2 2 2 2 2 2 2 2 2 2 2
left_child=1 2 5 -4 -5 6 7 10 9 11 20 12 -9 14 15 16 17 -2 -7 -3 -1 23 -8 25 -12 26 29 -23 -29 -18
right_child=13 19 3 4 -6 18 22 8 -10 -11 24 -13 -14 -15 -16 -17 21 -19 -20 -21 -22 27 -24 -25 -26 -27 -28 28 -30 -31
leaf_value=-0.24733678579065133 -0.23584387777008553 -0.21684539716466045 -0.29669408376717166 -0.25714520450950151 -0.19058733453927618 -0.21684539716466045 -0.17161091953269594 -0.28568047182199774 -0.28017366584941072 -0.17338482061630239 -0.19381693582475124 -0.19459492438353196 -0.21986102900679141 -0.22106728174364382 -0.24217670463856056 -0.15351712847991014 -0.20779850163826755 -0.18919502633047369 -0.27510740435463071 -0.16960049830460863 -0.19573597426974368 -0.15668354191414766 -0.21382976532252948 -0.21959880015095395 -0.15940813021802647 -0.15351712847991014 -0.17251560908533523 -0.16325993904679481 -0.20858518820577998 -0.18046532792022943
leaf_weight=5.329373627901079 7.8953683376312283 3.9476841688156155 4.5398367941379574 8.6849051713943499 8.0927525460720044 4.7372210025787336 16.580273509025577 4.5398367941379556 8.2901367545127851 10.066594630479814 8.6849051713943481 7.3032157123088828 8.2901367545127869 8.882289379835127 3.9476841688156119 11.250899881124495 13.816894590854647 14.014278799295424 4.934605211019516 12.435205131769179 4.7372210025787354 15.790736675262451 4.1450683772563925 4.5398367941379538 8.4875209629535675 4.7372210025787345 15.790736675262449 5.1319894194602966 4.5398367941379547 9.2770577967166883
leaf_count=27 40 20 23 44 41 24 84 23 42 51 44 37 42 45 20 57 70 71 25 63 24 80 21 23 43 24 80 26 23 47
internal_value=-0.199287 -0.209933 -0.213972 -0.2403 -0.225041 -0.208133 -0.203833 -0.21133 -0.223665 -0.208153 -0.1939 -0.225538 -0.243151 -0.187376 -0.184673 -0.182547 -0.185966 -0.206005 -0.246571 -0.180985 -0.223054 -0.180003 -0.180055 -0.186739 -0.17681 -0.183319 -0.186949 -0.167263 -0.184535 -0.196819
internal_weight=0 133.826 117.444 21.3175 16.7777 96.1261 86.4543 65.7289 38.4899 30.1998 27.239 20.1332 12.83 119.615 110.733 106.785 95.534 21.9096 9.67183 16.3829 10.0666 73.6243 20.7253 48.1617 17.1724 43.6219 38.8847 25.4626 9.67183 23.094
internal_count=1284 678 595 108 85 487 438 333 195 153 138 102 65 606 561 541 484 111 49 83 51 373 105 244 87 221 197 129 49 117
shrinkage=1


Tree=2
num_leaves=27
num_cat=0
split_feature=29 24 3 24 24 20 29 10 3 17 24 20 29 29 29 22 21 14 29 29 3 3 3 3 3 3
split_gain=9.03692 23.2129 9.62755 9.34473 3.39087 7.7927 17.0304 7.21254 5.68268 4.11853 4.41832 1.1249 3.41278 0.925716 0.90399 0.839034 3.37617 0.299926 1.07188 0.254648 0.999186 1.77636e-15 8.88178e-16 2.22045e-16 2.22045e-16 1.11022e-16
threshold=16372942.000000002 10758049.500000002 29.500000000000004 133635016.00000001 10758049.500000002 1.5000000000000002 35910422.000000007 1.0000000180025095e-35 1.5000000000000002 4.5000000000000009 11009238.000000002 7.5000000000000009 83754148.000000015 6715792.2500000009 110245696.00000001 1.0000000180025095e-35 2.5000000000000004 1.0000000180025095e-35 29055360.000000004 123126416.00000001 9.5000000000000018 16.500000000000004 13.500000000000002 7.5000000000000009 3.5000000000000004 5.5000000000000009
decision_type=2 2 2 2 2 2 2 2 2 2 2 2 2 2 2 2 2 2 2 2 2 2 2 2 2 2
left_child=1 13 3 4 17 6 -6 14 -9 10 -7 15 -13 -1 23 16 -12 22 -19 21 24 -17 -2 -8 -21 -14
right_child=2 -3 -4 -5 5 9 7 8 -10 -11 11 12 25 -15 -16 19 -18 18 -20 20 -22 -23 -24 -25 -26 -27
leaf_value=-3.5971601345498101 -3.6698949592305592 -3.3341957683963344 -3.4516904851883128 -3.4620811744284197 -3.378955660507565 -3.5313524360291337 -3.6698949592305592 -3.446095498674409 -3.61973301117487 -3.5313524360291328 -3.6698949592305588 -3.5376498234473797 -3.6698949592305592 -3.6698949592305592 -3.6117070994859599 -3.6698949592305592 -3.5535192397413611 -3.5971601345498101 -3.6698949592305592 -3.6698949592305592 -3.6037723913389694 -3.6698949592305588 -3.6698949592305588 -3.6698949592305592 -3.6698949592305592 -3.6698949592305592
leaf_weight=0.68742863833904211 8.661600843071934 0.89365722984075535 0.68742863833904166 0.7218000702559938 0.85928579792380588 0.7218000702560009 1.8560573235154159 0.89365722984075524 0.99677152559161186 0.7218000702559938 2.2685145065188475 0.75617150217294637 0.68742863833904244 1.2030001170933244 0.85928579792380322 10.620772462338206 0.85928579792380322 0.68742863833904211 1.9248001873493192 1.1342572532594202 0.75617150217294682 0.85928579792380411 0.79054293408989984 1.1342572532594202 1.2030001170933244 0.68742863833904266
leaf_count=20 252 26 20 21 25 21 54 26 29 21 66 22 20 35 25 309 25 20 56 33 22 25 23 33 35 20
internal_value=-3.63137 -3.54418 -3.63725 -3.64038 -3.64361 -3.63402 -3.58655 -3.61763 -3.53765 -3.64874 -3.65287 -3.65729 -3.62297 -3.64345 -3.65691 -3.66142 -3.63792 -3.66575 -3.65075 -3.66646 -3.65373 -3.66989 -3.66989 -3.66989 -3.66989 -3.66989
internal_weight=0 2.78409 41.3488 40.6614 39.9396 27.8752 6.59931 5.74003 1.89043 21.2759 20.5541 19.8323 2.13103 1.89043 3.8496 17.7013 3.1278 12.0644 2.61223 14.5735 3.09343 11.4801 9.45214 2.99031 2.33726 1.37486
internal_count=1284 81 1203 1183 1162 811 192 167 55 619 598 577 62 55 112 515 91 351 76 424 90 334 275 87 68 40
shrinkage=1


Tree=3
num_leaves=12
num_cat=0
split_feature=29 21 4 3 19 7 4 17 3 15 15
split_gain=21.9451 17.0297 15.4404 3.75794 3.89073 4.2198 9.28985 2.24035 8.88178e-16 8.88178e-16 4.44089e-16
threshold=19433831.000000004 3.5000000000000004 2.5000000000000004 29.500000000000004 415309296.00000006 0.29166667163372045 1.5000000000000002 3.5000000000000004 6.5000000000000009 3.5000000000000004 1.0000000180025095e-35
decision_type=2 2 2 2 2 2 2 2 2 2 2
left_child=1 2 -1 4 5 7 -7 8 9 10 -2
right_child=3 -3 -4 -5 -6 6 -8 -9 -10 -11 -12
leaf_value=-4.2167304615191572 -4.7976642501558331 -4.7976642501558331 -4.6596924753546221 -4.5769094104738972 -4.5769094104738972 -4.4444565066647348 -4.7976642501558331 -4.6814774924284981 -4.7976642501558331 -4.7976642501558331 -4.7976642501558331
leaf_weight=0.43034164234995909 5.039527127519241 0.47564076259732246 0.36239296197891235 0.226495601236821 0.226495601236821 0.28311950154602605 0.54358944296836853 0.4303416423499592 4.2920916434377432 0.66816202364861954 1.5628196485340593
leaf_count=38 445 42 32 20 20 25 48 38 379 59 138
internal_value=-4.75984 -4.56114 -4.41923 -4.77883 -4.78233 -4.78596 -4.6767 -4.7935 -4.79766 -4.79766 -4.79766
internal_weight=0 1.26838 0.792735 13.2726 13.0461 12.8197 0.826709 11.9929 11.5626 7.27051 6.60235
internal_count=1284 112 70 1172 1152 1132 73 1059 1021 642 583
shrinkage=1


end of trees

feature_importances:
RoundA_post_money_valuation_usd_augmented=16
num_completed_degrees_from_top_500_schools=10
num_incomplete_degrees_from_top_500_schools=9
RoundB_post_money_valuation_usd_augmented=8
PreSeries_investor_count=6
RoundB_num_top_500_investors=6
PreSeries_post_money_valuation_usd_augmented=5
RoundB_investor_count=5
RoundB_from_founded_binned=5
RoundA_investor_count=4
RoundA_from_founded_binned=4
RoundA_num_top_500_investors=4
is_category_Financial_Services=3
is_category_Privacy_and_Security=3
percentage_of_male_founder=2
percentage_of_female_founder=2
PreSeries_num_top_500_investors=2
is_category_Artificial_Intelligence=1
is_category_Data_and_Analytics=1
PreSeries_from_founded_binned=1

parameters:
[boosting: goss]
[objective: multiclass]
[metric: multi_logloss]
[tree_learner: serial]
[device_type: cpu]
[data: ]
[valid: ]
[num_iterations: 1000]
[learning_rate: 0.05]
[num_leaves: 31]
[num_threads: 4]
[deterministic: 0]
[force_col_wise: 0]
[force_row_wise: 0]
[histogram_pool_size: -1]
[max_depth: -1]
[min_data_in_leaf: 20]
[min_sum_hessian_in_leaf: 0.001]
[bagging_fraction: 0.9]
[pos_bagging_fraction: 1]
[neg_bagging_fraction: 1]
[bagging_freq: 0]
[bagging_seed: 7719]
[feature_fraction: 0.9]
[feature_fraction_bynode: 1]
[feature_fraction_seed: 2437]
[extra_trees: 0]
[extra_seed: 11797]
[early_stopping_round: 10]
[first_metric_only: 0]
[max_delta_step: 0]
[lambda_l1: 0]
[lambda_l2: 0]
[min_gain_to_split: 0]
[drop_rate: 0.1]
[max_drop: 50]
[skip_drop: 0.5]
[xgboost_dart_mode: 0]
[uniform_drop: 0]
[drop_seed: 21238]
[top_rate: 0.2]
[other_rate: 0.1]
[min_data_per_group: 100]
[max_cat_threshold: 32]
[cat_l2: 10]
[cat_smooth: 10]
[max_cat_to_onehot: 4]
[top_k: 20]
[monotone_constraints: ]
[monotone_constraints_method: basic]
[monotone_penalty: 0]
[feature_contri: ]
[forcedsplits_filename: ]
[refit_decay_rate: 0.9]
[cegb_tradeoff: 1]
[cegb_penalty_split: 0]
[cegb_penalty_feature_lazy: ]
[cegb_penalty_feature_coupled: ]
[path_smooth: 0]
[interaction_constraints: ]
[verbosity: -1]
[saved_feature_importance_type: 0]
[max_bin: 255]
[max_bin_by_feature: ]
[min_data_in_bin: 3]
[bin_construct_sample_cnt: 200000]
[data_random_seed: 38]
[is_enable_sparse: 1]
[enable_bundle: 1]
[use_missing: 1]
[zero_as_missing: 0]
[feature_pre_filter: 1]
[pre_partition: 0]
[two_round: 0]
[header: 0]
[label_column: ]
[weight_column: ]
[group_column: ]
[ignore_column: ]
[categorical_feature: 0,1]
[forcedbins_filename: ]
[objective_seed: 8855]
[num_class: 4]
[is_unbalance: 0]
[scale_pos_weight: 1]
[sigmoid: 1]
[boost_from_average: 1]
[reg_sqrt: 0]
[alpha: 0.9]
[fair_c: 1]
[poisson_max_delta_step: 0.7]
[tweedie_variance_power: 1.5]
[lambdarank_truncation_level: 30]
[lambdarank_norm: 1]
[label_gain: ]
[eval_at: ]
[multi_error_top_k: 1]
[auc_mu_weights: ]
[num_machines: 1]
[local_listen_port: 12400]
[time_out: 120]
[machine_list_filename: ]
[machines: ]
[gpu_platform_id: -1]
[gpu_device_id: -1]
[gpu_use_dp: 0]
[num_gpu: 1]

end of parameters

pandas_categorical:[["CAN", "CHN", "GBR", "IND", "Others", "USA"], ["CA", "MA", "NY", "Others", "TX", "WA"]]
