tree
version=v3
num_class=3
num_tree_per_iteration=3
label_index=0
max_feature_idx=19
objective=multiclass num_class:3
feature_names=is_company is_investor is_school num_social_media_url_org num_completed_degrees_from_top_500_schools num_incomplete_degrees_from_top_500_schools num_FAANG_exp_founder percentage_of_male_founder percentage_of_female_founder is_category_Artificial_Intelligence is_category_Data_and_Analytics is_category_Financial_Services is_category_Lending_and_Investments is_category_Payments is_category_Platforms is_category_Privacy_and_Security PreSeries_investor_count PreSeries_from_founded_binned PreSeries_num_ea_org PreSeries_post_money_valuation_usd_augmented
feature_infos=none [0:1] none [0:3] [0:68] [0:32] [0:3] [0:1] [0:1] [0:1] [0:1] [0:1] [0:1] [0:1] [0:1] [0:1] [0:84] [0:4] [0:16] [17797.3782923625:26650000000]
tree_sizes=3289 3273 3338 3354 3344 3378 3349 3352 3377 3372 3367 3387 3398 3365 3401 3383 3379 3390 3435 3381 3394 3384 3373 3396 3366 3386 3368 3394 3374 3433 3374 3373 3389 3372 3386 3410 3398 3357 3417 3399 3396 3408 3417 3390 3406 3373 3369 3430 3387 3368 3392 3385 3386 3402 3412 3393 3400 3398 3385 3403 3369 3373 3362 3263 3373 3174 3352 3366 3259 3372 3372 3367 3369 3393 3372 3176 3382 3383 3284 3372 3372 3391 3391 3375 3364 3422 3391 3301 3391 3074 3378 3391 3084 3266 3370 3160 3291 3290 3402 3279 3407 3378 3188 3384 3266 3281 3389 3382 3383 3406 3368 3392 3376 3271 3312 3385 3052

Tree=0
num_leaves=31
num_cat=0
split_feature=17 16 7 13 4 4 16 4 16 3 4 11 17 16 3 17 16 9 5 7 3 9 16 18 4 17 16 16 16 5
split_gain=45.9154 18.4214 9.85651 6.58042 5.21548 4.27437 4.19239 4.33025 3.91672 4.56566 3.51027 4.44894 2.9652 4.81845 2.74627 2.99823 3.08454 2.67425 2.69479 2.48098 2.47194 2.02752 2.43878 1.97537 2.62334 3.61122 2.95474 2.09887 1.65108 1.99389
threshold=3.5000000000000004 1.5000000000000002 1.0000000180025095e-35 1.0000000180025095e-35 4.5000000000000009 1.5000000000000002 1.5000000000000002 13.500000000000002 1.5000000000000002 1.5000000000000002 1.0000000180025095e-35 1.0000000180025095e-35 1.5000000000000002 3.5000000000000004 2.5000000000000004 1.0000000180025095e-35 3.5000000000000004 1.0000000180025095e-35 1.5000000000000002 0.41666666666666669 2.5000000000000004 1.0000000180025095e-35 6.5000000000000009 1.0000000180025095e-35 1.0000000180025095e-35 1.5000000000000002 2.5000000000000004 6.5000000000000009 18.500000000000004 1.0000000180025095e-35
decision_type=2 2 2 2 2 2 2 2 2 2 2 2 2 2 2 2 2 2 2 2 2 2 2 2 2 2 2 2 2 2
left_child=2 4 5 6 19 8 -4 10 -1 -10 11 14 13 -11 -8 -16 -17 18 -3 -2 -21 22 -18 24 -5 26 -26 -28 29 -12
right_child=1 17 3 23 -6 -7 7 -9 9 12 28 -13 -14 -15 15 16 21 -19 -20 20 -22 -23 -24 -25 25 -27 27 -29 -30 -31
leaf_value=-2.2489480765378498 -2.2007559125466427 -2.2147357691756708 -2.2766747330673121 -2.2152921813798114 -2.2285824843129944 -2.262397052535396 -2.2184637309434119 -2.2141709264835892 -2.2550218076335158 -2.1375137039867531 -2.2595665502877371 -2.2707770245077232 -2.2218366487332726 -2.2218366487332726 -2.2810588099273397 -2.2624649766565956 -2.1712428818853611 -2.2593662973810194 -2.253156599639123 -2.1349191518407067 -2.175459029122687 -2.2450254585385654 -2.236171549340181 -2.2756736057637426 -2.2620522069969975 -2.2715871861337193 -2.1766088874601395 -2.236171549340181 -2.2348094094635065 -2.2734277837448529
leaf_weight=11.153265416622164 5.6472229957580629 13.412154614925386 63.390078127384186 9.4590985178947502 4.9413201212882987 11.15326541662216 9.1767373681068403 4.6589589715003958 4.3765978217124948 3.9530560970306396 38.683477520942688 21.600627958774567 5.9295841455459595 2.9647920727729797 6.0707647204399136 9.3179179430007952 2.964792072772978 10.023820817470552 6.9178481698036185 5.5060424208641132 11.859168291091912 5.6472229957580566 2.8236114978790283 3.6706949472427359 3.6706949472427386 8.4708344936370832 3.1059726476669312 2.8236114978790283 3.6706949472427359 78.77876079082489
leaf_count=79 40 95 449 67 35 79 65 33 31 28 274 153 42 21 43 66 21 71 49 39 84 40 20 26 26 60 22 20 26 558
internal_value=-2.25204 -2.21126 -2.25953 -2.26285 -2.18197 -2.23617 -2.26559 -2.26176 -2.22586 -2.21092 -2.263 -2.25284 -2.19589 -2.17365 -2.24207 -2.25015 -2.24111 -2.23823 -2.22781 -2.17197 -2.1626 -2.22371 -2.20292 -2.24122 -2.23663 -2.24779 -2.2268 -2.20497 -2.26783 -2.26886
internal_weight=0 58.3076 317.515 277.985 27.9538 39.5306 246.784 183.394 28.3773 17.224 178.735 57.6017 12.8474 6.91785 36.001 26.8243 20.7535 30.3538 20.33 23.0124 17.3652 11.4356 5.7884 31.2009 27.5302 18.0711 9.60028 5.92958 121.133 117.462
internal_count=2662 413 2249 1969 198 280 1748 1299 201 122 1266 408 91 49 255 190 147 215 144 163 123 81 41 221 195 128 68 42 858 832
shrinkage=1


Tree=1
num_leaves=31
num_cat=0
split_feature=19 19 7 19 10 9 5 19 10 5 19 19 3 19 19 19 17 19 19 5 3 17 19 11 17 5 19 15 19 10
split_gain=23.9183 9.62233 10.2815 9.59217 7.05071 6.50845 5.62725 7.45174 5.0011 4.89901 4.62553 3.62655 3.12905 3.23823 3.08411 3.53103 4.20049 2.60414 2.37618 7.07074 7.00535 2.34785 4.44011 6.62274 2.14782 1.85913 3.73551 3.22833 2.70152 2.12583
threshold=9135732.4276572261 86615397.923306525 0.55000000000000016 30863663.834676888 1.0000000180025095e-35 1.0000000180025095e-35 1.5000000000000002 9495137.0003096927 1.0000000180025095e-35 1.5000000000000002 21258968.370227009 17826736.847593587 2.5000000000000004 19408767.16085564 24942077.304653749 16017642.242864082 1.5000000000000002 19966531.843723003 5697580.5267780004 1.0000000180025095e-35 1.5000000000000002 1.5000000000000002 7689485.2111503007 1.0000000180025095e-35 1.5000000000000002 1.0000000180025095e-35 11039685.278947191 1.0000000180025095e-35 11930013.36592526 1.0000000180025095e-35
decision_type=2 2 2 2 2 2 2 2 2 2 2 2 2 2 2 2 2 2 2 2 2 2 2 2 2 2 2 2 2 2
left_child=18 2 4 6 10 -6 7 -4 24 -10 -2 -7 13 -9 15 25 -17 -8 -1 20 -20 22 23 -22 -5 27 -27 28 -14 -30
right_child=1 -3 3 8 5 11 17 12 9 -11 -12 -13 14 -15 -16 16 -18 -19 19 -21 21 -23 -24 -25 -26 26 -28 -29 29 -31
leaf_value=-3.111927679762295 -3.1067567398494216 -3.1259630880972384 -2.9723123021147044 -3.0077701758029813 -2.9098916703093001 -2.9844426273238516 -3.1138962724441597 -3.1177022931519405 -3.125963088097238 -2.9979207664451266 -2.9979207664451266 -3.0875503916016047 -3.0807716804553165 -3.0406015403291637 -3.1259630880972384 -2.9723123021147044 -3.0585723924908637 -3.0632484815737548 -2.9723123021147044 -3.1157537335469039 -2.9552399925610895 -3.0975092388412135 -3.125963088097238 -3.0952329309007314 -2.9255490194243681 -3.0337726165077177 -3.1259630880972384 -3.125963088097238 -3.0581759766343555 -2.9915186503625208
leaf_weight=67.68595278263092 2.6033058762550336 6.6384299844503394 1.9524794071912754 1.6921488195657723 2.0826447010040283 2.4731405824422841 12.430785559117792 6.05268616229296 1.4318182319402697 1.561983525753021 1.561983525753021 1.3016529381275175 3.3192149922251737 1.7572314664721487 1.8223141133785237 2.2778926417231551 3.7097108736634254 3.1890496984124175 1.627066172659396 19.589876718819141 1.757231466472148 8.7861573323607427 1.4969008788466451 1.6270661726593971 1.4969008788466451 1.627066172659396 3.384297639131546 1.496900878846646 2.2128099948167801 2.6033058762550354
leaf_count=1040 40 102 30 26 32 38 191 93 22 24 24 20 51 27 28 35 57 49 25 301 27 135 23 25 23 25 52 23 34 40
internal_value=-3.09104 -3.06866 -3.06272 -3.07135 -3.01621 -2.98085 -3.07893 -3.06699 -3.01275 -3.05916 -3.06594 -3.02 -3.07309 -3.10035 -3.06361 -3.0581 -3.02576 -3.10356 -3.10646 -3.09586 -3.07039 -3.08206 -3.05426 -3.02254 -2.96918 -3.07133 -3.09603 -3.05848 -3.04606 -3.02214
internal_weight=0 70.6798 64.0413 54.0186 10.0227 5.85744 47.8357 32.2159 6.18285 2.9938 4.16529 3.77479 30.2634 7.80992 22.4535 20.6312 5.9876 15.6198 102.57 34.8843 15.2944 13.6674 4.8812 3.3843 3.18905 14.6436 5.01136 9.63223 8.13533 4.81612
internal_count=2662 1086 984 830 154 90 735 495 95 46 64 58 465 120 345 317 92 240 1576 536 235 210 75 52 49 225 77 148 125 74
shrinkage=1


Tree=2
num_leaves=31
num_cat=0
split_feature=19 16 19 4 19 13 18 19 19 4 5 7 19 16 7 19 19 16 3 19 10 16 19 4 11 19 5 19 4 3
split_gain=156.052 25.3965 16.897 15.2947 15.973 9.75753 9.32013 11.1752 8.96394 11.2761 6.90146 6.59156 5.33748 10.6892 5.43985 4.94377 4.73098 4.2039 3.48002 4.86309 3.25657 3.15236 6.81441 3.25657 2.98511 2.83509 2.74788 3.63679 2.65719 3.43034
threshold=21757294.962413158 1.5000000000000002 14816224.882024664 1.0000000180025095e-35 7296923.3201307962 1.0000000180025095e-35 1.0000000180025095e-35 24942077.304653749 148971189.49629372 1.5000000000000002 1.0000000180025095e-35 0.55000000000000016 53759499.46110931 6.5000000000000009 0.63333333333333341 8110437.9223990282 488794.31637276063 1.5000000000000002 2.5000000000000004 3567972.1268692738 1.0000000180025095e-35 5.5000000000000009 32047093.046225149 2.5000000000000004 1.0000000180025095e-35 21356852.171097174 1.0000000180025095e-35 5807154.6159363501 4.5000000000000009 2.5000000000000004
decision_type=2 2 2 2 2 2 2 2 2 2 2 2 2 2 2 2 2 2 2 2 2 2 2 2 2 2 2 2 2 2
left_child=2 8 3 4 16 11 7 -3 9 20 15 -4 14 -14 -9 -6 -1 -5 19 -18 -2 22 -16 -23 -21 -13 27 -19 29 -29
right_child=1 6 5 17 10 -7 -8 12 -10 -11 -12 25 13 -15 21 -17 18 26 -20 24 -22 23 -24 -25 -26 -27 -28 28 -30 -31
leaf_value=-0.18632488133150235 -0.13705161816731165 -0.2088475437241156 -0.21810393356383481 -0.15253268079651078 -0.24862440947013423 -0.24907749694750617 -0.19349876638989028 -0.31011485282774504 -0.12402535319287041 -0.2728969529007701 -0.15897386897795662 -0.16970186673961235 -0.26758011005405941 -0.36189627881310149 -0.30856410699745418 -0.19149953147774582 -0.14263430315635786 -0.13070548907719926 -0.14134350893923736 -0.19467628186780586 -0.20218294303951775 -0.25428800293728265 -0.2242273914578029 -0.18915667806507652 -0.15297260869162868 -0.12402535319287041 -0.13319584373487703 -0.13126216706756 -0.12402535319287041 -0.17139358946356578
leaf_weight=8.8283171355724317 3.838398754596712 8.2525573223829252 6.9091177582740775 63.141659513115883 4.4141585677862194 4.7979984432458869 5.7575981318950644 4.0303186923265448 4.7979984432458869 4.0303186923265457 15.73743489384651 29.555670410394669 9.4040769487619382 4.4141585677862158 4.6060785055160576 26.676871344447136 18.80815389752388 22.454632714390755 66.404298454523087 11.323276326060297 3.8383987545967102 3.8383987545967093 4.9899183809757233 3.8383987545967102 6.9091177582740775 3.8383987545967093 119.94996108114719 6.909117758274081 5.3737582564353934 23.222312465310097
leaf_count=46 20 43 36 329 23 25 30 21 25 21 82 154 49 23 24 139 98 117 346 59 20 20 26 20 36 20 625 36 28 121
internal_value=-0.163271 -0.235244 -0.152661 -0.149391 -0.161423 -0.181674 -0.25327 -0.261205 -0.181583 -0.205173 -0.185953 -0.173649 -0.273507 -0.297709 -0.257809 -0.19961 -0.151191 -0.141449 -0.148193 -0.160472 -0.169617 -0.245604 -0.264709 -0.221722 -0.178873 -0.164452 -0.137515 -0.146455 -0.156415 -0.162191
internal_weight=0 65.6366 445.254 400.153 159.102 45.1012 49.1315 43.3739 16.5051 11.7071 46.8285 40.3032 35.1213 13.8182 21.3031 31.091 112.273 241.051 103.445 37.0405 7.6768 17.2728 9.596 7.6768 18.2324 33.3941 177.91 57.9598 35.5052 30.1314
internal_count=2662 342 2320 2085 829 235 256 226 86 61 244 210 183 72 111 162 585 1256 539 193 40 90 50 40 95 174 927 302 185 157
shrinkage=1


Tree=3
num_leaves=31
num_cat=0
split_feature=19 17 19 17 19 19 19 4 19 13 4 19 9 4 3 3 19 5 12 18 3 19 17 17 10 19 19 19 19 5
split_gain=142.91 52.0856 22.8997 20.9929 39.5411 12.6626 12.3109 12.185 8.98592 5.9404 5.82193 6.32452 7.78926 3.91867 3.78493 3.21727 2.94539 3.0615 2.83985 2.93509 2.77959 3.48841 2.89994 2.1911 2.00864 1.49536 1.45467 1.41555 3.8232 1.34981
threshold=22143401.965514649 3.5000000000000004 1067846.2570174087 3.5000000000000004 71907539.584725007 24942077.304653749 32047093.046225149 1.0000000180025095e-35 7012743.6822474981 1.0000000180025095e-35 4.5000000000000009 9135732.4276572261 1.0000000180025095e-35 3.5000000000000004 2.5000000000000004 1.5000000000000002 4460023.0000660429 1.0000000180025095e-35 1.0000000180025095e-35 1.0000000180025095e-35 2.5000000000000004 3567972.1268692738 1.0000000180025095e-35 1.0000000180025095e-35 1.0000000180025095e-35 148971189.49629372 436035.76816288132 14466732.425284052 11756782.58431655 1.0000000180025095e-35
decision_type=2 2 2 2 2 2 2 2 2 2 2 2 2 2 2 2 2 2 2 2 2 2 2 2 2 2 2 2 2 2
left_child=1 7 -3 4 5 -2 -5 8 20 15 11 16 29 -8 -7 -10 17 -4 19 23 21 -1 -23 -17 -18 -6 -22 28 -25 -13
right_child=3 2 10 6 25 14 13 -9 9 -11 -12 12 -14 -15 -16 18 24 -19 -20 -21 26 22 -24 27 -26 -27 -28 -29 -30 -31
leaf_value=-0.021474064876625221 0.010720659139091739 0.15438652099329608 0.021829915738463469 0.12463871844393226 0.18513162260147492 0.054436075995959982 0.034781798916080457 -0.028217359467672534 -0.037305957016337266 0.062242891579387095 -0.026099724075615907 0.1222588757220692 0.019157669943297026 -0.01903929761017735 0.10520031287469428 0.04932148760981362 -0.02548657890279668 0.081995818142192312 -0.03725116099744305 -0.025159656241514883 0.0049395930792857819 0.057641674479834537 -0.00038800112379460479 0.01964532694486161 0.016961842488748224 0.23105248189051053 -0.028443060330646898 0.037170550583254656 -0.037332921190625472 0.076646410490042172
leaf_weight=12.714540168643 6.2352264821529415 3.906859651207923 7.5935205072164553 3.0794895887374905 4.0375410765409461 4.8935865759849593 8.9727128595113737 173.72784924507141 4.1363381296396247 5.0135331749916068 4.4934560656547538 3.441456735134123 5.3094865679740906 5.4278732836246482 14.706944912672039 5.1906247884035173 4.2016795575618717 2.9302230626344681 2.9626102149486533 4.1210856586694709 3.5524405539035788 3.1583470255136472 6.7630221992731094 12.288043856620794 8.2765865325927734 3.1605916619300842 40.100004389882088 4.6998168081045142 3.8716829121112815 3.0679074823856354
leaf_count=91 43 26 52 20 26 33 59 1260 29 34 32 23 37 37 98 36 29 20 21 29 25 22 47 86 57 20 289 33 27 21
internal_value=0 -0.0121794 0.0389353 0.0782104 0.101658 0.0727832 0.0338996 -0.0200053 -0.00686509 0.0111453 0.0274624 0.0343743 0.0641018 0.0144955 0.0925262 0.00427177 0.0190997 0.0385825 0.00946222 0.0140491 -0.0183535 -0.00413522 0.018085 0.0202519 0.00266862 0.205295 -0.0257264 0.0130183 0.005994 0.100761
internal_weight=0 325.521 43.2212 50.514 33.0339 25.8358 17.4801 282.3 108.572 42.2837 39.3143 34.8209 11.8189 14.4006 19.6005 37.2702 23.002 10.5237 33.1339 30.1713 66.2884 22.6359 9.92137 26.0502 12.4783 7.19813 43.6524 20.8595 16.1597 6.50936
internal_count=2662 2326 297 336 220 174 116 2029 769 295 271 239 81 96 131 261 158 72 232 211 474 160 69 182 86 46 314 146 113 44
shrinkage=0.05


Tree=4
num_leaves=31
num_cat=0
split_feature=19 19 19 4 8 19 5 5 16 8 11 16 16 4 4 9 16 16 19 3 11 12 19 16 19 19 19 5 3 17
split_gain=20.629 9.09156 7.18534 9.18917 8.97911 7.59066 5.15263 4.88643 4.41427 3.2359 3.05472 5.72408 12.543 4.20395 7.25814 6.90558 3.72016 2.9562 2.72501 7.05183 7.10165 3.50034 2.91639 2.66617 2.66211 4.2321 2.27165 6.44051 5.54455 2.10499
threshold=9135732.4276572261 86615397.923306525 14974898.882792251 9.5000000000000018 0.45000000000000007 9256001.7709435243 1.5000000000000002 3.5000000000000004 12.500000000000002 1.0000000180025095e-35 1.0000000180025095e-35 4.5000000000000009 1.5000000000000002 3.5000000000000004 1.5000000000000002 1.0000000180025095e-35 2.5000000000000004 7.5000000000000009 11039685.278947191 2.5000000000000004 1.0000000180025095e-35 1.0000000180025095e-35 10321899.21503792 2.5000000000000004 24942077.304653749 20689452.264871404 5697580.5267780004 1.0000000180025095e-35 1.5000000000000002 3.5000000000000004
decision_type=2 2 2 2 2 2 2 2 2 2 2 2 2 2 2 2 2 2 2 2 2 2 2 2 2 2 2 2 2 2
left_child=26 2 5 4 7 -2 8 9 18 10 13 12 -12 14 24 -16 -14 -13 19 -7 22 -20 -21 -24 25 -4 -1 28 -28 -30
right_child=1 -3 3 -5 -6 6 -8 -9 -10 -11 11 17 16 -15 15 -17 -18 -19 21 20 -22 -23 23 -25 -26 -27 27 -29 29 -31
leaf_value=-0.020340531200503498 0.11263592857918832 -0.034976619994860535 0.00092905858077815958 0.16233998223594756 0.1284717371934386 -0.034905897793621951 -0.025160076645978097 -0.035062900487353339 0.10159503013663596 -0.035059508622993583 -0.01109963821072541 -0.035074297373619605 0.19463670570000596 -0.035009428469341144 0.18277489540409705 0.043716675817116496 0.10010819031239478 0.050822264953451816 -0.014955431472452044 -0.035019841422949775 0.13911835213251897 0.067999468542939895 0.0025847274918961243 0.10008914317039785 -0.021580576053042567 0.10741487149559721 0.10069960734396062 -0.024220095432624628 0.017106097412008626 -0.034919010325900737
leaf_weight=65.41775269061327 1.6924856156110752 6.8192411810159674 2.7828946635127156 1.5192026197910298 2.4442086517810813 2.7029019594192505 10.296618618071077 2.7239952608942977 1.4645164906978596 1.5390381067991246 2.0872911661863327 1.7580321505665777 1.7408402934670446 2.4505603089928636 1.3766679987311365 2.5400074049830437 2.5883599668741226 2.3281827718019485 9.9980545304715598 1.3710338175296835 2.0103897899389267 1.4569550342857844 1.3316282331943514 1.480666648596525 3.6992911845445633 1.4037088379263876 1.840209126472472 18.811737209558487 11.524335499852894 2.3389066383242598
leaf_count=1040 24 102 41 21 33 42 163 39 22 22 30 25 24 36 19 37 36 33 151 20 30 22 20 22 52 20 25 301 174 36
internal_value=0 0.0200167 0.0256317 0.0422351 0.0364358 0.00943249 0.00399321 0.0286838 0.0177528 0.0352876 0.039661 0.0601217 0.0895784 0.0245841 0.0369574 0.0925941 0.13812 0.0138666 0.0117194 0.03248 0.0618868 -0.00440445 0.0247715 0.0539206 0.00932448 0.0366322 -0.0148648 -0.00448642 0.0191533 0.00832879
internal_weight=0 73.6068 66.7875 32.9823 31.4631 33.8053 32.1128 29.0189 21.8161 26.2949 24.7558 10.5027 6.41649 14.2531 11.8026 3.91668 4.3292 4.08621 20.3516 8.89662 6.19372 11.455 4.18333 2.81229 7.88589 4.1866 99.9329 34.5152 15.7035 13.8632
internal_count=2662 1086 984 468 447 516 492 414 329 375 353 148 90 205 169 56 60 58 307 134 92 173 62 42 113 61 1576 536 235 210
shrinkage=0.05


Tree=5
num_leaves=31
num_cat=0
split_feature=19 16 19 4 19 13 19 4 18 19 5 7 19 19 16 16 19 7 3 19 19 19 5 19 4 3 9 18 4 16
split_gain=135.471 21.4289 15.4208 14.2091 14.5158 7.99011 7.98069 9.47766 7.15249 8.7602 5.94682 5.56532 4.39869 4.21248 7.13202 4.11916 4.00869 3.50547 3.23014 4.45643 2.71313 2.6259 2.6135 3.45774 2.56027 3.21878 2.99935 2.43437 3.61222 2.74348
threshold=21757294.962413158 1.5000000000000002 14816224.882024664 1.0000000180025095e-35 7296923.3201307962 1.0000000180025095e-35 148971189.49629372 1.5000000000000002 1.0000000180025095e-35 24942077.304653749 1.0000000180025095e-35 0.55000000000000016 488794.31637276063 53759499.46110931 6.5000000000000009 1.5000000000000002 8110437.9223990282 0.63333333333333341 2.5000000000000004 3567972.1268692738 21356852.171097174 4251473.3212361401 1.0000000180025095e-35 5807154.6159363501 4.5000000000000009 2.5000000000000004 1.0000000180025095e-35 1.0000000180025095e-35 3.5000000000000004 1.5000000000000002
decision_type=2 2 2 2 2 2 2 2 2 2 2 2 2 2 2 2 2 2 2 2 2 2 2 2 2 2 2 2 2 2
left_child=2 6 3 4 12 11 7 -2 9 -3 16 -4 -1 17 -15 -5 -6 -11 19 -14 27 -21 23 -17 25 -25 -27 28 29 -13
right_child=1 8 5 15 10 -7 -8 -9 -10 13 -12 20 18 14 -16 22 -18 -19 -20 21 -22 -23 -24 24 -26 26 -28 -29 -30 -31
leaf_value=-0.021669826570489669 -0.0045127324788766894 -0.041429477527316017 -0.049211691460505275 0.010241021070427759 -0.075749985781625798 -0.075513697638484187 0.03915093892599391 -0.095914940949607994 -0.028465054273612789 -0.12279630997292248 0.0041742484750372354 0.013463357383530503 0.020339634730427034 -0.093356896838491799 -0.16593886795855253 0.032148339666196603 -0.026023249028299784 -0.07397652705628098 0.021485735040357223 -0.050860575978905066 0.039047257364479025 -0.0046298203624074788 0.029535488581740234 0.031670420902659084 0.0390671997674292 0.0037275845713500714 -0.035957737336372725 0.028042649642479947 0.018139220668547753 -0.033993793442826756
leaf_weight=9.0028545558452588 7.9420342445373553 8.6336733847856504 7.3062051683664313 62.292582854628563 4.754349321126937 5.1949807256460181 4.7422612607479087 4.4115143716335297 5.8901464641094199 4.5923491120338467 15.691589236259459 3.8677913397550681 18.599315240979195 10.128832891583441 5.082949072122573 21.837888315320015 27.468494966626167 18.447810024023056 65.267849907279015 3.8799310475587871 3.7471721619367591 14.742204010486601 116.30411842465401 6.7597166597843197 5.258066549897193 16.854033604264263 6.6355780065059653 4.4411555528640738 7.1047245860099784 14.321985960006712
leaf_count=46 40 43 36 329 23 25 25 21 30 21 82 20 98 49 23 117 139 90 346 20 20 75 625 36 28 87 34 23 37 74
internal_value=0 -0.0646378 0.0102925 0.01348 0.00194779 -0.0171124 -0.0159867 -0.0371529 -0.0803974 -0.0869216 -0.021068 -0.00967425 0.011839 -0.0971894 -0.11761 0.0212714 -0.0333602 -0.0837073 0.0147824 0.0030282 -0.00104688 -0.014262 0.0252283 0.0164927 0.00686408 0.00126639 -0.00748312 -0.00609939 -0.012094 -0.0239027
internal_weight=0 69.8716 441.333 395.349 159.407 45.984 17.0958 12.3535 52.7758 46.8856 47.9144 40.789 111.492 38.2519 15.2118 235.942 32.2228 23.0402 102.489 37.2215 33.4828 18.6221 173.649 57.3453 35.5074 30.2493 23.4896 29.7357 25.2945 18.1898
internal_count=2662 342 2320 2085 829 235 86 61 256 226 244 210 585 183 72 1256 162 111 539 193 174 95 927 302 185 157 121 154 131 94
shrinkage=0.05


Tree=6
num_leaves=31
num_cat=0
split_feature=19 17 16 16 4 18 19 17 19 19 19 7 19 19 13 19 17 19 19 4 16 16 3 19 16 17 11 19 19 19
split_gain=114.985 48.3823 36.1441 22.7857 11.6371 8.98888 12.8576 10.2614 15.4118 8.0141 6.80927 6.06471 5.50625 8.88994 4.78355 4.62607 3.99725 4.25497 3.92253 5.25827 3.58531 2.70462 2.64335 3.11623 3.85721 2.78807 2.48758 1.61086 2.64647 1.34873
threshold=22143401.965514649 3.5000000000000004 1.5000000000000002 1.5000000000000002 1.0000000180025095e-35 1.0000000180025095e-35 24942077.304653749 3.5000000000000004 63059670.76549881 7012743.6822474981 16017642.242864082 0.86607142857142871 1067846.2570174087 7012743.6822474981 1.0000000180025095e-35 4460023.0000660429 2.5000000000000004 30291137.853600975 148971189.49629372 1.5000000000000002 4.5000000000000009 6.5000000000000009 2.5000000000000004 3567972.1268692738 2.5000000000000004 1.5000000000000002 1.0000000180025095e-35 11573148.264007859 15301231.916296808 436035.76816288132
decision_type=2 2 2 2 2 2 2 2 2 2 2 2 2 2 2 2 2 2 2 2 2 2 2 2 2 2 2 2 2 2
left_child=1 4 12 18 9 6 -5 8 16 22 -4 21 -3 15 26 -14 17 -8 19 -2 -19 -11 23 -1 25 -25 27 -13 -29 -24
right_child=3 2 10 5 -6 -7 7 -9 -10 11 -12 14 13 -15 -16 -17 -18 20 -20 -21 -22 -23 29 24 -26 -27 -28 28 -30 -31
leaf_value=-0.020869954138785791 -0.0041825863980468466 0.13210796398587407 -0.019143844959303966 0.022703344249988971 -0.027732552409534039 0.017117049879840567 0.13719274614683827 0.051067602833961973 0.172300412453126 0.063742406373293412 0.061575025334165007 -0.0098211998796245478 0.063209862261849686 0.11384307508273045 0.051980781035001283 -0.0075608615272708072 0.043972984141743499 0.047278448825294125 -0.037221567791037018 0.072240164898963885 0.11588226010994561 0.0079821489881466787 0.0039621007989815845 0.073498734205112312 -0.024090668710859586 0.0078299858216511094 -0.024647178028293318 0.044695770756462708 -0.011017767849646112 -0.027926975506067354
leaf_weight=12.34879106283188 5.9665438681840879 4.4008775353431728 19.251225039362911 5.7969534099102011 167.64922718703747 4.564035326242446 5.4059401154518181 7.2587022483348838 8.7309448868036252 6.4065019935369474 3.0229738354682913 9.0536827594041842 7.4366674870252627 6.9208343625068656 3.8980629444122306 3.3489831537008286 3.6382394134998313 4.0868580341339111 3.4970495551824561 3.6142220944166183 3.5663508623838425 3.2922320365905762 3.627281740307807 3.1507936865091306 3.71889328956604 3.3188372105360031 11.877671509981157 4.8757427930831891 3.7870714217424393 38.604845106601715
leaf_count=91 39 26 135 38 1260 30 31 42 44 42 20 62 49 44 25 23 21 24 25 21 21 22 25 21 25 23 84 34 26 289
internal_value=0 -0.011686 0.0367636 0.0659032 -0.0194878 0.0834626 0.0913309 0.103502 0.11847 -0.00668475 -0.00818897 0.00999747 0.0820554 0.0696151 -8.49375e-05 0.0412353 0.0903217 0.103234 0.00810309 0.0246469 0.0792474 0.0448146 -0.0178091 -0.003982 0.0164867 0.0398115 -0.00694289 0.00492659 0.0203398 -0.025188
internal_weight=0 319.991 44.3816 56.1258 275.61 43.048 38.484 32.687 25.4283 107.96 22.2742 43.191 22.1074 17.7065 33.4922 10.7857 16.6974 13.0591 13.0778 9.58077 7.65321 9.69873 64.7694 22.5373 10.1885 6.46963 29.5942 17.7165 8.66281 42.2321
internal_count=2662 2326 297 336 2029 251 221 183 141 769 155 295 142 116 231 72 97 76 85 60 45 64 474 160 69 44 206 122 60 314
shrinkage=0.05


Tree=7
num_leaves=31
num_cat=0
split_feature=19 19 7 16 16 9 19 5 16 16 19 19 19 3 19 19 17 19 5 19 19 5 17 7 19 19 5 10 17 5
split_gain=17.9691 8.52922 6.37933 7.99487 6.51012 7.3769 5.77604 4.31776 6.58474 4.1185 3.90523 3.37391 4.72845 2.79161 2.41063 2.51917 5.0689 4.19863 2.28579 2.17868 6.17974 4.51861 2.38567 3.61225 2.05273 2.01689 1.74955 1.72956 6.43401 1.59383
threshold=9135732.4276572261 86615397.923306525 0.55000000000000016 1.5000000000000002 3.5000000000000004 1.0000000180025095e-35 30863663.834676888 1.5000000000000002 14.500000000000002 2.5000000000000004 9495137.0003096927 13392527.165002782 21258968.370227009 2.5000000000000004 24942077.304653749 14974898.882792251 1.5000000000000002 17763234.022108607 1.0000000180025095e-35 5697580.5267780004 5939364.2203189945 1.0000000180025095e-35 3.5000000000000004 1.0000000180025095e-35 17571459.706136331 14237899.074414343 1.0000000180025095e-35 1.0000000180025095e-35 2.5000000000000004 1.0000000180025095e-35
decision_type=2 2 2 2 2 2 2 2 2 2 2 2 2 2 2 2 2 2 2 2 2 2 2 2 2 2 2 2 2 2
left_child=19 2 3 -2 5 -5 7 8 10 -8 -4 -6 -13 18 15 25 17 -17 -12 -1 -21 22 23 -22 -9 27 -11 28 -15 -29
right_child=1 -3 6 4 11 -7 9 24 -10 26 13 12 -14 14 -16 16 -18 -19 -20 20 21 -23 -24 -25 -26 -27 -28 29 -30 -31
leaf_value=-0.019822603396231209 -0.01735648214676112 -0.035009846964423073 0.079981908996091658 0.19837859973952826 0.10075785223875572 0.054691705143845172 0.10440498909564296 -0.024950074818864333 0.11805876648779129 -0.0088730371508605362 -0.034921368160127218 -0.035249542752441236 0.077349352262538862 -0.0015477176346495841 -0.035126077419423259 0.14988046930557572 0.013021322446067504 0.041140844556551225 0.022664240555701418 0.092931158489065011 0.068956469762934777 -0.026181473492044301 -0.034903953313657983 0.0053555190840872723 0.013931951287938294 -0.034956351629061355 0.05330465751643735 0.02025856778327749 0.12324057518786186 -0.03490476884442089
leaf_weight=63.381313689053059 2.8035258650779715 6.883653510361909 2.169114723801612 1.9230698347091657 1.8401520550251005 1.6680900603532791 2.8616870120167723 10.14478864520788 1.6314393281936634 1.8899126127362249 5.1045750714838531 1.9693488739430907 1.7707017064094541 2.9848798140883499 1.8695142455399025 1.6210746690630897 5.1918628215789795 1.9622557163238523 2.6014818660914898 1.5639467127621163 2.8819342628121349 17.427758496254683 2.3724673315882674 9.9068167917430401 5.1014647446572772 2.1103187352418891 2.8186845853924751 3.6160958223044872 1.5795527920126913 2.052742462605238
leaf_count=1040 38 102 28 22 26 22 36 167 22 24 79 26 20 43 26 22 72 25 39 24 40 290 37 145 73 32 35 52 23 32
internal_value=0 0.0180721 0.0233458 0.0565367 0.0791246 0.131636 0.0164108 0.0102184 0.020012 0.0570988 0.0151447 0.0453306 0.0180596 0.0105628 0.0192931 0.0241105 0.0445917 0.0903339 -0.0154811 -0.014337 -0.00415687 -0.00881613 0.0111453 0.0196879 -0.01194 0.00955011 0.0283481 0.0187283 0.0416361 0.000283377
internal_weight=0 76.17 69.2863 11.9749 9.17136 3.59116 57.3114 49.7412 34.4949 7.57028 32.8635 5.5802 3.74005 30.6944 22.9883 21.1188 8.77519 3.58333 7.70606 97.5342 34.1529 32.589 15.1612 12.7888 15.2463 12.3436 4.7086 10.2333 4.56443 5.66884
internal_count=2662 1086 984 154 116 44 830 735 495 95 473 72 46 445 327 301 119 47 118 1576 536 512 222 185 240 182 59 150 66 84
shrinkage=0.05


Tree=8
num_leaves=31
num_cat=0
split_feature=19 17 16 16 4 19 19 17 16 4 19 7 19 17 16 4 19 19 19 4 19 18 16 19 11 8 16 9 16 9
split_gain=110.176 32.4392 24.8254 15.3844 14.36 16.0444 11.0936 13.994 7.56079 6.50238 6.00152 5.91395 5.72109 5.55928 5.259 5.15585 4.45276 6.50303 4.0372 5.67212 4.06352 3.74709 3.63387 3.42742 3.12866 3.00644 2.96775 2.74802 2.44003 2.21022
threshold=18533885.41849751 3.5000000000000004 1.5000000000000002 1.5000000000000002 1.0000000180025095e-35 7296923.3201307962 24942077.304653749 2.5000000000000004 4.5000000000000009 3.5000000000000004 49826930.242542692 0.86607142857142871 148971189.49629372 2.5000000000000004 4.5000000000000009 1.5000000000000002 9256001.7709435243 1067846.2570174087 5342984.7521689022 3.5000000000000004 6094178.2748707654 1.0000000180025095e-35 13.500000000000002 9135732.4276572261 1.0000000180025095e-35 0.29166666666666669 5.5000000000000009 1.0000000180025095e-35 3.5000000000000004 1.0000000180025095e-35
decision_type=2 2 2 2 2 2 2 2 2 2 2 2 2 2 2 2 2 2 2 2 2 2 2 2 2 2 2 2 2 2
left_child=1 4 16 12 5 -1 8 10 13 28 14 25 15 -5 -8 -2 17 -3 -6 22 -21 -13 29 -4 -16 -7 -12 -25 -9 -20
right_child=3 2 23 6 18 11 7 9 -10 -11 26 21 -14 -15 24 -17 -18 -19 19 20 -22 -23 -24 27 -26 -27 -28 -29 -30 -31
leaf_value=0.016511893269781291 -0.0019360685047635794 -0.094555709724805495 0.023975084958237983 -0.033696478392161104 0.033334598398414697 -0.071983820001324833 -0.10709207959222618 -0.082006494145601169 -0.0046618700505498285 0.00050862161598431044 -0.098779048525763469 -0.015620331174620994 0.038934591720456442 -0.10078009847936231 -0.023634850214805797 -0.061483529423029461 -0.097821441999697362 -0.032436830134788749 0.019718813316290825 -0.012652096152962325 0.035082842622579061 0.029836286588176237 -0.03083339289277999 -0.034457605433778148 -0.082180410603421572 -0.018373756146827073 -0.15231115552147781 0.017151659124098575 -0.040588934687973741 0.0013501533958649547
leaf_weight=93.35353821516037 9.580151319503786 5.5619544982910218 16.542100891470913 8.155717074871065 83.218605697154999 6.6916865557432157 8.4188138693571144 6.9001981019973773 12.407701194286345 6.2521425634622565 4.9886444956064206 33.495065316557884 4.6117450147867194 4.970546916127204 4.6596055179834348 5.8577280640602103 5.4386501014232627 17.373725980520248 46.771915107965469 4.8640516102313986 53.446204513311386 5.2432398945093146 4.9904509186744681 6.0611074864864332 4.4721358120441437 4.2928466498851776 5.3824627101421356 4.4900805503129959 7.3373742699623108 25.199786245822906
leaf_count=502 47 26 88 40 462 32 36 30 62 29 21 168 25 24 21 26 26 88 253 27 294 27 26 30 20 21 21 23 32 135
internal_value=0 0.0111439 -0.0244597 -0.0487798 0.0166058 0.00429218 -0.0593129 -0.0733778 -0.0326465 -0.0419965 -0.0964062 -0.0186501 -0.00993262 -0.0590992 -0.0785866 -0.0245307 -0.057146 -0.0475008 0.0246692 0.0193383 0.0311009 -0.00946777 0.0104264 0.00977214 -0.0523067 -0.0510326 -0.126561 -0.0124952 -0.0606618 0.0132873
internal_weight=0 417.035 55.4676 93.995 361.567 143.076 73.9453 48.4114 25.534 20.4897 27.9217 49.7228 20.0496 13.1263 17.5506 15.4379 28.3743 22.9357 218.491 135.272 58.3103 38.7383 76.9622 27.0933 9.13174 10.9845 10.3711 10.5512 14.2376 71.9717
internal_count=2662 2228 281 434 1947 750 336 210 126 91 119 248 98 64 77 73 140 114 1197 735 321 195 414 141 41 53 42 53 62 388
shrinkage=0.05


Tree=9
num_leaves=31
num_cat=0
split_feature=19 17 16 16 4 19 18 19 17 19 19 7 13 7 19 19 10 17 19 16 15 19 11 16 5 11 19 19 19 19
split_gain=95.0376 42.5446 27.9639 16.5514 11.109 7.11676 6.54998 8.93597 6.75502 9.60553 6.39003 4.98884 4.30816 3.54431 3.4399 5.92213 3.25376 2.65644 3.05859 2.9432 2.63002 4.50373 2.36774 2.21954 2.21373 1.64573 1.48425 1.46861 2.35158 1.34609
threshold=22143401.965514649 3.5000000000000004 1.5000000000000002 1.5000000000000002 1.0000000180025095e-35 7012743.6822474981 1.0000000180025095e-35 24942077.304653749 3.5000000000000004 63059670.76549881 16498169.677020038 0.86607142857142871 1.0000000180025095e-35 0.86607142857142871 9256001.7709435243 1067846.2570174087 1.0000000180025095e-35 2.5000000000000004 30291137.853600975 4.5000000000000009 1.0000000180025095e-35 2830336.6469505304 1.0000000180025095e-35 6.5000000000000009 1.0000000180025095e-35 1.0000000180025095e-35 488794.31637276063 11573148.264007859 15301231.916296808 5342984.7521689022
decision_type=2 2 2 2 2 2 2 2 2 2 2 2 2 2 2 2 2 2 2 2 2 2 2 2 2 2 2 2 2 2
left_child=1 4 14 13 5 20 7 -5 9 17 -4 23 22 -2 15 -3 -15 18 -9 -20 26 -22 27 -7 25 -17 -1 -13 -29 -6
right_child=3 2 10 6 29 11 -8 8 -10 -11 -12 12 -14 16 -16 24 -18 -19 19 -21 21 -23 -24 -25 -26 -27 -28 28 -30 -31
leaf_value=0.0064427121879218454 0.052127174201813925 0.10580933947571761 -0.018798394860515686 0.020356692400128884 -0.033282635411539335 0.055671485035310581 0.014928153982276017 0.11186637099425562 0.04468163210808377 0.1355717584776838 0.058624160525755212 -0.0096903068441482679 0.047931102482646516 -0.037779583710011555 0.1058411232890611 0.045825238968622034 0.019680982398261406 0.038758021164764796 0.038208132777456744 0.096927368671413258 -0.03695404229541023 0.043458206512808788 -0.024408805648435679 0.0063440829825087211 0.071995804047091272 0.0031920601481690344 -0.023292564530923494 0.041191479565183646 -0.01091521534070208 -0.023765955378551792
leaf_weight=4.5707933753728858 3.3269331604242316 5.1594609022140565 18.987394437193874 6.0085504651069632 58.082994900643826 6.9240884780883771 4.7338448762893668 6.2649312317371431 7.7681200951337805 10.440635874867437 3.1002089232206336 9.0170352905988711 4.0691496133804312 4.6812112480401975 5.1785017549991599 5.9628652632236463 5.200858473777771 3.8613621890544882 4.5259511321783048 4.0379424244165421 2.9101475924253455 4.3352756798267365 11.716474443674089 3.4004233479499817 4.5432325005531302 3.6487536579370499 51.271326243877411 5.0791664123535138 3.7742575854063034 103.13599154353142
leaf_count=32 21 26 136 38 462 42 30 31 42 44 19 62 25 31 28 37 33 21 24 21 22 31 84 22 28 23 389 34 26 798
internal_value=0 -0.0112449 0.0328641 0.0570131 -0.0189031 -0.00641822 0.070744 0.076902 0.0861097 0.097157 -0.00793139 0.00902089 -0.000306114 0.00748939 0.0696534 0.0599509 -0.00753852 0.075698 0.085317 0.0658947 -0.0171814 0.0111604 -0.00694027 0.0394253 0.0432354 0.0296409 -0.0208587 0.00451268 0.0189781 -0.0271946
internal_weight=0 314.868 46.5804 60.8503 268.287 107.068 47.6413 42.9075 36.8989 29.1308 22.0876 43.9806 33.6561 13.209 24.4928 19.3143 9.88207 18.6902 14.8288 8.56389 63.0875 7.24542 29.5869 10.3245 14.1549 9.61162 55.8421 17.8705 8.85342 161.219
internal_count=2662 2326 297 336 2029 769 251 221 183 141 155 295 231 85 142 114 64 97 76 45 474 53 206 64 88 60 421 122 60 1260
shrinkage=0.05


Tree=10
num_leaves=31
num_cat=0
split_feature=19 19 19 4 4 8 15 16 19 16 17 9 19 7 5 7 4 4 13 17 16 19 19 5 5 19 11 11 19 16
split_gain=15.7719 6.97474 6.16442 6.65807 6.22553 6.34719 5.35976 4.93538 4.90211 6.63738 5.67053 5.05142 5.57526 4.23636 3.75542 2.59876 2.14772 2.93364 4.38788 3.66491 4.07822 4.41245 4.43316 3.10011 2.12304 2.11679 2.06004 1.83862 2.02782 1.75245
threshold=7140471.9067761255 86615397.923306525 14974898.882792251 1.5000000000000002 8.5000000000000018 0.45000000000000007 1.0000000180025095e-35 1.5000000000000002 10521630.292923959 3.5000000000000004 1.5000000000000002 1.0000000180025095e-35 9135732.4276572261 0.77500000000000013 3.5000000000000004 1.0000000180025095e-35 3.5000000000000004 1.0000000180025095e-35 1.0000000180025095e-35 3.5000000000000004 1.5000000000000002 21000453.192493878 17235372.680646282 1.0000000180025095e-35 1.0000000180025095e-35 26742468.763227601 1.0000000180025095e-35 1.0000000180025095e-35 2591882.0333759696 4.5000000000000009
decision_type=2 2 2 2 2 2 2 2 2 2 2 2 2 2 2 2 2 2 2 2 2 2 2 2 2 2 2 2 2 2
left_child=27 2 3 6 5 14 7 -2 9 10 -9 12 -11 -10 16 -5 17 18 24 20 -19 22 -22 -23 25 -4 -18 28 -1 -30
right_child=1 -3 4 15 -6 -7 -8 8 13 11 -12 -13 -14 -15 -16 -17 26 19 -20 -21 21 23 -24 -25 -26 -27 -28 -29 29 -31
leaf_value=-0.025358126730503722 -0.013864338436245949 -0.035005183925615684 0.043895297341248744 0.041752534632709962 0.11103766067558379 0.096883923655029902 -0.034952814167337677 0.051010389153789727 0.075219496129639629 0.022639798288876595 0.17217633896259738 -0.035020089010153362 0.14725443197620908 -0.0041968259527794989 -0.035205506523250392 -0.018489641126057495 -0.035058436192331122 -0.035337839299127878 0.088111458029057343 0.10138833683930611 0.024695058847862293 -0.017747372074084198 0.13073935600283607 0.057183102698787347 -0.035274758653178348 -0.016647421914285015 0.030320035053818278 -0.026374966675654855 0.002947340635192443 -0.02317912763270117
leaf_weight=15.932728782296179 4.7171940095722737 6.8141057379543772 3.1582492366433215 1.9536368213593984 2.385593742132186 3.0164318531751624 3.4575030095875254 1.7398088835179826 2.2644542418420315 2.6070836596190934 2.1699668169021606 1.8205903023481367 1.3688287883996961 6.4977370612323266 2.7183421552181235 21.401377651840448 2.5532934926450244 1.7380135133862484 1.614843703806401 2.5586670525372019 1.6679293923079948 2.8315761610865593 2.4089658781886101 2.6934251040220261 3.0515858419239521 2.6595340296626091 2.2815379947423935 29.720477726310492 25.157532010227442 8.6167253293097001
leaf_count=268 68 102 42 29 27 33 53 24 31 41 30 27 17 98 37 349 37 22 18 32 22 35 31 31 40 33 28 497 415 145
internal_value=0 0.0137158 0.0175171 0.00603771 0.0328887 0.0275549 0.0231207 0.0317808 0.0434394 0.0679146 0.118259 0.0339572 0.0655422 0.0163271 0.0210065 -0.0134504 0.0262364 0.0322729 0.0123042 0.047336 0.03514 0.047897 0.0873548 0.0187811 -0.00149797 0.0162189 -0.00420659 -0.0165369 -0.0106545 -0.00371823
internal_weight=0 94.1503 87.3362 49.9982 37.338 34.9524 26.6432 23.1857 18.4685 9.70628 3.90978 5.7965 3.97591 8.76219 31.936 23.355 29.2176 24.3828 10.4842 13.8986 11.3399 9.6019 4.0769 5.525 8.86937 5.81778 4.83483 79.4275 49.707 33.7743
internal_count=2662 1337 1235 767 468 441 389 336 268 139 54 85 58 129 408 378 371 306 133 173 141 119 53 66 115 75 65 1325 828 560
shrinkage=0.05


Tree=11
num_leaves=31
num_cat=0
split_feature=19 17 4 19 19 19 18 13 7 5 3 4 17 19 19 17 19 19 3 17 19 19 4 19 15 19 17 3 9 10
split_gain=93.2122 24.9839 13.7842 13.8742 9.81575 9.65809 8.85142 7.56476 4.94193 5.48009 4.30779 3.72809 3.71104 12.0266 11.314 3.68389 3.54828 3.35706 3.15592 4.61567 4.4756 3.02126 4.2052 4.09964 3.00375 2.71319 2.43599 2.41246 2.19474 1.93598
threshold=16017642.242864082 3.5000000000000004 1.0000000180025095e-35 7296923.3201307962 21757294.962413158 1067846.2570174087 1.5000000000000002 1.0000000180025095e-35 0.86607142857142871 1.0000000180025095e-35 2.5000000000000004 4.5000000000000009 3.5000000000000004 41801629.638680838 71907539.584725007 3.5000000000000004 21000453.192493878 24942077.304653749 2.5000000000000004 1.0000000180025095e-35 3567972.1268692738 5342984.7521689022 3.5000000000000004 6094178.2748707654 1.0000000180025095e-35 5069499.5589014841 1.5000000000000002 2.5000000000000004 1.0000000180025095e-35 1.0000000180025095e-35
decision_type=2 2 2 2 2 2 2 2 2 2 2 2 2 2 2 2 2 2 2 2 2 2 2 2 2 2 2 2 2 2
left_child=1 2 3 18 7 -3 12 15 -5 10 -10 24 14 -14 17 16 29 -6 19 20 -1 -4 -23 -24 -7 -21 -12 -19 -29 -2
right_child=4 5 21 8 6 11 -8 -9 9 -11 26 -13 13 -15 -16 -17 -18 27 -20 25 -22 22 23 -25 -26 -27 -28 28 -30 -31
leaf_value=0.0088642036465289998 0.011727953594969974 -0.077876427509320625 0.032790551963279957 -0.047713327960091027 -0.022713040610940607 -0.021992702585794829 0.012623968357572794 -0.077117616770287001 0.013555026565986172 0.018419291423975224 -0.015152744311493979 0.028981134243917128 -0.083543396519038207 -0.0055575276278165197 -0.10140346315670785 -0.047875387155767224 0.039071785520758628 -0.03104934772083234 0.022649525838305668 0.028550603390890845 -0.057518557979436204 0.012204080122896383 -0.01292330034592425 0.03535459506584817 0.01557050285493821 -0.0088922516918224972 -0.054043158260874968 -0.074134240728171569 -0.041645991187941787 -0.019732259843331542
leaf_weight=5.0243594348430651 7.2200117260217747 6.2693460136651984 79.740268304944038 10.751980036497114 10.307565942406653 37.256318166851997 5.4839752316474906 4.6418869346380225 5.7630352228879955 11.965746253728865 7.2549992799758938 4.9956816434860221 7.9927504658699062 12.959203049540518 12.688868269324301 5.0758020132780066 4.5017317533493033 7.5612044334411648 59.250888735055923 14.574108839035036 5.1332300901412964 69.527668312191963 4.8416074663400641 47.921275794506073 6.2089863419532767 7.2424665242433539 9.0484083741903287 15.882545173168184 7.727739840745925 15.153531491756439
leaf_count=28 37 26 462 49 48 186 27 20 29 62 35 27 34 60 46 23 24 32 332 80 25 384 27 276 31 37 44 64 31 76
internal_value=0 0.0118602 0.0169343 0.00462874 -0.0389499 -0.0194799 -0.0486997 -0.017474 -0.0181634 -0.0088275 -0.0236023 -0.0119253 -0.0531765 -0.0353076 -0.0600882 -0.00880887 -0.00143056 -0.0474494 0.0158178 0.00315813 -0.0246829 0.0252185 0.0202811 0.0309245 -0.0166268 0.0161207 -0.036737 -0.055629 -0.0635007 -0.00957995
internal_weight=0 392.77 338.04 136.009 117.197 54.7303 80.6039 36.593 44.7842 34.0322 22.0664 48.461 75.1199 20.952 54.1679 31.9511 26.8753 41.4791 91.2251 31.9742 10.1576 202.031 122.291 52.7629 43.4653 21.8166 16.3034 31.1715 23.6103 22.3735
internal_count=2662 2140 1870 721 522 270 342 180 219 170 108 244 315 94 221 160 137 175 502 170 53 1149 687 303 217 117 79 127 95 113
shrinkage=0.05


Tree=12
num_leaves=31
num_cat=0
split_feature=17 16 7 13 16 4 4 4 3 16 16 17 4 11 17 15 3 17 16 9 5 16 9 4 7 18 15 4 17 5
split_gain=27.1265 10.1044 7.39042 5.22319 3.49237 3.05221 3.02818 2.55208 2.45819 3.09023 2.41671 3.13361 2.30551 3.6799 1.91627 1.88775 1.80815 2.51194 2.28871 1.7892 1.75969 1.72896 2.14628 1.69092 3.41669 1.61311 1.70899 1.91318 1.5409 1.3239
threshold=3.5000000000000004 1.5000000000000002 1.0000000180025095e-35 1.0000000180025095e-35 1.5000000000000002 13.500000000000002 1.5000000000000002 4.5000000000000009 1.5000000000000002 1.5000000000000002 5.5000000000000009 1.5000000000000002 1.0000000180025095e-35 1.0000000180025095e-35 1.0000000180025095e-35 1.0000000180025095e-35 2.5000000000000004 1.0000000180025095e-35 3.5000000000000004 1.0000000180025095e-35 1.5000000000000002 6.5000000000000009 1.0000000180025095e-35 1.0000000180025095e-35 0.41666666666666669 1.0000000180025095e-35 1.0000000180025095e-35 1.0000000180025095e-35 1.0000000180025095e-35 7.5000000000000009
decision_type=2 2 2 2 2 2 2 2 2 2 2 2 2 2 2 2 2 2 2 2 2 2 2 2 2 2 2 2 2 2
left_child=2 7 6 4 -4 12 8 15 14 -10 11 -11 13 16 -1 23 28 -18 -19 20 -3 22 -20 24 -2 26 27 -5 -6 -14
right_child=1 19 3 25 5 -7 -8 -9 9 10 -12 -13 29 -15 -16 -17 17 18 21 -21 -22 -23 -24 -25 -26 -27 -28 -29 -30 -31
leaf_value=0.03119745566103382 0.0090223204559451223 0.025886656622428561 -0.022943097220425663 0.026730485816107492 0.054118549562581657 0.029300616345662236 -0.0096404793982961465 0.015936171651137487 0.0035190811865648368 0.079341575119581453 0.0059126160468097174 0.026624927021024553 -0.012796137932918443 -0.018511455456254627 -0.01918230298968527 0.021649324772016653 -0.028451651302489951 -0.010194108486364312 0.069197234802556337 -0.0086623318873574797 -0.0037820553758192901 0.0034654577134350297 0.011096706241594137 0.073146624382837283 0.062452773897670455 -0.022720114547541002 0.045733665120741146 -0.0020686594608566047 0.012304485455540207 -0.036973240816807133
leaf_weight=2.875813886523245 4.2144483178854015 15.560662731528284 57.484068974852562 9.1977211236953824 3.2235081344842893 5.1172074303030959 10.788878776133059 5.5427938178181639 7.3518075570464196 5.9328523799777013 3.3449676781892768 5.3709276989102364 106.38214579224586 21.184082143008709 5.4922313764691353 4.1437028199434272 5.7679264247417477 9.1865219771862048 3.2647508680820447 10.381370604038237 7.3625237345695487 5.980803981423378 3.0977070108056068 10.700531646609305 10.315579101443292 3.4822816476225844 3.55993778258562 15.460036203265188 6.961530402302742 5.9805561676621428
leaf_count=18 25 95 449 58 19 33 79 35 53 36 21 34 810 153 39 24 43 66 21 71 49 38 22 59 55 26 23 114 46 48
internal_value=0 0.0282616 -0.00659997 -0.0096579 -0.012242 -0.00874978 0.0131137 0.0470546 0.0211974 0.0299707 0.043246 0.0542936 -0.00988825 -0.00185423 -0.00186849 0.0529265 0.00755992 0.000851971 0.00870254 0.00855862 0.0163576 0.0227665 0.0409097 0.0580633 0.0469552 0.00938705 0.0133493 0.00867386 0.0255384 -0.014083
internal_weight=0 68.2216 306.488 265.331 233.631 176.147 41.1575 34.9171 30.3686 22.0006 14.6487 11.3038 171.03 58.6668 8.36805 29.3743 37.4827 27.2977 21.5298 33.3046 22.9232 12.3433 6.36246 25.2306 14.53 31.7 28.2177 24.6578 10.185 112.363
internal_count=2662 413 2249 1969 1748 1299 280 198 201 144 91 70 1266 408 57 163 255 190 147 215 144 81 43 139 80 221 195 172 65 858
shrinkage=0.05


Tree=13
num_leaves=31
num_cat=0
split_feature=19 19 1 19 5 19 16 8 4 4 19 7 19 17 4 10 19 19 4 13 17 16 19 19 19 5 19 11 19 5
split_gain=14.0642 6.57517 8.76917 4.42049 5.6894 4.94374 4.73237 3.84857 3.41991 3.88789 3.02163 3.54086 7.50312 3.65685 5.24279 5.82251 4.37069 4.14006 2.39958 2.99671 2.50879 3.47091 3.439 2.89464 2.87657 2.17191 1.83135 1.82845 1.98099 1.67815
threshold=7140471.9067761255 86615397.923306525 1.0000000180025095e-35 14974898.882792251 2.5000000000000004 7689485.2111503007 15.500000000000002 0.45000000000000007 8.5000000000000018 3.5000000000000004 14237899.074414343 1.0000000180025095e-35 10321899.21503792 2.5000000000000004 1.5000000000000002 1.0000000180025095e-35 9339517.7483182661 12649860.796057774 1.0000000180025095e-35 1.0000000180025095e-35 3.5000000000000004 1.5000000000000002 21000453.192493878 17235372.680646282 32047093.046225149 1.0000000180025095e-35 26742468.763227601 1.0000000180025095e-35 2591882.0333759696 1.0000000180025095e-35
decision_type=2 2 2 2 2 2 2 2 2 2 2 2 2 2 2 2 2 2 2 2 2 2 2 2 2 2 2 2 2 2
left_child=27 2 3 4 5 -2 10 8 9 18 11 12 -7 17 15 -15 -17 -13 19 25 21 -20 23 -23 -24 26 -5 28 -1 -30
right_child=1 -3 -4 7 -6 6 -8 -9 -10 -11 -12 13 -14 14 -16 16 -18 -19 20 -21 -22 22 24 -25 -26 -27 -28 -29 29 -31
leaf_value=-0.024941653189741508 0.079169963506526442 -0.034988130958659422 0.13908575404005249 0.03948702562648157 -0.02963512591549667 -0.011004221795967984 0.09359879646703613 0.076580931799462931 0.084037286783564522 -0.018472413784249624 -0.034875267724383645 -0.021102693891371718 0.1278717424287745 0.11744276498755564 -0.021420165435348224 0.083755708426294831 -0.017744768423907542 0.050625729272248635 -0.035309177536215583 0.064314718470993917 0.079720441679632228 0.021555630442394124 -0.010140742722096627 0.10291319292577268 0.063257101544171912 -0.035247052876971836 -0.016377358974453107 -0.026004774930722781 0.0082834837334585087 -0.014182716408114483
leaf_weight=15.345001537352799 2.6229713112115851 6.7297720201313487 1.4299698285758484 3.3386248201131821 9.8425004817545396 2.0664253905415566 1.5520158857107151 3.5518276691436759 2.0847695544362059 5.9761690609157077 4.3032333031296721 14.400742728263145 1.8373550549149511 2.2912598513066751 3.7033025361597538 1.681215167045593 2.873155377805233 2.3383592776954165 1.7950292527675618 1.9928720742464072 3.033087193965911 1.7593911290168742 3.9397825077176094 2.8878023847937584 2.0189809501171112 3.3788688443601131 2.616969171911478 28.646983660757542 16.226238071918488 17.042302619665861
leaf_count=268 37 102 17 42 173 28 21 35 22 82 69 219 23 30 58 23 40 37 23 20 34 23 47 33 22 45 32 497 263 297
internal_value=0 0.0126713 0.0162623 0.0142639 0.00439191 0.0128343 0.0081377 0.0270013 0.0219443 0.0179901 0.00440093 0.00981948 0.0543592 0.00344771 0.0265045 0.0524305 0.0197234 -0.0110826 0.0261327 0.00865598 0.0389591 0.0289896 0.039872 0.0721119 0.0147283 -0.00322695 0.0149395 -0.0159847 -0.01008 -0.00322516
internal_weight=0 96.0465 89.3167 87.8867 49.5125 39.67 37.0471 38.3742 34.8223 32.7376 35.495 31.1918 3.90378 27.288 10.5489 6.84563 4.55437 16.7391 26.7614 11.3273 15.4341 12.401 10.606 4.64719 5.95876 9.33446 5.95559 77.2605 48.6135 33.2685
internal_count=2662 1337 1235 1218 758 585 548 460 425 403 527 458 51 407 151 93 63 256 321 139 182 148 125 56 69 119 74 1325 828 560
shrinkage=0.05


Tree=14
num_leaves=31
num_cat=0
split_feature=17 7 16 16 5 1 16 5 4 17 16 3 13 4 16 7 16 16 11 16 11 16 5 3 16 10 16 17 4 5
split_gain=22.203 8.25361 7.47468 5.60184 3.98535 5.21913 3.29172 4.66863 2.80856 3.12848 2.7032 2.39139 2.38179 2.19671 1.98389 1.96712 1.796 3.92341 2.11069 1.66957 2.14019 4.03308 1.82578 1.65931 1.45828 2.0667 1.4139 1.38645 2.28307 1.27309
threshold=3.5000000000000004 0.41666666666666669 3.5000000000000004 1.5000000000000002 1.0000000180025095e-35 1.0000000180025095e-35 1.5000000000000002 1.5000000000000002 1.5000000000000002 2.5000000000000004 13.500000000000002 2.5000000000000004 1.0000000180025095e-35 2.5000000000000004 3.5000000000000004 0.41666666666666669 4.5000000000000009 3.5000000000000004 1.0000000180025095e-35 3.5000000000000004 1.0000000180025095e-35 12.500000000000002 1.5000000000000002 2.5000000000000004 1.5000000000000002 1.0000000180025095e-35 2.5000000000000004 1.5000000000000002 1.0000000180025095e-35 1.5000000000000002
decision_type=2 2 2 2 2 2 2 2 2 2 2 2 2 2 2 2 2 2 2 2 2 2 2 2 2 2 2 2 2 2
left_child=1 6 15 12 10 13 -1 8 9 14 16 -4 -3 26 23 -2 17 -5 -19 -15 22 -22 -21 -8 -17 -26 -6 -18 -29 -13
right_child=2 3 11 4 5 -7 7 -9 -10 -11 -12 29 -14 19 -16 24 27 18 -20 20 21 -23 -24 -25 25 -27 -28 28 -30 -31
leaf_value=0.004702789036607518 -0.013291103486456225 0.021589007035382114 -0.022877385274510782 0.00027110926779636625 0.018463394104226073 -0.037571923999105104 -0.041036469255800068 0.011428578165867466 -0.00022700077921559861 -0.0016068097946381255 -0.035498091156582659 0.0018920253310664816 -0.0055638340335507292 0.0062789885791407225 -0.029911767823129012 -0.040946240806847556 -0.001637325738783357 -0.047254668330641868 -0.0092539113337616278 0.0083356886091107193 0.021904899608210893 -0.031193295431609525 0.035155009991883229 -0.081517243000629805 -0.045299551178171596 -0.010922654677256359 0.00095070452164478468 -0.0019582870790735628 0.030756827619932006 0.031313542660897691
leaf_weight=18.753973841667175 12.987877547740935 78.910035312175751 6.2854063808918008 58.436386615037918 14.818669572472571 5.6191185861825934 4.8830953538417887 8.7348014265298826 6.2621488273143759 4.7806589901447287 5.8793650120496741 9.1126394122838956 8.9971701055765134 24.437759250402451 9.1518941223621351 35.300464868545532 21.547174707055092 7.4784646034240705 7.1454971432685852 8.2034837156534177 13.923685431480409 4.8121091723442069 28.024890065193176 5.2564818561077136 6.9537827074527749 11.775911718606949 51.859233155846596 9.5635435879230517 12.055150657892225 6.1637385934591302
leaf_count=99 61 446 29 306 84 26 23 45 33 24 27 44 50 139 43 157 109 39 37 47 75 23 161 23 32 58 276 48 66 32
internal_value=0 0.00502445 -0.0225245 0.00782844 0.00430273 0.00971475 -0.0125159 -0.0207813 -0.0300561 -0.0378159 -0.00242093 0.00308213 0.01881 0.0115337 -0.046789 -0.0307629 -0.000747708 -0.00552521 -0.0286869 0.0171524 0.0219868 0.00826714 0.0290821 -0.0620222 -0.0349629 -0.0236858 0.00484277 0.00733844 0.0162845 0.0137631
internal_weight=0 419.535 88.5798 361.712 273.805 151.699 57.8231 39.0691 30.3343 24.0721 122.106 21.5618 87.9072 146.08 19.2915 67.018 116.226 73.0603 14.624 79.4019 54.9642 18.7358 36.2284 10.1396 54.0302 18.7297 66.6779 43.1659 21.6187 15.2764
internal_count=2662 2249 413 1959 1463 831 290 191 146 113 632 105 496 805 89 308 605 382 76 445 306 98 208 46 247 90 360 223 114 76
shrinkage=0.05


Tree=15
num_leaves=31
num_cat=0
split_feature=19 17 16 16 19 5 18 19 17 19 19 13 16 19 19 5 15 19 19 19 16 19 10 19 7 19 19 17 19 5
split_gain=77.5074 34.1789 20.4588 13.9993 6.03266 4.74437 4.7439 6.54396 5.16787 6.08096 4.02157 5.85948 6.57712 3.25281 2.56095 4.42617 2.49125 5.51268 2.45703 3.47753 2.45658 2.22012 2.20247 2.18691 3.18728 2.18489 6.54523 2.08818 1.91386 3.64415
threshold=22143401.965514649 3.5000000000000004 1.5000000000000002 1.5000000000000002 16774029.040551657 1.0000000180025095e-35 1.0000000180025095e-35 24942077.304653749 3.5000000000000004 63059670.76549881 2474154.1557098213 1.0000000180025095e-35 2.5000000000000004 148971189.49629372 8018765.4065528978 1.0000000180025095e-35 1.0000000180025095e-35 6094178.2748707654 2670990.8719271873 5697580.5267780004 5.5000000000000009 4442645.6399013801 1.0000000180025095e-35 10680206.713246735 0.41666666666666669 9135732.4276572261 7296923.3201307962 2.5000000000000004 12136306.337187693 2.5000000000000004
decision_type=2 2 2 2 2 2 2 2 2 2 2 2 2 2 2 2 2 2 2 2 2 2 2 2 2 2 2 2 2 2
left_child=1 5 14 13 -4 10 7 -5 9 -9 -1 16 -13 22 15 21 18 -18 -12 -20 25 -3 -2 27 -25 26 -21 -7 29 -26
right_child=3 2 4 6 -6 23 -8 8 -10 -11 11 12 -14 -15 -16 -17 17 -19 19 20 -22 -23 -24 24 28 -27 -28 -29 -30 -31
leaf_value=-0.028046003537293637 -0.0067417826226807837 0.042981207748723244 -0.019095875351774056 0.018161618458696335 0.055074193281660848 -0.033096235571370737 0.013844657760256833 0.065655800258888342 0.038189204316155481 0.1105804100813324 0.03058116090881105 0.068479569278476607 -0.0069531993160305231 -0.03721126890583714 0.081907540680067267 0.076938888790324053 0.063216137285916699 -0.014500562088606379 -0.030871796714890199 -0.013506393556982214 -0.026465216698630573 -0.0014987333588537646 0.03933000138867309 0.039053392822324791 0.044318333489656331 -0.012561935834405734 0.048987914560453996 -0.015181519753822882 -0.024613658179728572 -0.036601955023156364
leaf_weight=28.866899229586124 4.7224828600883466 9.0620502978563362 19.248124301433567 6.2160539627075186 3.1968465894460669 71.41234128177166 4.8196719586849204 20.310869440436363 8.3511799275875074 11.972908943891523 2.9733636602759352 5.1741262376308423 6.5451478585600853 3.4827429354190818 6.9592254608869544 7.7119263708591452 3.4797817617654783 6.6278042122721672 25.637287199497223 10.674795150756838 14.066337920725344 4.0632226616144171 5.7556273639202118 2.6081840991973868 3.0788492485880878 22.264697335660458 6.8964886814355841 21.064336135983467 24.448790796101093 2.5383686423301697
leaf_count=232 28 46 137 38 18 591 30 97 42 44 24 35 46 25 33 39 25 49 206 82 104 24 32 18 24 161 45 176 190 21
internal_value=0 -0.0107587 0.0269752 0.0490766 -0.0085318 -0.0180966 0.0610799 0.0659391 0.0732478 0.0823167 -0.0115291 -0.00695944 0.0263508 0.00465112 0.0556463 0.0468756 -0.0111742 0.0122553 -0.0140442 -0.0157124 -0.00850223 0.0292114 0.0185655 -0.0250869 -0.0139675 -0.00215938 0.0110218 -0.0290156 -0.0185669 0.00775121
internal_weight=0 308.599 50.2414 65.6315 22.445 258.358 51.6707 46.851 40.635 32.2838 133.207 104.34 11.7193 13.9609 27.7964 20.8372 92.6206 10.1076 82.513 79.5396 53.9023 13.1253 10.4781 125.151 32.6742 39.836 17.5713 92.4767 30.066 5.61722
internal_count=2662 2326 297 336 155 2029 251 221 183 141 1009 777 81 85 142 109 696 74 622 598 392 70 60 1020 253 288 127 767 235 45
shrinkage=0.05


Tree=16
num_leaves=31
num_cat=0
split_feature=16 4 16 4 3 7 3 1 18 18 9 17 7 10 16 8 7 13 17 10 4 16 12 16 17 17 16 5 9 10
split_gain=4.79515 6.45714 6.37415 4.63415 3.83652 3.83015 2.27683 1.81192 1.77589 1.88473 1.67746 2.16791 1.42654 5.59094 4.14445 2.52318 2.02583 1.64741 1.51866 2.49953 2.38948 2.20914 2.12057 1.50756 1.729 1.36593 1.64393 1.30339 1.50474 1.90011
threshold=1.5000000000000002 3.5000000000000004 16.500000000000004 11.500000000000002 1.5000000000000002 0.63333333333333341 2.5000000000000004 1.0000000180025095e-35 1.0000000180025095e-35 1.5000000000000002 1.0000000180025095e-35 1.5000000000000002 0.70833333333333337 1.0000000180025095e-35 3.5000000000000004 0.29166666666666669 0.41666666666666669 1.0000000180025095e-35 1.0000000180025095e-35 1.0000000180025095e-35 1.5000000000000002 4.5000000000000009 1.0000000180025095e-35 4.5000000000000009 1.5000000000000002 3.5000000000000004 4.5000000000000009 1.5000000000000002 1.0000000180025095e-35 1.0000000180025095e-35
decision_type=2 2 2 2 2 2 2 2 2 2 2 2 2 2 2 2 2 2 2 2 2 2 2 2 2 2 2 2 2 2
left_child=3 2 4 6 5 -2 -1 25 12 -10 11 -7 13 -6 16 -16 -15 18 19 21 -21 -14 -20 24 -19 26 27 28 29 -3
right_child=1 7 -4 -5 8 10 -8 -9 9 -11 -12 -13 17 14 15 -17 -18 23 22 20 -22 -23 -24 -25 -26 -27 -28 -29 -30 -31
leaf_value=-0.031774050897639419 0.083822831372390258 0.0021178082800370358 0.093794818987575135 0.058796406684401219 -0.017875103972883801 -0.0046570565372432773 -0.008597700764682116 0.028629886263467554 -0.027316771796276992 0.036912012506956582 -0.035062471048921066 0.082042784949883041 0.075907928540745573 0.054191402872261533 -0.035122845730922198 0.03708607252731845 0.12103595209706026 0.013555495844275373 -0.0059459212250991961 -0.022684046368320086 0.045640811725664455 -0.00049304195402254114 0.034292621044981597 -0.00024335362856814239 0.077244111141688943 0.015076786259924084 -0.031571256401441671 -0.020993248130262578 -0.034811797676796881 0.074451851763127685
leaf_weight=16.25827568769455 3.3481928408145905 2.6807442493736797 2.32001132890582 2.1270271278917781 5.736701052635909 1.651181481778621 30.432327572256327 2.3385444916784754 6.4526421315968028 1.38782512396574 1.2986399158835409 1.2799062393605707 2.7022244893014413 3.8937056101858625 1.8661206774413583 3.4396649487316608 1.5989311672747124 2.051787592470645 36.089936964213848 4.09897655621171 1.8604305498301981 1.4559556841850279 3.6009114831686011 2.8669841401278973 2.2171787805855274 2.9918633401393881 15.168698027729986 7.2387086376547813 1.3221466094255445 1.372830808162689
leaf_count=266 41 39 29 33 80 26 494 32 96 20 19 19 40 48 27 42 23 30 546 66 29 24 53 42 30 45 253 125 22 23
internal_value=0 0.00511284 0.0119782 -0.01338 0.00984297 0.0438694 -0.016668 -0.0137991 0.00667217 -0.0159478 0.0122428 0.0332018 0.00908577 0.0220143 0.0432057 0.0116892 0.0736502 0.00533167 0.00211268 0.0194051 -0.00135413 0.0491567 -0.00229532 0.0278 0.0466335 -0.0170233 -0.02048 -0.00714287 0.0115074 0.0266153
internal_weight=0 124.331 91.2179 48.8176 88.8979 7.57792 46.6906 33.1135 81.32 7.84047 4.22973 2.93109 73.4795 16.5351 10.7984 5.30579 5.49264 56.9444 49.8084 10.1176 5.95941 4.15818 39.6908 7.13595 4.26897 30.775 27.7831 12.6144 5.37572 4.05358
internal_count=2662 1869 1330 793 1301 105 760 539 1196 116 64 45 1080 220 140 69 71 860 758 159 95 64 599 102 60 507 462 209 84 62
shrinkage=0.05


Tree=17
num_leaves=31
num_cat=0
split_feature=19 17 16 4 19 16 19 17 17 19 16 19 17 9 13 19 5 4 5 19 3 17 19 19 4 19 19 19 10 16
split_gain=76.8611 19.6686 16.0736 12.5387 11.7502 8.61316 9.85443 8.07625 7.94986 7.18088 7.23688 4.76131 5.33454 4.41619 4.21367 3.97487 3.79188 3.7191 3.2276 3.65136 3.04768 4.2547 3.84472 2.97368 4.09173 4.11285 2.6062 2.52201 2.35051 2.10946
threshold=16017642.242864082 3.5000000000000004 1.5000000000000002 1.0000000180025095e-35 7296923.3201307962 1.5000000000000002 24942077.304653749 3.5000000000000004 3.5000000000000004 49826930.242542692 4.5000000000000009 148971189.49629372 2.5000000000000004 1.0000000180025095e-35 1.0000000180025095e-35 63059670.76549881 1.0000000180025095e-35 1.5000000000000002 1.0000000180025095e-35 7012743.6822474981 2.5000000000000004 1.0000000180025095e-35 3567972.1268692738 5342984.7521689022 3.5000000000000004 6094178.2748707654 5069499.5589014841 3760772.7544173351 1.0000000180025095e-35 7.5000000000000009
decision_type=2 2 2 2 2 2 2 2 2 2 2 2 2 2 2 2 2 2 2 2 2 2 2 2 2 2 2 2 2 2
left_child=1 3 18 4 20 11 8 9 14 10 -8 12 -2 -12 28 -9 -6 -14 19 27 21 22 -1 -5 -25 -26 -23 -3 -7 -30
right_child=5 2 -4 23 16 6 7 15 -10 -11 13 -13 17 -15 -16 -17 -18 -19 -20 -21 -22 26 -24 24 25 -27 -28 -29 29 -31
leaf_value=0.0079347045425491383 0.014450857982509557 -0.027616886058741043 0.013858767339876102 0.03199001736092548 -0.025937142021624282 0.011660835509466387 -0.076560124589901482 -0.052254758225496793 -0.076306005115387154 -0.091846518318279363 -0.045741102295759485 0.038752885867738222 -0.0098231106298789905 0.012551813956328421 -0.059449180041812391 0.002596245393882677 0.0049783590518438607 -0.064581301363096241 -0.06010560016065232 -0.060684089563321587 0.021816288085368257 0.027813452959533802 -0.053417657432139845 0.011207497218122324 -0.014219457840542907 0.034757746300772878 -0.0092195269516181094 0.017644269084457764 -0.028495477029505775 0.0049545023235391178
leaf_weight=4.8987969905138034 7.7401187568903014 10.057588741183283 25.608619093894958 74.73159684240818 31.527745842933655 10.758292123675348 12.838799923658373 5.7567616701126081 5.9003258496522895 15.841631665825842 8.9782606065273267 4.4987523704767218 5.9360931664705276 5.0915926545858374 4.4197653084993354 7.7485237270593643 14.470807000994681 6.4921437054872513 11.764187812805174 5.8090618103742591 57.141926750540733 13.972322896122934 5.3338380455970764 67.502884909510612 4.7369243651628485 45.070230916142464 7.1984210610389701 4.4349161386489859 13.818785592913629 7.1529275625944129
leaf_count=28 37 42 135 462 145 55 47 22 24 52 34 25 27 21 18 34 74 25 49 23 332 80 25 384 27 276 37 21 66 35
internal_value=0 0.0112406 -0.0156779 0.0159943 0.00428951 -0.0341756 -0.0408041 -0.0544907 -0.0224938 -0.0651389 -0.0494156 -0.00775896 -0.0181339 -0.0246461 -0.0137106 -0.0207845 -0.0162114 -0.0384272 -0.0392668 -0.0271913 0.0149395 0.00242655 -0.0240457 0.0241947 0.0192287 0.0300998 0.0152216 -0.0137663 -0.00733952 -0.0170865
internal_weight=0 384.26 57.6744 326.585 134.544 122.973 98.3057 56.2556 42.0501 42.7503 26.9087 24.6671 20.1684 14.0699 36.1498 13.5053 45.9986 12.4282 32.0658 20.3016 88.5453 31.4034 10.2326 192.042 117.31 49.8072 21.1707 14.4925 31.73 20.9717
internal_count=2662 2140 270 1870 721 522 408 210 198 154 102 114 89 55 174 56 219 52 135 86 502 170 53 1149 687 303 117 63 156 101
shrinkage=0.05


Tree=18
num_leaves=31
num_cat=0
split_feature=4 7 7 6 14 4 11 15 16 3 16 5 16 13 11 10 4 5 5 16 18 4 5 4 16 5 16 16 5 16
split_gain=5.36871 3.88032 2.42459 2.27751 2.09584 3.32133 2.40417 3.64912 3.24968 3.05343 2.95724 1.80171 2.33511 2.63653 3.71359 2.90402 1.79538 1.73651 2.50315 1.71398 1.5336 1.36244 1.62505 1.22597 1.50654 1.42162 1.55181 1.2201 1.37951 2.19393
threshold=1.5000000000000002 1.0000000180025095e-35 0.77500000000000013 1.0000000180025095e-35 1.0000000180025095e-35 4.5000000000000009 1.0000000180025095e-35 1.0000000180025095e-35 18.500000000000004 1.5000000000000002 3.5000000000000004 4.5000000000000009 9.5000000000000018 1.0000000180025095e-35 1.0000000180025095e-35 1.0000000180025095e-35 1.0000000180025095e-35 2.5000000000000004 7.5000000000000009 2.5000000000000004 1.0000000180025095e-35 1.0000000180025095e-35 1.0000000180025095e-35 1.0000000180025095e-35 4.5000000000000009 1.0000000180025095e-35 1.5000000000000002 3.5000000000000004 1.0000000180025095e-35 2.5000000000000004
decision_type=2 2 2 2 2 2 2 2 2 2 2 2 2 2 2 2 2 2 2 2 2 2 2 2 2 2 2 2 2 2
left_child=1 19 21 11 6 -6 10 8 9 -8 17 12 13 14 23 20 -15 -2 -19 -1 27 22 -3 -4 25 -25 -27 28 29 -16
right_child=4 2 3 -5 5 -7 7 -9 -10 -11 -12 -13 -14 16 15 -17 -18 18 -20 -21 -22 -23 -24 24 -26 26 -28 -29 -30 -31
leaf_value=0.010785406258918231 -0.012627755846594363 -0.021335580314745826 0.012635843660118147 -0.037047921452370222 0.049464184741261318 -0.02016128230478904 0.040657366040433407 0.045015520087573889 0.049207928958395361 -0.0099152299099143394 -0.022590369502721835 0.042277620867096619 -0.021047530067598925 0.011906635455625911 -0.0037264022657781137 -0.037510034065795679 0.045586745105108399 0.016178707039728214 -0.021307309937537159 0.031886314054394911 0.031509585017535528 -0.03703254102303296 0.021920575933707925 0.019845419727665643 -0.026244271284419599 0.015674788077024101 -0.026972098402569724 -0.024353801113453085 -0.025898226242125701 0.038661980201236706
leaf_weight=25.464948944747448 32.073424488306046 6.105861544609068 58.096399128437042 3.3909980431199065 3.9950445368885985 2.9983492568135262 3.1903844177722922 4.1467119678854933 2.7479956448078147 46.289484314620495 44.681696772575378 3.0733597278594962 9.0242923125624639 11.809560246765615 14.823906190693387 7.6277269050478926 5.9506574496626845 15.798432603478433 6.2014722004532805 15.470269456505774 2.8878187686204901 5.6166604310274115 3.3694192618131638 8.7371727004647308 4.7205084636807433 3.7322131395339948 4.9783016070723534 7.354709416627883 4.4783043265342704 3.8442174047231665
leaf_count=164 239 43 390 26 30 25 23 26 15 340 353 20 64 72 110 56 39 119 47 93 20 44 24 66 38 26 40 51 35 24
internal_value=0 0.00494295 0.00160849 0.00347665 -0.00716208 0.0196129 -0.00836912 -0.000130709 -0.00371516 -0.00665439 -0.013072 0.00438587 0.00359936 0.00519903 0.00256427 -0.0096749 0.0231913 -0.00520689 0.00561191 0.0187599 -0.00331595 -0.0175201 -0.00595365 0.00881871 -0.0011849 0.00559497 -0.00869909 -0.0066132 -0.000976173 0.00500239
internal_weight=0 210.557 169.622 154.53 162.123 6.99339 155.13 56.3746 52.2279 49.4799 98.755 151.139 148.066 139.041 121.281 41.0167 17.7602 54.0733 21.9999 40.9352 33.389 15.0919 9.47528 80.2646 22.1682 17.4477 8.71051 30.5011 23.1464 18.6681
internal_count=2662 1445 1188 1077 1217 55 1162 404 378 363 758 1051 1031 967 856 296 111 405 166 257 240 111 67 560 170 132 66 220 169 134
shrinkage=0.05


Tree=19
num_leaves=31
num_cat=0
split_feature=19 19 19 5 4 16 7 12 10 4 8 5 8 11 19 19 8 17 19 19 5 19 5 4 19 17 19 17 16 11
split_gain=12.3281 6.21611 3.74704 5.63653 5.51075 4.83332 4.25359 7.22073 5.99108 4.83912 4.16228 3.46149 2.37502 1.83433 1.92997 1.71903 3.17563 2.2887 3.64921 6.73507 3.32937 1.97364 3.57111 1.64358 2.32652 3.03596 5.10247 1.80385 1.58347 1.56192
threshold=7140471.9067761255 86615397.923306525 14974898.882792251 2.5000000000000004 10.500000000000002 16.500000000000004 1.0000000180025095e-35 1.0000000180025095e-35 1.0000000180025095e-35 1.0000000180025095e-35 0.45000000000000007 3.5000000000000004 1.0000000180025095e-35 1.0000000180025095e-35 2591882.0333759696 3893911.5331777716 0.15476190476190474 1.5000000000000002 5414590.7239903947 6094178.2748707654 1.0000000180025095e-35 3322323.8129889411 1.0000000180025095e-35 1.5000000000000002 10521630.292923959 2.5000000000000004 8886331.5730906259 1.5000000000000002 3.5000000000000004 1.0000000180025095e-35
decision_type=2 2 2 2 2 2 2 2 2 2 2 2 2 2 2 2 2 2 2 2 2 2 2 2 2 2 2 2 2 2
left_child=13 2 3 5 10 6 8 23 -2 -9 11 12 29 14 28 16 21 18 -17 -20 -21 -16 -23 24 25 27 -27 -8 -1 -4
right_child=1 -3 4 -5 -6 -7 7 9 -10 -11 -12 -13 -14 -15 15 17 -18 -19 19 20 -22 22 -24 -25 -26 26 -28 -29 -30 -31
leaf_value=-0.030747019584951941 -0.0133872522537482 -0.034978387620595873 0.014508617685569818 -0.02926039171170379 0.10469297152498724 0.10421251371566098 0.022474052584511895 0.12836630008475711 0.09041631436425375 0.0028833978781762117 0.072655414105869606 -0.035248085798577043 -0.035357569875173536 -0.025588880752646311 -0.021357498288638047 -0.024316169181897596 0.092738489637686897 -0.023436221206438988 0.12219159864975547 0.057084179150411335 -0.034633428285585743 0.084495786359467084 -0.012143794661437947 -0.01813335979332855 -0.012647902739309004 -0.005925352156268774 0.11117651156331897 -0.035189092078807681 0.018273429976255518 0.037209471400669734
leaf_weight=12.765781939029692 2.2779120840132228 6.6648112125694743 16.984255753457546 9.302814841270445 2.1220513060688964 1.4285759069025505 3.472334332764154 1.8314973525702947 3.5661285854876041 1.3235331550240514 3.6677281409502021 2.9404549598693839 1.7434469908475865 27.510110817849636 3.7570890635251981 4.8178952150046843 1.1764695197343824 13.222677778452633 1.5903436243534086 1.6239641606807707 2.5324232652783394 1.6773869730532172 2.2226159907877445 12.005555003881453 8.9280409924685937 1.7073286511003973 2.0437914542853832 2.2255356498062611 1.8914766870439041 13.680736497044565
leaf_count=232 30 102 207 174 18 16 50 23 40 21 33 40 22 497 68 86 20 224 24 21 47 29 41 203 132 23 24 31 36 148
internal_value=0 0.0116368 0.0150415 0.0058615 0.0262241 0.0138676 0.0105904 0.00373088 0.0499554 0.0757263 0.0219563 0.0166959 0.0214088 -0.0153235 -0.00935025 -0.00257861 0.0162565 -0.00957316 0.00777785 0.0346846 0.00120204 0.00450551 0.0294208 -0.00374537 0.00565417 0.0229472 0.0578774 -4.86418e-05 -0.0244211 0.0246363
internal_weight=0 97.9165 91.2517 50.113 41.1387 40.8102 39.3817 33.5376 5.84404 3.15503 39.0166 35.3489 32.4084 74.7882 47.2781 32.6209 8.83356 23.7873 10.5646 5.74673 4.15639 7.65709 3.9 30.3826 18.377 9.44899 3.75112 5.69787 14.6573 30.665
internal_count=2662 1337 1235 767 468 593 577 507 70 44 450 417 377 1325 828 560 158 402 178 92 68 138 70 463 260 128 47 81 268 355
shrinkage=0.05


Tree=20
num_leaves=31
num_cat=0
split_feature=19 17 5 19 18 19 19 13 18 19 15 19 19 19 19 7 7 17 19 19 19 15 13 17 19 17 3 19 19 19
split_gain=66.8741 17.4206 9.31681 10.1501 6.62025 5.89893 4.52572 4.77412 3.76628 3.23407 3.21216 5.81432 3.00321 4.39278 2.56922 2.68209 2.5475 2.4121 8.92757 6.92322 2.37097 2.4482 2.3123 2.16239 2.02543 1.94054 1.80954 2.87948 2.62542 2.17021
threshold=16017642.242864082 3.5000000000000004 1.0000000180025095e-35 5697580.5267780004 1.0000000180025095e-35 1067846.2570174087 21757294.962413158 1.0000000180025095e-35 1.0000000180025095e-35 17763234.022108607 1.0000000180025095e-35 2830336.6469505304 101773497.13641588 22460291.404961478 9962306.7461163942 0.55000000000000016 1.0000000180025095e-35 3.5000000000000004 32047093.046225149 71907539.584725007 9135732.4276572261 1.0000000180025095e-35 1.0000000180025095e-35 3.5000000000000004 24942077.304653749 2.5000000000000004 2.5000000000000004 7012743.6822474981 7296923.3201307962 8886331.5730906259
decision_type=2 2 2 2 2 2 2 2 2 2 2 2 2 2 2 2 2 2 2 2 2 2 2 2 2 2 2 2 2 2
left_child=1 2 3 10 6 -3 7 9 16 -2 -1 -12 13 -6 -4 -16 -5 19 -19 24 21 -7 -17 -11 -8 -26 27 -18 -28 -30
right_child=4 5 14 8 12 20 17 -9 -10 23 11 -13 -14 -15 15 22 26 18 -20 -21 -22 -23 -24 -25 25 -27 28 -29 29 -31
leaf_value=0.02252995331145391 -0.045552807065707281 -0.055841901995295422 0.028202279900817612 -0.027585743610556684 0.021048258685565899 -0.0066119153207462493 -0.017721926488557842 -0.067809843076680074 0.026915889012866935 0.0038838183587546365 0.038176816240690768 -0.04753231431727592 0.039103862317999893 -0.042046941142921859 -0.020976847548499305 0.022477227518181639 -0.02593391501394722 -0.086258180385611644 -0.0097973434291239933 -0.077000359107668476 -0.024855909765470703 0.030385341795046358 -0.021312393913257243 -0.034945958317410465 -0.049682425235703431 -0.020075372842647609 0.013497154593267426 0.0247051658531105 -0.040910186061740794 -0.0094924676660503096
leaf_weight=76.706545114517212 5.8177302330732372 7.4445589482784262 112.27107805013657 14.545339167118071 5.1358176767826063 30.95986008644104 10.24718217551708 4.4823742508888236 8.1845902204513532 18.206234350800518 3.4746855497360212 4.5959848016500473 3.7137457430362693 5.9596977978944778 4.9577015340328208 31.713524281978607 3.8267569988965979 4.9748861193656948 16.411659002304077 14.586850568652151 15.099304273724554 5.2262667566537848 3.3313559591770163 4.4647082686424246 25.361576989293098 7.0792792290449134 9.9739063531160337 10.537284523248671 6.8108729571104041 28.484137699007988
leaf_count=465 28 26 700 66 25 150 46 17 44 93 21 24 20 25 26 191 20 18 70 45 68 26 19 17 91 27 57 58 34 145
internal_value=0 0.0107772 0.015379 0.00722821 -0.031227 -0.0142504 -0.0353941 -0.019844 -0.00527259 -0.0122971 0.019373 -0.0106318 0.000184665 -0.0128419 0.0243255 0.013445 -0.00882416 -0.0419119 -0.0275835 -0.0472622 -0.00821303 -0.0012685 0.0183146 -0.00376313 -0.0371004 -0.0432215 -0.00424793 0.0112143 -0.00915417 -0.0155551
internal_weight=0 378.144 319.414 167.14 126.442 58.73 111.632 32.971 82.3629 28.4887 84.7772 8.07067 14.8093 11.0955 152.274 40.0026 74.1783 78.6614 21.3865 57.2749 51.2854 36.1861 35.0449 22.6709 42.688 32.4409 59.633 14.364 45.2689 35.295
internal_count=2662 2140 1870 934 522 270 452 155 424 138 510 45 70 50 936 236 380 297 88 209 244 176 210 110 164 118 314 78 236 179
shrinkage=0.05


Tree=21
num_leaves=31
num_cat=0
split_feature=19 17 16 16 4 19 19 18 19 17 19 16 7 19 19 11 5 9 19 7 11 19 3 19 19 19 19 5 16 17
split_gain=61.1742 28.9038 16.3292 10.4294 9.74536 5.71974 4.80932 3.39233 4.68105 3.34542 3.78666 3.33178 2.88035 2.23761 2.07824 1.87086 1.84566 3.04402 1.99486 2.00109 1.99705 1.91201 1.86363 2.45294 1.77619 1.75925 3.24051 1.84215 1.74751 1.70311
threshold=22143401.965514649 3.5000000000000004 1.5000000000000002 1.5000000000000002 1.0000000180025095e-35 13924923.278454 16774029.040551657 1.0000000180025095e-35 24942077.304653749 3.5000000000000004 63059670.76549881 5.5000000000000009 0.86607142857142871 2474154.1557098213 488794.31637276063 1.0000000180025095e-35 1.0000000180025095e-35 1.0000000180025095e-35 3227355.0534743792 0.41666666666666669 1.0000000180025095e-35 7012743.6822474981 2.5000000000000004 7012743.6822474981 11039685.278947191 8018765.4065528978 3322323.8129889411 1.0000000180025095e-35 1.5000000000000002 1.0000000180025095e-35
decision_type=2 2 2 2 2 2 2 2 2 2 2 2 2 2 2 2 2 2 2 2 2 2 2 2 2 2 2 2 2 2
left_child=1 4 25 12 5 13 -4 8 -5 10 -10 28 -2 14 -1 -14 17 18 -15 29 22 -22 -21 -24 -18 26 27 -3 -7 -20
right_child=3 2 6 7 -6 11 -8 -9 9 -11 -12 -13 15 16 -16 -17 24 -19 19 20 21 -23 23 -25 -26 -27 -28 -29 -30 -31
leaf_value=0.0063214406332728961 0.041054679507784644 0.04080930942943601 -0.018703110019943518 0.015405974905201084 -0.025677077139891764 0.0082424703040674067 0.044686929167973635 0.011861503692032694 0.054926547570490071 0.033269714337866449 0.08836873840357562 -0.014007365174713897 0.0057380872501423992 0.04201783331492915 -0.031131342915262813 -0.038229594254305083 -0.026623866750490166 -0.018631211669721513 0.052667710939062341 0.046041367083134339 -0.036704378723762553 0.0023140711597407519 -0.036605274978002859 0.028638339770034799 0.017226547746901282 0.068218067725759793 0.018545781737503986 0.079336248879271209 0.052424890990298657 0.0055070123926592787
leaf_weight=4.6220377460122135 3.7464709728956214 7.3445643931627327 18.910634078085426 6.493589147925376 144.46331331878901 3.2590850666165334 3.5545550584793082 4.9814056009054175 22.328357324004173 8.8382004797458631 13.632743209600447 4.2390218377113333 6.761961027979849 3.8047341257333747 18.647622257471085 3.7674314230680466 14.599469125270845 15.963491588830946 3.2674497961998012 2.9760542064905167 6.2857415303587914 6.2731413766741753 2.7696744203567505 3.0021896213293076 2.7432341724634162 7.7464161217212668 9.5511841773986799 5.3720816820859909 7.1432269811630249 4.6227647662162781
leaf_count=35 21 34 137 38 1260 22 18 30 97 42 44 29 40 30 158 24 114 115 18 19 51 43 23 19 19 33 52 23 43 31
internal_value=0 -0.0101543 0.0235647 0.0415716 -0.0172701 -0.0056167 -0.00867322 0.0512543 0.05508 0.0608307 0.0676044 0.0233564 0.00340319 -0.0103523 -0.0236921 -0.00999361 -0.00567092 -0.000706397 0.00796413 0.00352651 -0.0044391 -0.0172147 0.0139021 -0.00266932 -0.0196877 0.0476943 0.0405545 0.0570848 0.0385824 0.0250369
internal_weight=0 301.162 52.4794 70.5502 248.682 104.219 22.4652 56.2743 51.2929 44.7993 35.9611 14.6413 14.2759 89.5776 23.2697 10.5294 66.3079 48.9652 33.0017 29.197 21.3068 12.5589 8.74792 5.77186 17.3427 30.0142 22.2678 12.7166 10.4023 7.89021
internal_count=2662 2326 297 336 2029 769 155 251 221 183 141 94 85 675 193 64 482 349 234 204 155 94 61 42 133 142 109 57 65 49
shrinkage=0.05


Tree=22
num_leaves=31
num_cat=0
split_feature=19 19 1 4 17 16 16 16 7 13 19 4 4 19 19 17 19 19 19 19 17 19 19 19 19 16 17 11 19 11
split_gain=10.9069 5.87848 5.68181 2.93736 7.17769 5.3529 4.28267 3.65926 7.50762 3.19083 4.04846 6.5494 2.94287 2.63238 2.22164 2.3526 2.20134 9.0505 2.81936 3.95701 2.46308 2.43265 2.25663 1.99295 1.92685 2.17808 6.4619 1.8142 1.87804 1.77161
threshold=7140471.9067761255 86615397.923306525 1.0000000180025095e-35 3.5000000000000004 3.5000000000000004 1.5000000000000002 16.500000000000004 3.5000000000000004 0.70833333333333337 1.0000000180025095e-35 9495137.0003096927 1.0000000180025095e-35 1.0000000180025095e-35 24587307.697078768 15998547.584812773 1.0000000180025095e-35 12458253.791545214 13862861.393558251 26742468.763227601 14974898.882792251 2.5000000000000004 17763234.022108607 21757294.962413158 11756782.58431655 7836037.9438873837 7.5000000000000009 2.5000000000000004 1.0000000180025095e-35 2591882.0333759696 1.0000000180025095e-35
decision_type=2 2 2 2 2 2 2 2 2 2 2 2 2 2 2 2 2 2 2 2 2 2 2 2 2 2 2 2 2 2
left_child=27 2 3 5 14 13 7 8 23 10 11 -10 -12 -2 -5 -16 24 -18 19 -19 21 -21 -23 -7 -9 -26 -27 28 -1 -17
right_child=1 -3 -4 4 -6 6 -8 16 9 -11 12 -13 -14 -15 15 29 17 18 -20 20 -22 22 -24 -25 25 26 -28 -29 -30 -31
leaf_value=-0.023973877069011197 -0.024889675448738269 -0.034966076199634585 0.10180518674163248 -0.030040783284328704 0.069782122004732022 0.12053069792797733 0.089073963314567489 0.039741824157687504 0.11819458378602006 0.073464546269813857 -0.035328106806397246 -0.010325187817774193 0.017967281400373805 0.02756068285510184 0.045354144759854803 -0.035409236975915567 0.1433723433595108 -0.034875066340840449 -0.018079147552102433 0.098654744227907168 0.00023041965578416142 0.0039728407084491458 0.077722398820660177 0.061709345280380301 -0.028586487363496529 -0.035099659164846045 0.098695895582923535 -0.025180403729904651 -0.0020915973872847379 0.029692288298124033
leaf_weight=14.109536275267599 9.7234524264931661 6.5747137553989878 1.8047874271869648 10.884602505713707 2.8365545980632296 2.2332198731601265 2.3979268260300151 2.0065096244215956 1.9474295787513285 2.278308752924203 4.8011522963643056 2.019028328359127 5.6246585175395012 3.1727227643132201 2.4659938998520365 3.2844683267176151 1.3986754268407846 2.2136951088905361 5.5822420418262473 2.232603903859852 2.7950906828045845 2.5235736332833767 1.7610953524708746 4.0542507171630859 7.7171486206352693 2.2843839004635815 1.4917444698512552 26.471195701509714 32.142033282667398 1.532673481851816
leaf_count=268 137 102 17 207 33 23 25 31 21 24 63 30 75 39 28 43 19 36 57 25 33 29 19 33 115 34 20 497 560 19
internal_value=0 0.0107261 0.013954 0.0122166 -0.00418915 0.0171212 0.023665 0.0208115 0.0360442 0.0184845 0.00978115 0.0527747 -0.00657558 -0.0119858 -0.0157384 0.00563646 0.00988522 0.0210845 0.0110869 0.0252125 0.0394962 0.0563363 0.0342856 0.0826019 -0.00546793 -0.0133607 0.0177557 -0.0147415 -0.00876702 -0.0146958
internal_weight=0 99.6427 93.068 91.2632 21.0043 70.2589 57.3627 54.9648 22.958 16.6706 14.3923 3.96646 10.4258 12.8962 18.1677 7.28314 32.0068 18.507 17.1083 11.5261 9.31236 6.51727 4.28467 6.28747 13.4998 11.4933 3.77613 72.7228 46.2516 4.81714
internal_count=2662 1337 1235 1218 330 888 712 687 269 213 189 51 138 176 297 90 418 218 199 142 106 73 48 56 200 169 54 1325 828 62
shrinkage=0.05


Tree=23
num_leaves=31
num_cat=0
split_feature=17 7 16 16 18 5 16 1 4 16 17 13 3 16 4 5 16 16 7 17 16 14 10 16 4 4 4 5 4 17
split_gain=15.1649 6.17314 5.46601 4.49203 3.83732 3.9954 2.9196 2.90198 2.55706 2.77043 2.16323 2.12661 2.04951 1.84923 1.99458 1.71636 1.48624 3.37737 1.44358 1.38562 1.32612 1.95765 1.44647 1.26119 1.20595 1.75237 1.14438 1.12357 1.11563 1.0883
threshold=3.5000000000000004 0.41666666666666669 3.5000000000000004 1.5000000000000002 1.0000000180025095e-35 1.0000000180025095e-35 13.500000000000002 1.0000000180025095e-35 3.5000000000000004 1.5000000000000002 2.5000000000000004 1.0000000180025095e-35 2.5000000000000004 3.5000000000000004 1.0000000180025095e-35 9.5000000000000018 4.5000000000000009 3.5000000000000004 0.41666666666666669 1.0000000180025095e-35 12.500000000000002 1.0000000180025095e-35 1.0000000180025095e-35 9.5000000000000018 5.5000000000000009 2.5000000000000004 1.5000000000000002 1.5000000000000002 3.5000000000000004 1.5000000000000002
decision_type=2 2 2 2 2 2 2 2 2 2 2 2 2 2 2 2 2 2 2 2 2 2 2 2 2 2 2 2 2 2
left_child=1 8 18 11 5 6 16 15 9 -1 13 -3 -4 14 -11 20 17 -5 -2 -15 21 22 26 -24 25 -22 -7 -14 29 -18
right_child=2 3 12 4 -6 7 -8 -9 -10 10 -12 -13 27 19 -16 -17 28 -19 -20 -21 24 -23 23 -25 -26 -27 -28 -29 -30 -31
leaf_value=0.002366167207728248 -0.0098761163421129516 0.019934297591427397 -0.019332333278585911 -0.0019120606810609266 0.022659610307896896 0.0081462771012335358 -0.041052129244605801 -0.028054168242881372 0.021542522940735123 -0.053297923898674805 0.0036503535088654449 -0.0059433605323730328 0.0031863234274903947 0.004917851168419674 -0.013347729591748847 0.037486080970385575 -0.0077885717970302727 -0.029137097496477977 -0.02795055309098568 -0.026934557546798674 -0.019222460788501303 -0.017743344579047495 0.0044820545471181928 0.029813495783017663 -0.029568094077728532 0.026876611068102636 0.025302325124562354 0.030955354357060174 0.028374281360634676 0.010969284110674563
leaf_weight=17.544262588024139 13.628548681735991 73.5606379956007 6.571608617901803 54.676070287823677 24.482996135950089 15.789457589387892 5.3897151947021475 5.4378442019224158 5.6193034201860419 9.7885429263114947 6.7384838610887519 8.8997332453727704 9.3063494265079481 5.3660098612308493 4.5890201777219763 5.1613721698522559 15.379230707883835 14.389510810375212 58.324281364679337 9.3871316760778409 4.171103507280348 6.09601867198944 57.544838517904282 5.3723451793193808 4.1187956035137168 4.0759739726781845 25.287603914737701 5.985456421971322 4.4667754769325247 15.551906928420067
leaf_count=94 61 446 29 286 138 86 23 24 32 40 34 50 44 24 23 35 76 73 247 43 21 35 336 31 20 23 150 32 26 80
internal_value=0 0.0044154 -0.0178743 0.00693904 0.00379275 0.00189114 -0.00516616 0.0077178 -0.0105407 -0.013916 -0.0218799 0.0171414 0.00401998 -0.0277855 -0.0405466 0.00924206 -0.00331465 -0.00758428 -0.0245271 -0.0153492 0.00805161 0.00979545 0.0114097 0.00664504 -0.00747343 0.0035612 0.0187078 0.0140556 0.00501591 0.00164271
internal_weight=0 408.885 93.8162 349.852 267.392 242.909 109.853 133.055 59.0328 53.4135 35.8692 82.4604 21.8634 29.1307 14.3776 127.618 104.463 69.0656 71.9528 14.7531 122.456 110.09 103.994 62.9172 12.3659 8.24708 41.0771 15.2918 35.3979 30.9311
internal_count=2662 2249 413 1959 1463 1325 564 761 290 258 164 496 105 130 63 737 541 359 308 67 702 638 603 367 64 44 236 76 182 156
shrinkage=0.05


Tree=24
num_leaves=31
num_cat=0
split_feature=19 17 16 16 4 19 19 16 7 10 17 3 19 19 17 16 16 19 16 17 5 9 19 7 11 19 19 3 19 19
split_gain=55.7033 25.0667 15.0617 9.46101 9.30186 5.33087 3.11103 2.97777 2.68256 2.63222 2.20105 4.42952 2.15532 2.13396 5.9784 4.77041 2.11996 2.03546 1.84616 1.76428 1.7348 2.87477 1.7695 1.77726 1.89011 1.87986 1.71581 1.69887 2.31083 1.48287
threshold=21757294.962413158 3.5000000000000004 1.5000000000000002 1.5000000000000002 1.0000000180025095e-35 13924923.278454 16774029.040551657 5.5000000000000009 0.86607142857142871 1.0000000180025095e-35 1.0000000180025095e-35 2.5000000000000004 2474154.1557098213 33534969.889107108 3.5000000000000004 4.5000000000000009 4.5000000000000009 488794.31637276063 5.5000000000000009 1.5000000000000002 1.0000000180025095e-35 1.0000000180025095e-35 3227355.0534743792 0.41666666666666669 1.0000000180025095e-35 7012743.6822474981 11039685.278947191 2.5000000000000004 7012743.6822474981 9256001.7709435243
decision_type=2 2 2 2 2 2 2 2 2 2 2 2 2 2 2 2 2 2 2 2 2 2 2 2 2 2 2 2 2 2
left_child=1 4 29 8 5 12 -4 -7 -2 -10 16 18 17 15 19 -13 -5 -1 -12 -15 21 22 -14 -24 27 -26 -22 -25 -29 -3
right_child=3 2 6 10 -6 7 -8 -9 9 -11 11 13 20 14 -16 -17 -18 -19 -20 -21 26 -23 23 24 25 -27 -28 28 -30 -31
leaf_value=0.0062567216156898661 0.038252623297465066 0.037417777177026643 -0.018532636676626382 0.084435934905995491 -0.0252127918765379 0.036249086863187799 0.03334540489815243 -0.013553168317840231 -0.038018086021599173 0.01194988565788891 -0.0024871670016870587 0.061763407109345914 0.039062887542021293 0.056050981940976241 0.019267121242766871 0.002220452869817108 0.045077542355785566 -0.030890717646392035 0.039492601678198729 0.092143514567881057 -0.026259908779059805 -0.018318909856574809 0.023335971571312227 0.043569346218463666 -0.03658720383127935 0.0024144749293446635 0.016797277013663691 -0.036479993007840293 0.027079765674251983 0.063425845807193557
leaf_weight=4.6278030648827579 3.8689491152763358 24.295674979686741 18.768186725676063 7.0002735853195173 139.74689261615276 10.692500464618204 3.4158160537481299 4.1728078201413146 4.7597799748182279 5.9057239294052124 6.4694160968065244 7.7359472066163999 3.9438435956835738 5.390880540013316 5.970076546072959 5.9519316256046295 6.691956415772438 18.151027828454971 4.4002979397773743 9.1037131249904615 14.238394662737848 15.74379840493202 8.0785004422068614 3.0594798624515533 6.1026878878474236 6.2575536593794823 2.7627066597342482 2.6790789365768433 3.067236453294754 7.0770338475704184
leaf_count=35 21 114 137 27 1255 65 17 29 31 34 30 34 30 19 32 31 27 158 22 34 114 115 49 19 51 43 19 23 19 28
internal_value=0 -0.00998026 0.0209877 0.0387048 -0.0167964 -0.00544109 -0.0105446 0.0222692 0.00258781 -0.0103497 0.0476454 0.0423067 -0.0100844 0.0511544 0.0613759 0.0358722 0.0651999 -0.0233438 0.0145072 0.0787199 -0.00550359 -0.000722969 0.00762414 0.00338439 -0.00423059 -0.016842 -0.019263 0.0134714 -0.00255342 0.0432847
internal_weight=0 296.881 53.5567 73.2489 243.324 103.577 22.184 14.8653 14.5345 10.6655 58.7145 45.0223 88.7121 34.1525 20.4647 13.6879 13.6922 22.7788 10.8697 14.4946 65.9333 48.9322 33.1884 29.2445 21.166 12.3602 17.0011 8.8058 5.74632 31.3727
internal_count=2662 2320 296 342 2024 769 154 94 86 65 256 202 675 150 85 65 54 193 52 53 482 349 234 204 155 94 133 61 42 142
shrinkage=0.05


Tree=25
num_leaves=31
num_cat=0
split_feature=19 19 1 19 19 7 19 17 16 16 18 19 13 19 16 19 17 10 3 19 16 16 13 16 17 19 19 19 19 19
split_gain=10.3254 6.17777 5.66106 4.32183 2.82248 2.89208 2.50029 2.73797 5.72544 2.42518 1.92042 2.22924 3.77222 4.23414 3.6105 3.98798 3.55476 3.47795 1.77961 1.74452 2.15438 5.47259 1.93956 1.67155 2.09891 3.09889 6.06155 3.32719 1.47122 1.42109
threshold=9135732.4276572261 86615397.923306525 1.0000000180025095e-35 9256001.7709435243 14974898.882792251 1.0000000180025095e-35 56849896.207865484 3.5000000000000004 2.5000000000000004 16.500000000000004 1.0000000180025095e-35 23679397.580085669 1.0000000180025095e-35 37997402.654193945 13.500000000000002 21757294.962413158 1.5000000000000002 1.0000000180025095e-35 2.5000000000000004 2591882.0333759696 3.5000000000000004 4.5000000000000009 1.0000000180025095e-35 7.5000000000000009 1.0000000180025095e-35 5697580.5267780004 7828614.657401639 3626803.1405525072 30291137.853600975 14237899.074414343
decision_type=2 2 2 2 2 2 2 2 2 2 2 2 2 2 2 2 2 2 2 2 2 2 2 2 2 2 2 2 2 2
left_child=19 2 3 -2 5 -5 7 10 28 18 11 14 13 -13 15 16 17 -6 -7 20 -1 -22 23 24 25 27 -27 -21 -9 -20
right_child=1 -3 -4 4 6 9 -8 8 -10 -11 -12 12 -14 -15 -16 -17 -18 -19 29 22 21 -23 -24 -25 -26 26 -28 -29 -30 -31
leaf_value=-0.029613536388008739 0.085862880734052113 -0.034898658953810412 0.10518897570819613 0.041596787275192559 0.0066004962391895258 -0.034763365430954409 -0.036244053534962802 0.11082618615195967 -0.0039656084069117333 0.05390877265044737 -0.019945849264325057 -0.023639889671427064 0.069853816067774979 0.054518273350995461 0.098356734979191562 0.09072290604788974 -0.012071325905112895 0.079584056699678607 0.0032728843962799448 0.048011866291913848 0.10728948612567109 -0.034533031421857763 -0.034731378538471719 -0.027715967897964322 -0.0069108881817130877 0.08532465121407018 -0.034947459355407585 -0.03467664244497614 0.05677295651393989 -0.034719132725393981
leaf_weight=20.168522570282224 2.0554818734526625 6.3488244116306296 1.7545752897858609 3.8701570108532932 3.535138409584766 5.0980631150305369 1.8360592573881138 2.3721961826086027 3.1234703846275806 1.6691092550754536 3.1928179748356333 8.1878273487091011 1.8809605538845069 2.1980109587311754 1.8637022301554669 1.9757158905267704 6.3947401121258736 3.0326899513602257 18.263267185539007 1.8150517158210258 1.0571216531097882 1.9077795669436453 6.0452788099646559 7.1085789315402499 41.196590788662434 3.3222209140658379 1.5300757959485052 3.6893036365509033 2.6822246685624123 2.8447696007788172
leaf_count=393 24 102 14 43 40 89 18 21 32 20 39 90 17 21 21 21 80 34 283 34 20 38 110 128 710 51 25 67 26 51
internal_value=0 0.0125268 0.0163954 0.0143475 0.0123616 0.00109451 0.0208223 0.0234132 0.0492539 -0.00452878 0.016863 0.0209059 0.00470088 -0.00709886 0.0327369 0.0245502 0.0144643 0.0403006 -0.00825076 -0.0119786 -0.0237632 0.0160331 -0.00776546 -0.00498654 -0.00185243 0.0182691 0.0473992 -0.00741025 0.0821418 -0.00184737
internal_weight=0 84.1798 77.831 76.0764 74.0209 31.7454 42.2756 40.4395 8.17789 27.8752 32.2616 29.0688 12.2668 10.3858 16.802 14.9383 12.9626 6.56783 26.2061 87.8405 23.1334 2.9649 64.7071 58.6618 51.5532 10.3567 4.8523 5.50436 5.05442 21.108
internal_count=2662 1086 984 970 946 486 460 442 79 443 363 324 128 111 196 175 154 74 423 1576 451 58 1125 1015 887 177 76 101 47 334
shrinkage=0.05


Tree=26
num_leaves=31
num_cat=0
split_feature=19 17 16 4 19 16 18 19 16 17 19 17 7 17 19 4 19 4 19 3 19 3 17 19 19 19 17 19 4 3
split_gain=56.5851 14.5173 11.7635 11.2375 9.62082 6.38938 6.2175 4.62874 7.05738 4.49792 3.97287 4.33933 3.4923 3.19644 3.75524 2.96421 2.95015 3.84756 4.17749 2.79994 2.73419 2.69449 3.7485 3.12965 2.6862 2.59791 2.51378 2.41879 2.28475 1.97972
threshold=16017642.242864082 3.5000000000000004 1.5000000000000002 1.0000000180025095e-35 7012743.6822474981 1.5000000000000002 1.0000000180025095e-35 28501878.426978312 4.5000000000000009 3.5000000000000004 148971189.49629372 2.5000000000000004 0.86607142857142871 2.5000000000000004 13198106.824799186 1.5000000000000002 5342984.7521689022 3.5000000000000004 6094178.2748707654 2.5000000000000004 49826930.242542692 2.5000000000000004 1.0000000180025095e-35 3567972.1268692738 18759641.243953444 22460291.404961478 3.5000000000000004 5069499.5589014841 2.5000000000000004 2.5000000000000004
decision_type=2 2 2 2 2 2 2 2 2 2 2 2 2 2 2 2 2 2 2 2 2 2 2 2 2 2 2 2 2 2
left_child=1 3 -3 4 21 10 7 8 26 20 11 -2 -6 14 29 -13 -5 -18 -19 -10 -9 22 23 -1 -21 -8 28 -24 -7 -14
right_child=5 2 -4 16 12 6 25 9 19 -11 -12 15 13 -15 -16 -17 17 18 -20 24 -22 -23 27 -25 -26 -27 -28 -29 -30 -31
leaf_value=0.0058860303325462106 0.015016312733237201 -0.031068237775852599 0.013651775100677936 0.030913866412483809 -0.035121291944694398 -0.050403750754476555 0.029520781949363879 -0.043959481412773276 -0.0373778859620576 -0.019243895343188339 0.038389652574307348 -0.0067767816401073586 0.039189125784444667 -0.028438573306612893 -0.026773869590004957 -0.054126407276220437 0.0098693725640550279 -0.016591863372994373 0.033885697245620398 -0.026648602031032503 -0.072124229367352105 0.021339282697451823 0.026821709972001478 -0.051508799004388095 0.016355158654997815 -0.018876910149706855 -0.075490906329977139 -0.011825344060958162 -0.016860739750576666 0.0046795933330009516
leaf_weight=4.6389763057231921 7.8311573266983077 34.903112724423409 25.411412000656128 68.296006545424461 13.495092317461966 12.802509397268301 4.7506529837846738 17.254734113812447 5.6549385190010097 9.5478199273347837 4.2688133567571631 6.2255591005086899 5.8687431365251586 10.934803307056425 7.4658191204071036 7.0465759485960007 64.837890461087227 4.5545760989189139 40.961652278900146 5.2307828962802914 17.213442713022232 50.822256207466125 13.18019510805607 4.8670717775821686 11.875738650560377 6.6599098891019821 5.3374859839677802 5.843606010079383 8.4124491810798627 14.239372864365578
leaf_count=28 37 135 135 462 55 52 24 59 24 36 25 27 31 53 36 25 384 27 276 25 50 314 80 22 53 30 18 30 37 72
internal_value=0 0.0102169 -0.012227 0.0145835 0.00348163 -0.0281137 -0.033567 -0.0378266 -0.0273067 -0.0496127 -0.0056015 -0.0145001 -0.0132336 -0.00556325 0.00350826 -0.0319161 0.0227464 0.0176917 0.0288347 -0.00687711 -0.058025 0.0144361 0.00213884 -0.0235 0.00320559 0.0012729 -0.0448195 0.0149504 -0.0371028 0.0147515
internal_weight=0 370.321 60.3145 310.006 131.356 130.113 104.74 93.3299 49.3139 44.016 25.3721 21.1033 52.0038 38.5087 27.5739 13.2721 178.65 110.354 45.5162 22.7615 34.4682 79.3521 28.5298 9.50605 17.1065 11.4106 26.5524 19.0238 21.215 20.1081
internal_count=2662 2140 270 1870 721 522 408 354 209 145 114 89 247 192 139 52 1149 687 303 102 109 474 160 50 78 54 107 110 89 103
shrinkage=0.05


Tree=27
num_leaves=31
num_cat=0
split_feature=19 4 19 18 19 19 8 19 5 19 9 4 19 7 7 19 10 3 10 19 15 11 3 3 7 19 4 19 4 19
split_gain=48.2763 9.07036 5.53029 3.62864 3.00762 2.79816 2.46918 2.42901 4.20683 2.83953 2.64994 2.62485 4.72098 2.18948 2.18563 2.48992 2.08489 2.6266 2.06975 2.03036 1.90316 1.75344 1.38346 1.3813 1.17901 1.07489 3.60538 1.0708 0.986235 1.02803
threshold=22143401.965514649 2.5000000000000004 16498169.677020038 1.0000000180025095e-35 488794.31637276063 101773497.13641588 0.36666666666666675 7012743.6822474981 1.0000000180025095e-35 15301231.916296808 1.0000000180025095e-35 1.0000000180025095e-35 13924923.278454 0.41666666666666669 0.63333333333333341 4460023.0000660429 1.0000000180025095e-35 2.5000000000000004 1.0000000180025095e-35 24942077.304653749 1.0000000180025095e-35 1.0000000180025095e-35 2.5000000000000004 2.5000000000000004 0.41666666666666669 1011674.6259054219 5.5000000000000009 4034138.8564811251 4.5000000000000009 19408767.16085564
decision_type=2 2 2 2 2 2 2 2 2 2 2 2 2 2 2 2 2 2 2 2 2 2 2 2 2 2 2 2 2 2
left_child=1 2 4 19 21 -5 7 10 9 11 14 12 22 -4 15 18 -10 -18 23 -2 -16 -1 -9 -6 -21 26 -3 -22 -27 -30
right_child=3 25 13 5 6 -7 -8 8 16 -11 -12 -13 -14 -15 20 -17 17 -19 -20 24 27 -23 -24 -25 -26 28 -28 -29 29 -31
leaf_value=0.035359551280522927 0.015806597972404048 -0.038375954881022696 0.058487837025805213 0.026130280586871953 -0.019572483720668873 -0.037369518212924155 -0.029181506643047774 -0.0031145343121742487 -0.02913477577948298 -0.037480179260899311 -0.025223789664784904 -0.0056769208790870473 0.071689163497766092 0.014266480647647961 -0.014813260468413126 -0.024294960952165535 0.036874201421812483 -0.012237901220411362 0.052477553875372035 0.057247331809885574 -0.0070923154604129526 -0.009241454461899409 0.021618703055070687 0.025973642449008301 0.039000798273854331 -0.01841569252856742 0.044108804625770187 0.032457340665520189 -0.031452379134148008 0.00096702991433782973
leaf_weight=6.6123548150062543 8.2094670683145505 2.9673508107662192 3.5442400723695764 4.6028197407722464 2.8941900804638854 2.7843329980969429 12.546851247549055 8.3760308027267509 12.98064110428095 2.9371183514595023 25.821946062147617 12.707402892410753 4.0437733381986609 13.313483141362667 45.427539095282555 3.725055180490016 3.3854546919465092 13.900870703160761 3.8528981879353523 10.83622996509075 3.2953159213066092 3.3051129058003426 17.39680851995945 3.9184174835681906 48.376413211226463 35.271203972399235 2.3932518139481544 3.5607488825917244 42.399724885821342 2.5949812158942214
leaf_count=40 46 24 18 25 23 20 99 50 105 21 217 100 22 88 384 25 28 107 26 44 25 22 104 28 201 303 17 25 406 19
internal_value=0 -0.00953561 -0.00388667 0.0354642 -0.00631341 0.00219622 -0.00778422 -0.00618832 0.000451767 0.0100675 -0.0116247 0.0133516 0.0214613 0.0235638 -0.00635792 0.0108974 -0.0139911 -0.0026195 0.0231888 0.0391092 -0.0111073 0.0204957 0.0135805 0.00662435 0.04234 -0.0232278 -0.00155047 0.0134481 -0.0246756 -0.0295827
internal_weight=0 293.173 207.546 74.8093 190.689 7.38715 180.771 168.224 75.7281 45.4611 92.4961 42.524 29.8166 16.8577 66.6742 14.3906 30.267 17.2863 10.6655 67.4221 52.2836 9.91747 25.7728 6.81261 59.2126 85.6265 5.3606 6.85606 80.2659 44.9947
internal_count=2662 2326 1557 336 1451 45 1389 1290 537 297 753 276 176 106 536 102 240 135 77 291 434 62 154 51 245 769 41 50 728 425
shrinkage=0.05


Tree=28
num_leaves=31
num_cat=0
split_feature=19 19 19 5 4 16 19 15 4 16 7 19 16 19 19 19 7 9 19 17 4 5 15 13 4 19 9 19 11 19
split_gain=9.29827 5.26143 2.19006 4.92341 3.7512 3.22201 3.20342 2.14734 2.65302 1.95121 2.40634 4.89809 2.37819 2.40291 1.94599 3.01631 5.4337 5.09891 3.64327 2.4072 2.22595 1.93555 2.36185 1.91479 1.90417 3.01302 4.41798 2.46976 1.79167 1.75388
threshold=7140471.9067761255 86615397.923306525 14974898.882792251 2.5000000000000004 10.500000000000002 16.500000000000004 7689485.2111503007 1.0000000180025095e-35 4.5000000000000009 7.5000000000000009 0.55000000000000016 23193295.890035629 10.500000000000002 19966531.843723003 13392527.165002782 9135732.4276572261 0.41666666666666669 1.0000000180025095e-35 10873941.854386078 2.5000000000000004 1.0000000180025095e-35 3.5000000000000004 1.0000000180025095e-35 1.0000000180025095e-35 1.0000000180025095e-35 18533885.41849751 1.0000000180025095e-35 25559277.697497386 1.0000000180025095e-35 2591882.0333759696
decision_type=2 2 2 2 2 2 2 2 2 2 2 2 2 2 2 2 2 2 2 2 2 2 2 2 2 2 2 2 2 2
left_child=28 2 3 5 9 6 -2 8 14 10 11 -4 -11 -14 15 19 -17 18 -18 -8 -20 22 23 24 27 -26 -27 -12 29 -1
right_child=1 -3 4 -5 -6 -7 7 -9 -10 12 21 -13 13 -15 -16 16 17 -19 20 -21 -22 -23 -24 -25 25 26 -28 -29 -30 -31
leaf_value=-0.023213424875613384 0.057655572552038341 -0.034868642543284513 0.091040689984203615 -0.028792381126006752 0.079496805171589732 0.079578465873661686 -0.035058215883338927 -0.024894089585501804 -0.034691316731212854 -0.026105980749048793 0.027974408133319296 0.010986732165989593 0.053588841233374179 -0.014719444395148384 -0.014118285653413729 0.09895380197085718 0.070970518379670916 -0.01721003361525883 0.043102512770965211 0.023475163197087159 -0.034835434032341482 -0.03534659467464743 -0.020169109297688267 0.062648816442062563 -0.015357654294477115 0.082458007097949385 0.0067089615327957479 -0.035667449859782895 -0.024619137523231277 -0.0015472397784061572
leaf_weight=13.25555009767413 3.2091347463428965 6.2011195793747893 3.5199387222528449 8.6628126576542837 2.5578587278723708 1.7230187579989422 3.6308826208114722 4.9993914179503909 2.9632390700280657 5.0876080468296987 3.1490448191762104 4.1795163452625275 2.7861191220581532 2.3934617564082146 4.7867925465106955 2.5842921957373735 5.1554485298693056 5.576854608953 1.9139223247766497 3.4024834036827087 1.75727903842926 1.7370932810008515 3.2285538353025904 3.0133636668324462 2.4946478530764562 4.2088102921843529 3.547244481742382 2.9548696018755436 25.137680687010288 31.62606567516923
leaf_count=268 39 102 30 174 18 16 55 83 55 55 38 37 28 29 75 24 64 81 26 46 29 23 38 25 32 40 41 34 497 560
internal_value=0 0.00975727 0.0126634 0.00550723 0.0206981 0.0126322 0.00974701 0.00556581 0.0103589 0.0171426 0.0232222 0.0475848 -0.00182548 0.0220239 0.0149928 0.0207939 0.0321944 0.0202163 0.0438631 -0.00674192 0.00579627 0.0155136 0.0194235 0.0260234 0.0192751 0.0324404 0.0478141 -0.00283425 -0.013932 -0.00794623
internal_weight=0 101.425 95.2237 50.3656 44.8581 41.7027 39.9797 36.7706 31.7712 42.3003 32.0331 7.69946 10.2672 5.17958 28.808 24.0212 16.9878 14.4035 8.82665 7.03337 3.6712 24.3336 22.5965 19.368 16.3546 10.2507 7.75605 6.10391 70.0193 44.8816
internal_count=2662 1337 1235 767 468 593 577 538 455 450 338 67 112 57 400 325 224 200 119 101 55 271 248 210 185 113 81 72 1325 828
shrinkage=0.05


Tree=29
num_leaves=31
num_cat=0
split_feature=17 7 5 12 18 13 4 5 4 12 11 10 17 5 3 4 7 3 10 9 5 15 4 4 14 3 4 17 15 17
split_gain=11.3883 5.17791 3.10907 3.65516 3.6211 2.90665 2.20658 2.42273 2.15778 2.02464 1.81279 1.70806 2.09751 1.55982 1.45005 1.31119 1.30132 1.17623 1.13354 1.11255 2.71404 1.04723 1.08281 1.66482 1.04372 1.1438 0.978734 1.77541 2.04788 1.59909
