tree
version=v3
num_class=3
num_tree_per_iteration=3
label_index=0
max_feature_idx=31
objective=multiclass num_class:3
feature_names=is_company is_investor is_school num_social_media_url_org num_completed_degrees_from_top_500_schools num_incomplete_degrees_from_top_500_schools num_FAANG_exp_founder percentage_of_male_founder percentage_of_female_founder is_category_Artificial_Intelligence is_category_Data_and_Analytics is_category_Financial_Services is_category_Lending_and_Investments is_category_Payments is_category_Platforms is_category_Privacy_and_Security PreSeries_investor_count PreSeries_from_founded_binned PreSeries_num_ea_org PreSeries_post_money_valuation_usd_augmented RoundA_investor_count RoundA_from_founded_binned RoundA_num_ea_org RoundA_post_money_valuation_usd_augmented RoundB_investor_count RoundB_from_founded_binned RoundB_num_ea_org RoundB_post_money_valuation_usd_augmented RoundC_investor_count RoundC_from_founded_binned RoundC_num_ea_org RoundC_post_money_valuation_usd_augmented
feature_infos=none [0:1] none [0:3] [0:233] [0:173] [0:4] [0:1] [0:1] [0:1] [0:1] [0:1] [0:1] [0:1] [0:1] [0:1] [0:84] [0:5] [0:26] [0:26650000000] [0:20] [0:5] [0:8] [0:376237409.74727052] [0:20] [0:5] [0:8] [0:1650000000] [1:25] [0:4] [0:8] [633751.50676912302:10250000000]
tree_sizes=3248 2668 3294 3360 3382 3353 3373 3397 3373 3347 3416 3358 3272 3417 3358

Tree=0
num_leaves=31
num_cat=0
split_feature=23 27 28 27 4 16 28 28 4 5 23 20 20 5 23 27 27 28 23 5 29 29 24 29 29 24 23 25 4 23
split_gain=15.9216 7.62691 7.36611 6.18459 5.31371 5.45543 5.10327 4.44684 5.05402 7.29294 5.76015 3.34773 3.33439 3.25041 3.07571 3.06325 5.8073 4.01388 3.01395 3.12065 2.71492 2.17177 1.78293 1.66423 1.19176 1.10418 1.97714 0.723067 0.647435 0.536823
threshold=3966409.5429694387 129253255.88257971 8.5000000000000018 15459621.636303721 17.500000000000004 2.5000000000000004 2.5000000000000004 2.5000000000000004 4.5000000000000009 1.0000000180025095e-35 9888806.9575404599 2.5000000000000004 1.5000000000000002 3.5000000000000004 22335258.575499166 131296160.84504254 68391850.995387211 4.5000000000000009 30657116.028367635 8.5000000000000018 1.5000000000000002 2.5000000000000004 2.5000000000000004 2.5000000000000004 1.5000000000000002 3.5000000000000004 17460185.613031257 1.5000000000000002 4.5000000000000009 8767889.822613338
decision_type=2 2 2 2 2 2 2 2 2 2 2 2 2 2 2 2 2 2 2 2 2 2 2 2 2 2 2 2 2 2
left_child=3 2 4 6 5 7 21 14 9 -9 -10 25 -12 -14 22 16 17 28 19 -15 -8 -1 29 27 -3 26 -11 -7 -5 -2
right_child=1 24 -4 15 -6 23 20 8 10 11 12 -13 13 18 -16 -17 -18 -19 -20 -21 -22 -23 -24 -25 -26 -27 -28 -29 -30 -31
leaf_value=-1.1189855148382333 -1.2023847489333672 -1.2415680097797881 -1.1644089703666176 -1.2015859056949081 -1.2369725021228684 -1.2229264322080309 -1.1975916895026124 -1.2149085493814686 -1.2396641000614603 -1.1822538993241971 -1.218407261887605 -1.1927986300718576 -1.1607878403021736 -1.2033433608195183 -1.2396641000614603 -1.2229264322080309 -1.1448680357643093 -1.1710888902972623 -1.2239535163717641 -1.1592472140565739 -1.16178471610815 -1.1576495275796557 -1.2220895488153594 -1.2059795435064333 -1.220358721798698 -1.1376784466181771 -1.1427111590204697 -1.2455222838101607 -1.2202149300157752 -1.1822538993241971
leaf_weight=6.3222730159759513 6.9545003175735527 12.644546031951906 12.328432381153105 11.380091428756719 11.69620507955551 6.6383866667747515 10.431750476360323 9.7995231747627241 8.5350685715675336 6.3222730159759575 11.063977777957914 7.5867276191711417 8.8511822223663312 9.4834095239639336 8.5350685715675336 6.6383866667747489 6.9545003175735465 10.747864127159117 6.9545003175735465 6.9545003175735465 10.747864127159117 8.5350685715675336 8.5350685715675336 7.5867276191711417 13.909000635147093 6.9545003175735465 6.3222730159759521 7.5867276191711426 7.9028412699699393 6.3222730159759521
leaf_count=20 22 40 39 36 37 21 33 31 27 20 35 24 28 30 27 21 22 34 22 22 34 27 27 24 44 22 20 24 25 20
internal_value=-1.19778 -1.20559 -1.20159 -1.17899 -1.20459 -1.2019 -1.16366 -1.19769 -1.19205 -1.17793 -1.20212 -1.1646 -1.19472 -1.1866 -1.21422 -1.19165 -1.18604 -1.19557 -1.19636 -1.18469 -1.17942 -1.1412 -1.20426 -1.22489 -1.23046 -1.15368 -1.16248 -1.23498 -1.20922 -1.1928
internal_weight=0 191.565 165.011 79.6606 152.683 140.987 36.037 119.175 88.8279 36.9853 51.8426 27.1858 43.3076 32.2436 30.3469 43.6237 36.9853 30.0308 23.3924 16.4379 21.1796 14.8573 21.8118 21.8118 26.5535 19.599 12.6445 14.2251 19.2829 13.2768
internal_count=858 606 522 252 483 446 114 377 281 117 164 86 137 102 96 138 117 95 74 52 67 47 69 69 84 62 40 45 61 42
shrinkage=1


Tree=1
num_leaves=25
num_cat=0
split_feature=31 27 24 20 27 31 16 31 24 27 29 21 20 27 29 11 23 7 27 31 25 21 4 4
split_gain=4.08328 10.3443 2.89137 2.92688 8.705 4.2736 2.30335 3.1091 6.72812 10.6706 3.52518 3.82254 9.68589 2.9277 1.57204 2.32685 1.32798 1.04324 0.583008 0.515827 0.440872 8.88178e-16 4.44089e-16 4.44089e-16
threshold=196189076.09529343 136106018.21487233 5.5000000000000009 3.5000000000000004 48177159.321193084 111764528.47754745 1.5000000000000002 102446619.66525356 1.5000000000000002 17899961.218289454 2.5000000000000004 1.0000000180025095e-35 1.5000000000000002 39852060.910645403 1.0000000180025095e-35 1.0000000180025095e-35 14697125.936894994 1.0000000180025095e-35 218777361.72684869 170660019.14019856 3.5000000000000004 1.0000000180025095e-35 10.500000000000002 7.5000000000000009
decision_type=2 2 2 2 2 2 2 2 2 2 2 2 2 2 2 2 2 2 2 2 2 2 2 2
left_child=1 2 3 5 -5 6 7 8 17 -10 11 16 13 -13 15 -2 -11 -1 21 -7 -12 -16 -4 -19
right_child=14 -3 22 4 -6 19 -8 -9 9 10 20 12 -14 -15 18 -17 -18 23 -20 -21 -22 -23 -24 -25
leaf_value=-2.9906469105882412 -2.947702743774812 -2.853443936955506 -3.0284960067627886 -3.0105419483210163 -2.8799669778353976 -3.0284960067627886 -3.0284960067627886 -2.9117946268912669 -2.8375301124275714 -2.9701453168270278 -3.0284960067627886 -2.9284662525871989 -2.8184335229940496 -3.0284960067627886 -3.0284960067627886 -3.0284960067627886 -3.0284960067627886 -3.0284960067627886 -2.9951527553709254 -2.9966683577069193 -2.9934855928013322 -3.0284960067627886 -3.0284960067627886 -3.0284960067627886
leaf_weight=2.642071045935154 1.8565904647111884 1.4281465113162983 2.4992563948035231 2.784885697066783 2.3564417436718941 6.7122886031866056 2.3564417436718932 1.7137758135795582 1.5709611624479283 2.5706637203693372 2.4278490692377082 1.4995538368821146 1.4281465113162992 1.4281465113162992 1.4995538368821133 1.7137758135795593 1.5709611624479292 4.4272541850805371 1.4995538368821133 1.5709611624479292 1.4281465113162997 8.9259156957268697 1.927997790277004 1.4281465113162992
leaf_count=37 26 20 35 39 33 94 33 24 22 36 34 21 20 20 21 24 22 62 21 22 20 125 27 20
internal_value=-2.9934 -2.98589 -2.99016 -2.98591 -2.9507 -2.99111 -2.98131 -2.97671 -2.98167 -2.96027 -2.97588 -2.95789 -2.92519 -2.97726 -3.01559 -2.98648 -2.99228 -3.01673 -3.0243 -3.02246 -3.01553 -3.0285 -3.0285 -3.0285
internal_weight=0 45.7721 44.3439 39.9167 5.14133 34.7754 26.4921 24.1357 22.4219 13.9244 12.3535 8.49747 4.35585 2.9277 15.4954 3.57037 4.14162 8.49747 11.925 8.28325 3.856 10.4255 4.42725 5.8554
internal_count=858 641 621 559 72 487 371 338 314 195 173 119 61 41 217 50 58 119 167 116 54 146 62 82
shrinkage=1


Tree=2
num_leaves=31
num_cat=0
split_feature=23 4 27 28 3 31 5 27 4 28 4 16 4 31 20 5 23 5 28 23 27 24 21 23 29 28 23 29 3 21
split_gain=18.1506 10.575 8.19348 7.8482 5.80633 4.06377 3.85018 3.7479 4.97199 3.61484 3.45713 3.53486 3.59467 5.60465 3.45903 3.22106 2.47533 2.67507 2.22831 2.20331 2.03561 1.96731 1.42817 2.5883 1.33548 1.33 1.27541 1.17052 0.746266 0.3062
threshold=4949520.9894824987 12.500000000000002 110245695.75441229 2.5000000000000004 1.5000000000000002 142306160.82968467 2.5000000000000004 15459621.636303721 3.5000000000000004 2.5000000000000004 19.500000000000004 1.0000000180025095e-35 4.5000000000000009 171651625.45126238 1.5000000000000002 5.5000000000000009 11333476.374417486 5.5000000000000009 6.5000000000000009 22335258.575499166 59777038.361946672 7.5000000000000009 1.5000000000000002 8767889.822613338 1.5000000000000002 4.5000000000000009 27398345.882359806 1.5000000000000002 2.5000000000000004 1.5000000000000002
decision_type=2 2 2 2 2 2 2 2 2 2 2 2 2 2 2 2 2 2 2 2 2 2 2 2 2 2 2 2 2 2
left_child=1 5 3 19 -5 7 -7 9 28 -1 11 12 14 16 -6 -10 -14 -18 20 22 -13 25 23 -2 -11 29 -16 -27 -9 -4
right_child=2 -3 21 4 10 6 -8 8 15 24 -12 18 13 -15 26 -17 17 -19 -20 -21 -22 -23 -24 -25 -26 27 -28 -29 -30 -31
leaf_value=-0.49565610406570731 -0.40781275588926197 -0.39568248916754339 -0.38239695894851827 -0.47096716040868564 -0.47982418055470238 -0.41997603013947504 -0.46499829900593526 -0.46108817639966698 -0.41162512543037355 -0.44593645130037751 -0.40404745263878139 -0.42979398567585109 -0.403274220721272 -0.470081458394084 -0.45546737515315638 -0.45546737515315638 -0.41580057778492424 -0.44816033353269258 -0.44593645130037751 -0.39153076097409806 -0.40162601584447566 -0.42736336892060328 -0.403274220721272 -0.44882461004364382 -0.47539567048169401 -0.39909876836672126 -0.42623920867130111 -0.42331639202311561 -0.48177272498682605 -0.39701104218944588
leaf_weight=13.685429096221926 7.869121730327608 7.5269860029220572 7.5269860029220563 11.290479004383085 10.264071822166445 11.974750459194185 7.8691217303276053 8.8955289125442505 8.5533931851387042 7.8691217303276044 9.2376646399497968 12.659021914005281 9.5798003673553449 8.5533931851387006 8.2112574577331525 8.2112574577331525 11.974750459194185 13.685429096221922 7.8691217303276053 10.948343276977537 13.001157641410826 8.8955289125442487 9.5798003673553449 7.5269860029220581 7.5269860029220581 11.974750459194185 6.842714548110961 8.5533931851387006 8.5533931851387024 6.8427145481109619
leaf_count=40 23 22 22 33 30 35 23 26 25 23 27 37 28 25 24 24 35 40 23 32 38 26 28 22 22 35 20 25 25 20
internal_value=-0.433836 -0.452434 -0.425525 -0.430796 -0.436794 -0.457572 -0.43783 -0.463762 -0.452545 -0.476959 -0.433345 -0.435982 -0.442445 -0.433775 -0.457442 -0.433099 -0.424962 -0.433059 -0.42266 -0.410233 -0.415522 -0.406373 -0.418432 -0.427863 -0.460339 -0.401023 -0.442182 -0.409189 -0.471228 -0.389356
internal_weight=0 90.666 202.886 159.093 123.169 83.139 19.8439 63.2951 34.2136 29.0815 111.878 102.641 69.1114 43.7934 25.318 16.7647 35.24 25.6602 33.5293 35.9243 25.6602 43.7934 24.9759 15.3961 15.3961 34.8978 15.054 20.5281 17.4489 14.3697
internal_count=858 265 593 465 360 243 58 185 100 85 327 300 202 128 74 49 103 75 98 105 75 128 73 45 45 102 44 60 51 42
shrinkage=1


Tree=3
num_leaves=31
num_cat=0
split_feature=23 27 28 3 27 4 16 28 20 28 23 27 27 28 29 29 4 23 31 27 27 27 29 24 20 29 27 31 4 31
split_gain=13.8106 6.97451 6.64364 6.78244 5.5486 4.19647 4.3949 4.03726 3.61604 3.0946 3.31025 2.76077 5.44133 3.84426 2.72814 2.37544 2.22542 2.12178 1.95185 1.37876 1.3738 1.26685 1.1533 1.08559 2.01892 3.06467 1.55645 0.959099 0.750164 1.78871
threshold=4209096.6566300523 129253255.88257971 8.5000000000000018 1.0000000180025095e-35 16071499.842951013 17.500000000000004 1.0000000180025095e-35 2.5000000000000004 5.5000000000000009 2.5000000000000004 9486591.9821474496 131296160.84504254 68391850.995387211 4.5000000000000009 2.5000000000000004 1.5000000000000002 2.5000000000000004 22335258.575499166 83213226.35347791 46407317.011273824 92870952.611185506 35134755.375844374 1.5000000000000002 1.5000000000000002 2.5000000000000004 1.5000000000000002 46407317.011273824 370815770.72421974 8.5000000000000018 163030508.22299185
decision_type=2 2 2 2 2 2 2 2 2 2 2 2 2 2 2 2 2 2 2 2 2 2 2 2 2 2 2 2 2 2
left_child=4 2 3 -2 7 6 8 16 9 17 -11 12 13 18 28 -9 -1 -5 21 -16 23 -6 -3 -12 25 26 -25 -24 29 -8
right_child=1 22 -4 5 11 -7 14 15 -10 10 20 -13 -14 -15 19 -17 -18 -19 -20 -21 -22 -23 27 24 -26 -27 -28 -29 -30 -31
leaf_value=0.034802264166252116 0.040360413019928758 -0.042647634757321917 0.031368023451359653 -0.0034143071143188661 -0.016162755831817706 -0.03803963499558876 -0.039891371660115874 3.6852981968620497e-05 -0.033895255634924369 -0.017622173557956821 -0.0085214278963751996 -0.024700055570370822 0.04977062503075598 0.02499581463099132 0.011887566642993154 0.033338271931247859 0.07265288931540298 -0.038446823558699175 -0.033329261734090107 -0.016585478770686519 0.035005079198166859 0.01548556991883733 -0.033642756684392663 0.0065693741076118355 0.030700002771679058 0.025077388820481408 -0.026427426900736836 -0.0070457642937486803 -0.038865930541744552 -0.0037875007686727436
leaf_weight=9.5148458480834979 7.3424241542816153 12.265878170728685 12.537070721387861 14.746715366840364 6.3249076604843193 11.382530421018599 6.8426086008548754 10.449215441942217 7.2528534531593314 10.033140689134596 6.3462890684604636 6.5859636068344107 7.1136187911033621 10.910533428192137 7.5597972273826626 10.984127104282377 6.5612165927886954 6.114108443260192 6.9466301500797263 9.716142922639845 6.641627609729766 6.323186993598938 7.4414767324924451 7.3224382400512713 12.077144503593443 11.567128062248228 6.980916827917099 6.2249126434326172 12.106442481279371 6.8799396753311157
leaf_count=29 23 40 39 47 20 37 22 33 23 32 20 21 22 34 24 34 20 20 22 31 21 20 24 23 38 36 22 20 39 22
internal_value=0 -0.00742797 -0.003606 -0.00651148 0.0171655 -0.00890859 -0.00640015 0.0313097 -5.82806e-05 0.00294082 0.00862842 0.00516363 0.0103919 0.00120903 -0.0195065 0.0171031 0.0502505 -0.013682 -0.0120357 -0.00412593 0.0137992 -0.000340746 -0.0315176 0.0106195 0.0138206 0.00594073 -0.00953509 -0.0215281 -0.0297939 -0.0217903
internal_weight=0 189.382 163.449 150.912 81.7142 143.57 132.187 37.5094 89.0824 81.8295 60.9687 44.2048 37.6189 30.5053 43.1049 21.4333 16.0761 20.8608 19.5947 17.2759 50.9355 12.6481 25.9323 44.2939 37.9476 25.8705 14.3034 13.6664 25.829 13.7225
internal_count=858 603 519 480 255 457 420 116 282 259 192 139 118 96 138 67 49 67 62 55 160 40 84 139 119 81 45 44 83 44
shrinkage=0.05


Tree=4
num_leaves=31
num_cat=0
split_feature=31 27 28 31 4 4 29 27 27 24 20 31 31 23 28 13 29 31 29 27 23 4 23 23 23 20 27 5 4 4
split_gain=3.80187 8.33214 3.1753 5.20139 11.3039 7.04387 3.67539 2.23226 3.80895 3.45347 8.35649 4.4642 3.07538 3.042 1.84243 1.42301 1.02732 0.70054 1.13996 0.553459 0.396529 0.373655 0.00540555 4.01415e-06 3.20712e-06 2.9342e-06 1.5998e-06 1.42169e-06 1.198e-06 1.00951e-06
threshold=196189076.09529343 136106018.21487233 2.5000000000000004 46987424.602957673 3.5000000000000004 1.0000000180025095e-35 2.5000000000000004 48888475.139491849 34297213.877168663 5.5000000000000009 3.5000000000000004 88975890.848851398 108096083.06372006 5838886.8934295895 11.500000000000002 1.0000000180025095e-35 1.0000000180025095e-35 82175485.617085069 2.5000000000000004 30923870.744634423 23975435.948581111 8.5000000000000018 25220993.891708691 4949520.9894824987 9744735.2052390613 3.5000000000000004 203308226.59146374 6.5000000000000009 1.5000000000000002 4.5000000000000009
decision_type=2 2 2 2 2 2 2 2 2 2 2 2 2 2 2 2 2 2 2 2 2 2 2 2 2 2 2 2 2 2
left_child=1 2 15 4 5 -4 7 8 12 10 11 -9 13 -5 16 17 22 23 -19 -8 -13 -6 -2 28 -10 29 -18 -26 -1 -21
right_child=14 -3 3 6 21 -7 19 9 24 -11 -12 20 -14 -15 -16 -17 26 18 -20 25 -22 -23 -24 -25 27 -27 -28 -29 -30 -31
leaf_value=-0.035152370133113515 -0.0039285133732387643 0.11816616867439096 0.04839794512096815 0.081374551668584219 -0.035116550060886868 0.19461080664502572 -0.0006407021549580897 0.080543979452368464 -0.03516769592289954 -0.035023786336932601 0.14580689528625143 -0.035077935722417984 -0.035065498625561249 -0.0052381868013289369 0.030114859564575488 0.023723862118650463 -0.035021130706316461 -0.0350666917667211 0.020467078069278888 -0.03507289470356928 0.00050583315932438454 0.00023523506484804838 0.00031396711351283938 -0.035045044714779643 -0.035049297154076335 -0.035124069860444654 -0.035078209191316496 -0.035118424874732997 -0.035094150245367807 -0.035023764408506776
leaf_weight=1.6861252561211553 1.6023189499974244 1.6282638683915127 1.7943736612796777 2.5743396356701904 1.5834361314773562 1.5227537229657171 1.4496525675058354 1.7291226461529712 1.7743651419878004 1.5157093480229376 1.6564828380942342 1.767394505441189 1.5475510507822035 1.6723071336746214 1.5345990359783162 1.700567893683911 9.1489454433321935 1.9000225588679316 1.7990846559405325 2.0489634796977043 1.4055111482739446 1.4157769978046415 1.4128901734948156 3.2711092606186867 1.5356548205018046 1.806687958538532 1.4178622439503659 1.4423587471246717 1.8564551025629041 2.1350575312972069
leaf_count=23 22 20 24 35 22 20 20 24 24 22 21 25 22 23 22 24 133 27 25 29 20 20 20 47 22 25 20 20 26 31
internal_value=0 0.0070703 0.00301357 0.0112083 0.0519156 0.115518 0.00134225 0.0132115 -0.0019359 0.0329971 0.0487171 0.0159087 0.025277 0.0472669 -0.0218157 -0.0187106 -0.0276832 -0.0255749 -0.00805748 -0.0283626 -0.0193153 -0.0184288 -0.00194054 -0.035085 -0.0351145 -0.0350708 -0.0350288 -0.0350828 -0.0351219 -0.0350478
internal_weight=0 46.2191 44.5909 32.3775 6.31634 3.31713 26.0612 18.6208 10.5466 8.07422 6.55851 4.90203 5.7942 4.24665 15.1166 12.2134 13.582 10.5128 3.69911 7.44036 3.17291 2.99921 3.01521 6.81369 4.75238 5.99071 10.5668 2.97801 3.54258 4.18402
internal_count=858 641 621 449 86 44 363 258 146 112 90 69 80 58 217 172 195 148 52 105 45 42 42 96 66 85 153 42 49 60
shrinkage=0.05


Tree=5
num_leaves=31
num_cat=0
split_feature=23 4 27 28 4 5 20 28 31 23 25 27 27 4 31 28 4 20 16 27 21 23 31 31 31 21 23 31 29 31
split_gain=15.944 9.65127 7.40021 7.0394 4.71977 4.80432 5.38822 4.79522 3.7289 3.5362 3.45952 3.27586 5.21429 3.98114 5.46822 3.09649 2.48703 3.76194 4.17275 2.44925 2.13296 2.03851 1.91794 1.80634 1.72571 1.37251 2.42118 1.34472 1.24461 0.2537
threshold=4949520.9894824987 12.500000000000002 110245695.75441229 2.5000000000000004 6.5000000000000009 1.0000000180025095e-35 2.5000000000000004 7.5000000000000009 189557332.67798772 9486591.9821474496 1.5000000000000002 68391850.995387211 15459621.636303721 3.5000000000000004 37856202.007120006 4.5000000000000009 19.500000000000004 1.5000000000000002 1.5000000000000002 57898647.138003804 1.0000000180025095e-35 22335258.575499166 196189076.09529343 82175485.617085069 623932818.26164985 1.5000000000000002 8767889.822613338 85019892.870069534 1.5000000000000002 82175485.617085069
decision_type=2 2 2 2 2 2 2 2 2 2 2 2 2 2 2 2 2 2 2 2 2 2 2 2 2 2 2 2 2 2
left_child=1 8 3 21 5 -5 20 9 11 -6 -8 12 13 14 -1 23 17 -11 19 -19 -7 25 -4 -14 28 26 -2 -22 -24 -16
right_child=2 -3 22 4 7 6 10 -9 -10 16 -12 -13 15 -15 29 -17 -18 18 -20 -21 27 -23 24 -25 -26 -27 -28 -29 -30 -31
leaf_value=-0.05550567991207897 0.024969515576088012 0.037307654053518595 0.0054173963073234485 0.015064806683638243 0.043947800929524487 -0.015206237932920037 -0.024266855965396725 -0.025607491324070586 0.0032345820889949743 0.029886512796749927 0.019181438197713466 -0.056002347669210743 -0.0074288744995829716 -0.061832847242546632 -0.011782677646317885 -0.029770538782933589 0.035476868724034591 -0.0043844345459623409 0.025095541528858185 -0.039012451281845467 -0.057274800970904718 0.040762171754122709 0.050313874913972295 0.023911830537005699 0.013349738624446841 0.02960667134463707 -0.014805766325272833 -0.030487813927100649 0.027921675107794808 0.0017285597553951722
leaf_weight=8.7517212331295031 7.7701357901096362 7.4370330572128287 8.8038606345653516 12.333913683891295 7.7286688387393943 10.381102323532106 7.8977996110916164 9.6627242267131788 12.370568335056303 9.4976084232330305 10.911072373390196 8.3130744099616987 12.695877045392995 10.467571854591368 6.9729262888431531 10.375013202428816 6.7145908176898947 13.382672488689428 7.7813495099544516 8.2571220397949201 9.0803048908710497 10.69060182571411 11.734436810016634 7.2075352966785422 9.4217327237129194 9.4640067219734174 7.5372633635997772 9.6794397532939893 13.170530587434767 6.9245194494724274
leaf_count=25 23 22 26 36 23 30 23 28 36 28 32 24 37 30 20 30 20 39 23 24 26 32 35 21 28 28 22 28 39 20
internal_value=0 -0.0172879 0.00787106 0.00288186 -0.00276411 -0.0127662 -0.019925 0.00680295 -0.0221171 0.0126718 0.000937605 -0.0264906 -0.0226207 -0.0363321 -0.0245466 -0.00762393 0.00737474 0.00252633 -0.00630597 -0.0175975 -0.0333908 0.022514 0.0262371 0.0039204 0.0315768 0.0146386 0.00538443 -0.0434536 0.0384722 -0.00505059
internal_weight=0 91.5158 201.901 158.77 123.308 60.2836 47.9497 63.0247 84.0788 53.362 18.8089 71.7082 63.3952 33.1167 22.6492 30.2784 45.6333 38.9188 29.4211 21.6398 29.1408 35.462 43.1306 19.9034 34.3267 24.7714 15.3074 18.7597 24.905 13.8974
internal_count=858 265 593 465 360 175 139 185 243 157 55 207 183 95 65 88 134 114 86 63 84 105 128 58 102 73 45 54 74 40
shrinkage=0.05


Tree=6
num_leaves=31
num_cat=0
split_feature=27 20 28 4 16 29 10 31 5 27 28 4 20 27 27 5 31 27 29 31 31 25 20 28 21 5 31 21 4 16
split_gain=12.2912 8.3574 5.36067 5.52506 5.62392 3.37777 2.49547 3.45198 2.84237 2.62941 2.32677 4.38647 4.15854 3.58007 2.99173 3.21769 2.22359 2.13864 1.79741 2.23903 1.71544 1.4707 1.41453 1.39271 1.23605 1.22677 1.19501 0.986201 0.956436 0.857373
threshold=129253255.88257971 1.0000000180025095e-35 8.5000000000000018 17.500000000000004 1.0000000180025095e-35 2.5000000000000004 1.0000000180025095e-35 85705899.751740605 2.5000000000000004 19944424.126756381 2.5000000000000004 4.5000000000000009 1.5000000000000002 15459621.636303721 68391850.995387211 4.5000000000000009 85019892.870069534 46407317.011273824 3.5000000000000004 65658717.086528473 117718561.50739416 1.5000000000000002 1.5000000000000002 4.5000000000000009 1.0000000180025095e-35 6.5000000000000009 121581959.88737796 1.0000000180025095e-35 8.5000000000000018 2.5000000000000004
decision_type=2 2 2 2 2 2 2 2 2 2 2 2 2 2 2 2 2 2 2 2 2 2 2 2 2 2 2 2 2 2
left_child=1 6 3 4 10 24 7 9 -9 -1 13 12 16 -3 20 -16 -12 -7 19 -8 25 -15 -2 -14 -6 27 -21 -13 -24 -26
right_child=22 2 -4 -5 5 17 18 8 -10 -11 11 14 23 21 15 -17 -18 -19 -20 26 -22 -23 28 -25 29 -27 -28 -29 -30 -31
leaf_value=0.056122583801785045 -0.014462201756813134 0.023797633155094724 0.029334048758132111 -0.037468328669357585 -0.014958335778890944 0.018877676912525451 -0.019333022178076389 -0.013094533582363619 0.03111365197055721 0.019386976388493054 0.059238704075325922 -0.039565347310775691 -0.0067791835148369485 -0.0067801280884869711 0.043961743570502192 -0.0049842959788533349 0.021146753046628677 -0.015849712809341294 0.027163275037333057 0.029035014051943704 0.0096760122574287063 -0.03505950491109968 -0.0462161636533229 0.020860044798693633 -0.022252650119801036 -0.0029887593596437398 -0.0014738750645258616 -0.013019490771636623 -0.024778705601150187 -0.046179715437322549
leaf_weight=12.263938546180727 10.782670348882677 6.2815777659416225 12.747792422771452 11.678888410329817 10.861556261777878 8.235030949115755 8.4401611685752886 7.0702297985553724 7.4852942228317261 8.0805398523807508 8.2652006447315198 6.7819868028163928 9.6177320480346697 9.9143811762332934 6.4717101156711561 6.9784006178379059 7.1413360536098471 9.6034051179885846 9.1577130258083361 6.4364324212074262 8.6326603293418867 8.5730123221874219 11.752353549003603 8.6630027592182142 6.1238389313220987 10.066810071468351 6.4023332297801971 7.2271241545677185 9.336244732141493 9.6338535845279676
leaf_count=37 35 20 39 39 35 26 26 22 23 25 25 22 30 32 20 22 22 31 28 20 27 28 39 27 20 32 20 23 31 32
internal_value=0 0.00386391 -0.00187574 -0.00435071 -0.00175616 -0.0166537 0.0191054 0.0282308 0.00963988 0.0415317 0.00457477 0.00872791 0.022446 -0.00881343 -0.00128378 0.0185668 0.0415821 0.000182025 0.00864173 0.000670703 -0.00944653 -0.0198939 -0.0291934 0.00631869 -0.0279358 -0.0163031 0.0138211 -0.0258707 -0.0367255 -0.0368811
internal_weight=0 238.836 173.499 160.752 149.073 44.4577 65.3366 34.9 14.5555 20.3445 104.615 79.846 33.6873 24.769 46.1587 13.4501 15.4065 17.8384 30.4366 21.2789 32.7086 18.4874 31.8713 18.2807 26.6192 24.0759 12.8388 14.0091 21.0886 15.7577
internal_count=858 753 552 513 474 144 201 107 45 62 330 250 104 80 146 42 47 57 94 66 104 60 105 57 87 77 40 45 70 52
shrinkage=0.05


Tree=7
num_leaves=31
num_cat=0
split_feature=31 4 31 5 31 31 28 31 5 28 28 19 31 31 31 29 23 29 20 5 10 31 23 5 25 31 31 31 31 29
split_gain=3.51678 4.01229 7.12106 4.11924 2.7921 5.83789 3.73443 3.43201 2.51919 1.86169 1.75902 1.43116 1.67308 4.38917 1.24362 1.16936 1.02592 1.02136 0.801083 0.469555 0.453456 0.00527493 0.00527185 7.55655e-06 7.37793e-06 5.6954e-06 4.56364e-06 2.9533e-06 9.58796e-07 3.2392e-07
threshold=196189076.09529343 3.5000000000000004 174433943.0065023 7.5000000000000009 66440378.406334512 33113477.543516744 3.5000000000000004 45715085.989590362 1.5000000000000002 3.5000000000000004 11.500000000000002 1245816.4804653751 56537759.659462385 82175485.617085069 15156877.212516403 2.5000000000000004 6532055.9719533306 1.0000000180025095e-35 2.5000000000000004 2.5000000000000004 1.0000000180025095e-35 120891147.75495575 25220993.891708691 8.5000000000000018 1.0000000180025095e-35 111764528.47754745 114397573.94852321 131441176.63681023 644095459.75073767 1.5000000000000002
decision_type=2 2 2 2 2 2 2 2 2 2 2 2 2 2 2 2 2 2 2 2 2 2 2 2 2 2 2 2 2 2
left_child=1 3 11 4 5 14 7 -7 9 15 17 12 19 -14 -1 -6 20 22 26 -3 -15 -20 -2 27 -21 -10 -18 -13 29 -19
right_child=10 2 -4 -5 8 6 -8 -9 25 -11 -12 23 13 16 -16 -17 18 28 21 24 -22 -23 -24 -25 -26 -27 -28 -29 -30 -31
leaf_value=0.020865017901206206 -0.0037059359438697372 -0.0036819509057620229 0.10036642148022257 0.092046994396176959 -0.035085507772865829 0.15655273017304475 0.015771056977122961 0.053727721160798429 -0.035220951254481762 0.052731182300139158 0.028630997244269277 -0.035075103319700852 0.062888868850543359 -0.0044773187239202971 -0.035329314437909189 0.02354623099489099 -0.035093434198636558 -0.034932337459098038 0.0013658605493341728 -0.035130369954799644 0.033992305536816723 -0.0028911087119508159 0.00049581452494265501 -0.035158276577799623 -0.035005842696443544 -0.035096930342225434 -0.034988308564439762 -0.034980265754115926 -0.034988382559219447 -0.034954019240130883
leaf_weight=1.7865225896239336 1.5915799364447587 1.5896263420581913 1.4741407856345166 1.962658442556857 1.6966557949781402 1.5635164454579356 1.9576542973518369 1.6872134432196615 2.0334491655230527 2.2750860974192619 1.5692899376153935 2.1078328266739841 2.5482626780867568 1.6283723860979062 2.1932881325483322 1.704967677593231 2.2737686857581139 2.4221185594797117 1.369557209312916 2.3092238754034042 1.4464633837342262 1.5527475625276563 1.4059981778264043 2.1098741814494133 2.4529088065028191 1.6992974877357481 1.8908991441130636 1.3445102497935293 1.7565663009881962 5.9647393524646759
leaf_count=25 22 22 19 25 24 20 25 23 27 31 22 30 34 22 28 24 32 37 19 32 20 22 20 29 36 24 28 20 26 90
internal_value=0 0.00663542 -0.00637857 0.0231547 0.0158843 0.0354896 0.0703284 0.103184 -0.00325998 0.017719 -0.0214022 -0.012769 -0.00625753 0.00421422 -0.0101039 -0.005698 -0.0104995 -0.0273771 -0.0209641 -0.0272118 0.0136196 -0.000896052 -0.00173513 -0.0350837 -0.0350662 -0.0351645 -0.0350457 -0.0350382 -0.0349548 -0.0349478
internal_weight=0 46.6585 26.0982 20.5603 18.5977 9.18819 5.20838 3.25073 9.40946 5.67671 14.7103 24.624 19.0618 12.7101 3.97981 3.40162 10.1618 13.141 7.08697 6.35176 3.07484 2.9223 2.99758 5.56222 4.76213 3.73275 4.16467 3.45234 10.1434 8.38686
internal_count=858 641 365 276 251 121 68 43 130 79 217 346 267 177 53 48 143 195 101 90 42 41 42 79 68 51 60 50 153 127
shrinkage=0.05


Tree=8
num_leaves=31
num_cat=0
split_feature=20 31 4 28 4 31 4 24 31 31 31 10 28 21 5 20 28 29 31 11 4 15 31 31 11 24 5 31 31 29
split_gain=10.2284 6.16219 6.24302 5.12336 5.50186 4.73887 4.47665 3.92534 3.58693 2.91528 3.66181 3.22067 3.09085 2.42387 2.35523 2.3265 4.15569 2.25939 1.88808 1.5517 1.54479 1.44181 2.33795 4.21751 2.44506 1.39944 2.07065 3.26608 1.31291 1.06661
threshold=1.0000000180025095e-35 234874246.02957663 17.500000000000004 2.5000000000000004 4.5000000000000009 85019892.870069534 9.5000000000000018 2.5000000000000004 166440594.89979324 163030508.22299185 137230660.09693435 1.0000000180025095e-35 5.5000000000000009 1.5000000000000002 3.5000000000000004 1.5000000000000002 9.5000000000000018 1.0000000180025095e-35 85019892.870069534 1.0000000180025095e-35 7.5000000000000009 1.0000000180025095e-35 104173636.18017693 69207695.798467174 1.0000000180025095e-35 3.5000000000000004 1.0000000180025095e-35 55261765.25112357 258499773.9259733 1.5000000000000002
decision_type=2 2 2 2 2 2 2 2 2 2 2 2 2 2 2 2 2 2 2 2 2 2 2 2 2 2 2 2 2 2
left_child=6 2 3 25 5 14 8 -7 21 10 12 -11 13 17 -5 -3 20 -6 -19 -9 -17 22 23 24 -1 26 -2 -28 -10 -23
right_child=1 15 -4 4 9 7 -8 19 28 11 -12 -13 -14 -15 -16 16 -18 18 -20 -21 -22 29 -24 -25 -26 -27 27 -29 -30 -31
leaf_value=-0.014175202882985474 -0.0098019231710841544 -0.0028704444007373003 0.034375117310047026 -0.025622059922373215 0.021484443568498199 -0.036824557761999506 0.017735757057631026 -0.0074032705302090719 0.017289332120507726 0.0061603833087697148 0.03837471465758583 -0.03863059426722576 -0.021247662325564326 0.036068969117363146 -0.060781440880315951 0.044385987230550039 -0.0037611729673788551 0.0048855266660153048 -0.028646649008962872 0.02213357804384436 0.022291346065028105 -0.053129081576527397 -0.046725510690466959 0.013986246412703587 -0.049131757004698351 0.032157907111538042 0.039736049254760403 -0.00063157833960608917 -0.013210216287702251 -0.026971640556771745
leaf_weight=14.049301087856298 9.8329152166843432 8.4102604389190656 12.930223077535627 13.315952003002169 10.160629928112032 7.2823756933212307 8.8762526512145978 9.28271484375 7.224617123603819 7.7981368899345407 8.0952246785163862 8.2689942717552185 10.967918306589125 6.7601027488708487 7.4157315492629996 17.651931405067447 9.1302220523357374 10.840938359498979 6.850778490304946 8.5347002446651459 14.336097180843351 7.0307774543762198 7.000573366880416 9.0447497069835645 7.7682641148567191 8.3440947830677015 9.3879387676715869 10.746658504009245 6.8969430029392242 8.7442203462123853
leaf_count=40 29 25 39 38 30 21 26 27 21 23 24 24 32 20 21 53 27 32 20 25 43 20 20 26 22 25 28 32 20 25
internal_value=0 0.00560405 0.001006 -0.00179783 -0.00705054 -0.020508 -0.015653 -0.00589604 -0.0200269 0.00179302 0.00738597 -0.0168914 0.00188227 0.00921164 -0.0381986 0.0210906 0.0259916 0.00269303 -0.00809917 0.00674514 0.0344838 -0.0259296 -0.0206382 -0.0147208 -0.0266217 0.0140479 0.00900544 0.0181902 0.00239341 -0.0386298
internal_weight=0 216.345 166.816 153.886 115.574 45.8315 76.6357 25.0998 67.7594 69.7427 53.6756 16.0671 45.5804 34.6124 20.7317 49.5285 41.1183 27.8523 17.6917 17.8174 31.988 53.6379 37.8629 30.8623 21.8176 38.3116 29.9675 20.1346 14.1216 15.775
internal_count=858 638 490 451 337 132 220 73 194 205 158 47 134 102 59 148 123 82 52 52 96 153 108 88 62 114 89 60 41 45
shrinkage=0.05


Tree=9
num_leaves=31
num_cat=0
split_feature=27 23 28 4 16 28 4 23 20 11 29 21 25 28 27 4 28 31 31 25 20 31 23 28 20 4 21 24 17 31
split_gain=11.3627 9.70911 5.35438 4.30024 4.77446 2.91694 3.74237 3.69752 3.32384 3.26766 2.79463 2.55852 2.75472 2.39559 2.62284 3.19135 2.35366 2.6011 3.10665 2.24828 3.17061 1.69206 1.34783 1.32704 1.31552 0.995561 0.933158 0.922441 0.833284 0.095108
threshold=129253255.88257971 2298920.8101291312 8.5000000000000018 17.500000000000004 1.0000000180025095e-35 2.5000000000000004 4.5000000000000009 9888806.9575404599 1.5000000000000002 1.0000000180025095e-35 1.5000000000000002 1.5000000000000002 2.5000000000000004 2.5000000000000004 8952733.0047558118 1.5000000000000002 5.5000000000000009 83213226.35347791 169278405.92825988 1.5000000000000002 1.5000000000000002 85019892.870069534 25220993.891708691 4.5000000000000009 1.5000000000000002 2.5000000000000004 1.5000000000000002 5.5000000000000009 1.5000000000000002 110264528.47754745
decision_type=2 2 2 2 2 2 2 2 2 2 2 2 2 2 2 2 2 2 2 2 2 2 2 2 2 2 2 2 2 2
left_child=1 13 3 4 5 9 8 -8 21 26 28 -12 -13 14 15 -1 17 25 -19 20 -9 -7 -22 -10 -2 -15 -3 -26 -6 -18
right_child=24 2 -4 -5 10 6 7 19 23 -11 11 12 -14 16 -16 -17 29 18 -20 -21 22 -23 -24 -25 27 -27 -28 -29 -30 -31
leaf_value=0.023071711967534769 -0.014181580729464259 -0.01474223609710259 0.028303006181157525 -0.035829235763105635 -0.04619850993822773 0.052743504971190638 -0.030358227025686316 -0.016458207348713835 -0.0071053751764925469 0.015533058822036464 0.010607696824466765 -0.045796241936247067 -0.005455393399438159 0.029627554742531228 0.012242025621753843 0.070234112008575267 0.026199589547978065 -0.034278705686629878 0.013785148684833931 -0.013166432686334707 0.036577249963809934 0.019553447411474318 0.0096005297019942006 0.019785508551803277 -0.045306121860686915 0.006073925288739554 -0.038929561074818715 -0.024001059206822481 -0.021472498657864658 0.034707067242686462
leaf_weight=7.436170697212221 10.7320613861084 9.4208846986293846 12.852086722850798 10.721851766109465 7.8274614810943604 8.1746535897254926 9.1394830346107465 6.5153228044509914 9.6518008708953875 7.1581544876098624 11.207909703254701 6.5285772681236294 12.02902841567993 8.8626369833946281 9.770607650279997 6.9293986856937408 6.5924343764781934 7.0509489476680738 6.4259539246559143 11.452335149049757 9.9846694171428698 7.2420945465564719 8.633942782878874 8.7445848286151868 11.362091660499575 9.0854853987693769 6.9144054949283591 9.189815551042555 6.0341951549053174 6.5483178198337555
leaf_count=22 35 31 39 37 26 24 30 21 30 23 36 22 39 27 30 20 20 22 20 36 31 22 27 27 39 28 23 31 20 20
internal_value=0 0.00367526 -0.00272771 -0.00526174 -0.00302704 0.00284337 0.00741563 -0.00191081 0.0200278 -0.0126364 -0.0168909 -0.0082551 -0.0196473 0.0195409 0.0322279 0.045821 0.0126698 0.0052394 -0.0113613 0.00519553 0.0135622 0.0371523 0.0240674 0.00567701 -0.0283703 0.0177045 -0.0249803 -0.0357795 -0.0354349 0.030439
internal_weight=0 238.935 170.233 157.381 146.66 103.032 79.5389 45.7258 33.8131 23.4934 43.6272 29.7655 18.5576 68.702 24.1362 14.3656 44.5658 31.425 13.4769 36.5863 25.1339 15.4167 18.6186 18.3964 31.284 17.9481 16.3353 20.5519 13.8617 13.1408
internal_count=858 753 544 505 468 325 248 145 103 77 143 97 61 209 72 42 137 97 42 115 79 46 58 57 105 55 54 70 46 40
shrinkage=0.05


Tree=10
num_leaves=31
num_cat=0
split_feature=4 5 27 27 20 28 5 24 24 24 29 16 24 10 5 10 29 5 27 12 19 27 7 29 23 28 24 20 4 21
split_gain=2.88159 5.78009 2.62863 3.55216 5.3945 2.10118 3.11889 3.19022 1.68419 3.44964 1.56488 1.37452 2.10154 1.42289 1.31298 1.14034 1.14741 1.17702 1.93637 0.628363 0.577098 0.443803 0.437601 1.78623e-05 1.92008e-05 1.47765e-05 8.78259e-06 8.71217e-06 6.25118e-06 7.36421e-06
threshold=3.5000000000000004 7.5000000000000009 157693484.60283646 50385082.242232315 2.5000000000000004 5.5000000000000009 4.5000000000000009 4.5000000000000009 1.5000000000000002 3.5000000000000004 1.0000000180025095e-35 1.0000000180025095e-35 3.5000000000000004 1.0000000180025095e-35 1.0000000180025095e-35 1.0000000180025095e-35 1.0000000180025095e-35 4.5000000000000009 65191224.830958486 1.0000000180025095e-35 10447061.057616787 30923870.744634423 1.0000000180025095e-35 2.5000000000000004 4209096.6566300523 3.5000000000000004 5.5000000000000009 3.5000000000000004 6.5000000000000009 1.0000000180025095e-35
decision_type=2 2 2 2 2 2 2 2 2 2 2 2 2 2 2 2 2 2 2 2 2 2 2 2 2 2 2 2 2 2
left_child=1 2 3 4 8 15 7 -7 10 14 -1 12 -8 -14 -10 19 -17 25 21 23 27 -19 -12 24 -2 -18 -13 -5 -26 -30
right_child=5 -3 -4 20 -6 6 11 -9 9 -11 22 26 13 -15 -16 16 17 18 -20 -21 -22 -23 -24 -25 28 -27 -28 -29 29 -31
leaf_value=0.031511328276850249 -0.035232349657242326 0.084862017726460959 0.071003650947114111 -0.03502845672751586 0.091600608344682061 0.087902113090826406 -0.035043865867441092 -0.0052310922095516743 0.080370709320100764 -0.035265445946279818 -0.0041562382473646327 -0.035145745953923981 -0.0009982595710608074 0.068954955020536599 0.023849843068797991 0.021043009968086349 -0.03498223592143225 0.00023956023353461351 0.038295047049253225 0.0011179153499283757 0.00070903710553484782 -0.035034042300925237 -0.035105763224554443 -0.034944094767285078 -0.034953533510440275 -0.035164394762647704 -0.034977910262482488 -0.03516376233983589 -0.035017562465056142 -0.035167012239339331
leaf_weight=1.4988283962011424 1.959019623696802 2.4928310997784129 1.411428965628146 4.1741389259695998 1.970135174691676 2.0312032997608171 1.8026099503040312 1.6800273135304449 1.7285622879862783 1.8322279155254362 1.6118371263146434 1.8649945892393591 1.4668953530490398 1.4410767555236816 2.5333963930606842 2.6722567379474649 2.1420439817011339 1.4150195680558684 2.0434186905622482 1.3819650858640677 1.3969267792999742 2.4112795814871788 3.9191428609192336 2.4989200606942177 1.3164516575634477 2.318079199641943 1.3391473144292829 1.6639397181570528 1.9095679856836798 1.4503280110657213
leaf_count=20 26 30 19 61 26 28 26 25 22 24 22 26 21 20 32 38 32 20 29 20 20 35 55 38 20 32 20 23 28 20
internal_value=0 0.0124336 0.00482834 0.000645389 0.0144523 -0.00946609 0.00792246 0.0457419 0.002871 0.0221084 -0.013806 -0.00981115 0.00737374 0.0336678 0.0467735 -0.0180619 -0.00816023 -0.0157149 -0.00100262 -0.0303041 -0.0281594 -0.0219894 -0.0260865 -0.035058 -0.0351009 -0.0350769 -0.0350756 -0.035067 -0.0350459 -0.0350821
internal_weight=0 26.2334 23.7406 22.3291 15.0941 35.1443 11.626 3.71123 13.124 6.09419 7.02981 7.91472 4.71058 2.90797 4.26196 23.5184 13.0021 10.3298 5.86972 10.5163 7.23501 3.8263 5.53098 9.13429 6.63537 4.46012 3.20414 5.83808 4.67635 3.3599
internal_count=858 354 324 305 201 504 166 53 175 78 97 113 67 41 54 338 186 148 84 152 104 55 77 132 94 64 46 84 68 48
shrinkage=0.05


Tree=11
num_leaves=31
num_cat=0
split_feature=23 4 27 28 3 31 27 27 4 31 28 31 31 4 23 31 23 31 25 10 23 31 23 24 23 21 23 28 29 21
split_gain=12.3574 8.32143 6.22561 5.99581 4.41822 3.03245 2.94265 4.18204 3.12975 4.79857 2.72939 2.69398 2.92285 3.19935 3.53735 3.93023 4.05659 3.10925 2.72763 3.03371 2.98734 2.387 1.9246 1.89015 1.88968 1.32723 2.28117 1.26589 1.16557 0.281309
threshold=4949520.9894824987 12.500000000000002 110245695.75441229 2.5000000000000004 1.5000000000000002 189557332.67798772 68391850.995387211 16071499.842951013 3.5000000000000004 37856202.007120006 4.5000000000000009 38640187.371328913 163030508.22299185 4.5000000000000009 9486591.9821474496 137230660.09693435 14697125.936894994 92568085.19989197 1.5000000000000002 1.0000000180025095e-35 23975435.948581111 82175485.617085069 22335258.575499166 7.5000000000000009 23975435.948581111 1.5000000000000002 8767889.822613338 4.5000000000000009 1.5000000000000002 1.5000000000000002
decision_type=2 2 2 2 2 2 2 2 2 2 2 2 2 2 2 2 2 2 2 2 2 2 2 2 2 2 2 2 2 2
left_child=1 5 3 22 -5 6 7 8 9 -1 21 -6 13 17 -15 16 -16 -13 19 -14 -20 -9 25 27 -18 26 -2 29 -29 -4
right_child=2 -3 23 4 11 -7 -8 10 -10 -11 -12 12 18 14 15 -17 24 -19 20 -21 -22 -23 -24 -25 -26 -27 -28 28 -30 -31
leaf_value=-0.049344545352297181 0.02334808642971091 0.036200259507029348 0.048273833937849654 -0.031962433973243214 -0.030605856095740458 0.0034756730743914646 -0.050862806939207264 -0.0077039821125685741 -0.052753386387518156 -0.0026658088892491331 -0.026299822962179642 -0.028844523889847012 0.00084074817519627035 0.048897421413821189 -0.028805651726816761 0.038718770381057456 0.025895589308846941 0.0088467406234449958 -0.018211445476726269 -0.042891560253704906 0.021849747843173575 0.029117456622084682 0.038945020825038625 0.0033171395018952287 -0.0026188042577694726 0.02809425663861961 -0.015528318766840186 0.031831362056856181 0.0071762302546369136 0.033873657805255281
leaf_weight=9.019943445920946 7.6027713119983691 7.3041388988494864 7.0444807410240156 11.650146812200544 6.5915074050426474 12.385576546192167 8.5391947627067548 12.475947260856634 11.511147648096083 14.131448805332182 10.600374191999434 9.5920973122119921 6.8626452088356027 6.8307379186153403 8.1360412836074847 9.2166905999183637 12.104500323534014 12.737348556518553 8.5654498934745806 9.3938907086849213 10.188986301422117 6.8005651533603659 10.337837606668471 8.6108333766460401 11.173916965723036 9.2647436857223493 7.4913667142391205 11.439049839973451 8.2514143884181959 6.5401138365268707
leaf_count=25 23 22 22 33 19 36 24 36 32 40 30 27 20 21 24 28 36 37 25 27 30 20 32 26 33 28 22 35 25 20
internal_value=0 -0.0150241 0.00706145 0.00251143 -0.00266507 -0.019402 -0.0232794 -0.0196298 -0.0314463 -0.0208522 -0.00592054 0.000398997 0.00234904 0.00826314 0.015606 0.0100092 0.00158611 -0.00734436 -0.00944022 -0.0244301 0.00355316 0.00528626 0.0208687 0.0241967 0.0122083 0.0131972 0.00405335 0.0295998 0.0214995 0.0413411
internal_weight=0 92.7683 199.627 157.741 123.044 85.4642 73.0786 64.5394 34.6625 23.1514 29.8769 111.394 104.802 69.7913 47.4619 40.6311 31.4145 22.3294 35.011 16.2565 18.7544 19.2765 34.6967 41.8859 23.2784 24.3589 15.0941 33.2751 19.6905 13.5846
internal_count=858 265 593 465 360 243 207 183 97 65 86 327 308 206 142 121 93 64 102 47 55 56 105 128 69 73 45 102 60 42
shrinkage=0.05


Tree=12
num_leaves=30
num_cat=0
split_feature=27 23 28 3 20 17 5 28 11 28 28 3 21 27 23 31 5 29 23 23 31 20 5 19 24 17 17 10 21
split_gain=10.4246 8.51285 4.90109 3.61284 2.75751 3.14305 2.51813 2.44895 3.5277 2.00268 2.48711 2.54483 1.98158 1.88871 1.81738 2.42282 2.32159 3.63545 1.38367 3.43067 1.34897 1.23557 1.18328 1.03511 0.896417 0.82208 2.08994 0.820498 0.486901
threshold=129253255.88257971 2298920.8101291312 8.5000000000000018 1.0000000180025095e-35 5.5000000000000009 4.5000000000000009 8.5000000000000018 2.5000000000000004 1.0000000180025095e-35 2.5000000000000004 5.5000000000000009 1.5000000000000002 1.0000000180025095e-35 8952733.0047558118 20122361.313600674 137230660.09693435 7.5000000000000009 1.5000000000000002 14697125.936894994 9486591.9821474496 83213226.35347791 1.5000000000000002 1.0000000180025095e-35 4004410.1157815629 5.5000000000000009 3.5000000000000004 1.5000000000000002 1.0000000180025095e-35 1.5000000000000002
decision_type=2 2 2 2 2 2 2 2 2 2 2 2 2 2 2 2 2 2 2 2 2 2 2 2 2 2 2 2 2
left_child=1 6 3 -3 5 12 9 8 28 13 11 -11 -5 22 15 18 17 -16 19 27 -13 -2 -1 -6 -23 26 -14 -9 -7
right_child=21 2 -4 4 23 7 -8 14 -10 10 -12 20 25 -15 16 -17 -18 -19 -20 -21 -22 24 -24 -25 -26 -27 -28 -29 -30
leaf_value=0.030557555102401587 -0.013748628088451837 0.026646523161350157 0.026953785769546487 0.0003948851809408311 -0.036411421276025167 -0.019600941175688003 -0.0059405562276738039 0.0063565842407738897 0.015495798120037388 0.034272662258874313 0.036522394538890807 0.011070720950712721 -0.035358962532975297 0.015011870262154487 0.0013022648213430672 -0.027590476996657416 -0.0063319809996083762 0.042597285361547943 -0.013255491393029187 0.031591443237785441 -0.014345881129282334 -0.044451456367328675 0.059327535451671756 -0.011547438035219126 -0.023173719766795199 -0.039191661513117718 -0.0017098040319549924 -0.018475539587470575 -0.037447189348403097
leaf_weight=7.2426533401012438 10.647658437490465 8.5214039683341962 12.986773461103438 11.629030525684355 9.7424774765968341 9.4981049001216906 9.3248156011104566 6.3537212312221545 7.1554072499275199 6.5704911053180686 9.7559621632099134 10.636109918355947 9.4978134036064166 8.5171499252319318 9.9895435273647362 7.4839366674423209 9.5293063521385175 11.425538718700407 8.5676548480987531 10.47417777776718 10.252748310565947 10.953328698873522 7.055615097284317 7.3391129672527304 9.03126212954521 6.9426771700382259 8.9750459194183332 6.9819498658180237 6.3954354226589194
leaf_count=21 35 26 39 38 32 32 29 20 23 20 29 32 32 26 31 24 30 35 27 32 32 39 20 25 31 23 30 23 22
internal_value=0 0.0034763 -0.00256207 -0.00501133 -0.00683433 -0.00436874 0.0182327 0.00049881 -0.0136572 0.0219876 0.014837 0.00713247 -0.016701 0.0336513 0.00510692 -0.00195093 0.0141986 0.0233343 0.00397556 0.0101759 -0.00140435 -0.027506 0.0447544 -0.0257286 -0.0348358 -0.0245233 -0.0190105 -0.00664438 -0.0267821
internal_weight=0 238.845 169.489 156.502 147.981 130.899 69.3555 93.8548 23.0489 60.0307 37.2153 27.4593 37.0446 22.8154 70.8058 39.8614 30.9444 21.4151 32.3775 23.8098 20.8889 30.6322 14.2983 17.0816 19.9846 25.4155 18.4729 13.3357 15.8935
internal_count=858 753 544 505 479 422 209 299 77 180 113 84 123 67 222 126 96 66 102 75 64 105 41 57 70 85 62 43 54
shrinkage=0.05


Tree=13
num_leaves=31
num_cat=0
split_feature=4 5 27 27 20 28 5 24 24 24 29 16 21 10 7 27 24 5 12 19 7 29 29 21 19 24 25 28 5 11
split_gain=2.66393 4.87356 2.51416 3.38415 4.52914 2.01365 2.78011 2.62165 1.55239 3.12753 1.47947 1.33315 2.0066 1.12586 1.1587 1.91939 1.71389 1.10079 0.618991 0.53971 0.431319 0.355377 1.69936e-05 1.7011e-05 8.80512e-06 8.30507e-06 8.21678e-06 6.84654e-06 6.62453e-06 5.00162e-06
threshold=3.5000000000000004 7.5000000000000009 165676192.07095587 50385082.242232315 2.5000000000000004 5.5000000000000009 4.5000000000000009 4.5000000000000009 1.5000000000000002 3.5000000000000004 1.0000000180025095e-35 1.0000000180025095e-35 1.5000000000000002 1.0000000180025095e-35 0.55000000000000016 88197440.563361689 1.5000000000000002 1.5000000000000002 1.0000000180025095e-35 10447061.057616787 1.0000000180025095e-35 1.0000000180025095e-35 2.5000000000000004 3.5000000000000004 441497.78356080735 5.5000000000000009 1.5000000000000002 3.5000000000000004 8.5000000000000018 1.0000000180025095e-35
decision_type=2 2 2 2 2 2 2 2 2 2 2 2 2 2 2 2 2 2 2 2 2 2 2 2 2 2 2 2 2 2
left_child=1 2 3 4 8 13 7 -7 10 17 -1 12 21 18 -15 16 -16 -10 22 26 -12 -8 23 28 27 -13 -5 -18 29 -2
right_child=5 -3 -4 19 -6 6 11 -9 9 -11 20 25 -14 14 15 -17 24 -19 -20 -21 -22 -23 -24 -25 -26 -27 -28 -29 -30 -31
leaf_value=0.029774863546138609 -0.034977031453651899 0.075525643991460514 0.068639591992191162 -0.03507315389474791 0.081155343589652026 0.078200640237122865 -0.00027435707696652249 -0.0049469200265139634 0.065499438733028575 -0.035201292290681731 -0.0041552987304543263 -0.035075340001724513 0.049166409204484174 0.034335453038010021 0.018947347453745229 0.026014264317757115 -0.034986341951051679 0.015395610317893528 0.00088985418157888629 -0.00094844203597661174 -0.035040650984517877 -0.035036696418951171 -0.034887972807334196 -0.035179887532571022 -0.034920016714059761 -0.034908995538333522 -0.034952058703468514 -0.035099389195961783 -0.034897680621257213 -0.035097851747775737
leaf_weight=1.5375635772943583 1.9223584756255132 2.6974039375782004 1.4408847615122784 2.5738307759165755 2.1430824548006049 2.2015247270464884 1.4343803599476816 1.6649936437606809 2.4764981046319008 1.7745631746947763 1.611526980996137 1.7978614494204523 1.7795395664870737 1.4410692304372776 1.8523643314838389 2.4485147297382364 2.3507143966853619 1.9668693020939825 1.3900360278785235 1.4648669883608816 3.7862979397177643 1.5083136968314645 2.4168936051428318 1.6863678656518457 1.6851607114076612 1.2878528162837026 3.0737771391868591 3.1130041070282459 1.2776275947690008 1.545045405626297
leaf_count=20 29 30 18 37 26 28 20 25 30 24 22 26 25 21 27 33 35 24 20 21 55 22 38 23 26 20 47 44 20 22
internal_value=0 0.0118237 0.00461897 0.000502459 0.013752 -0.00920544 0.0077228 0.0423958 0.00276991 0.0209111 -0.0134946 -0.00944737 0.00725371 -0.01775 -0.00791879 -0.0132369 -0.023914 0.0433208 -0.0301282 -0.0279926 -0.0258198 -0.0180922 -0.035001 -0.0350435 -0.0350199 -0.0350059 -0.0350072 -0.0350508 -0.034995 -0.0350309
internal_weight=0 26.5472 23.8498 22.4089 15.2964 34.8036 11.6745 3.86652 13.1533 6.21793 6.93539 7.80795 4.72223 23.1292 12.8908 11.4498 9.00124 4.44337 10.2383 7.11247 5.39782 2.94269 8.84829 6.4314 7.14888 3.08571 5.64761 5.46372 4.74503 3.4674
internal_count=858 354 324 306 201 504 166 53 175 78 97 113 67 338 186 165 132 54 152 105 77 42 132 94 105 46 84 79 71 51
shrinkage=0.05


Tree=14
num_leaves=31
num_cat=0
split_feature=31 4 27 20 28 27 3 31 31 4 27 27 27 20 21 27 28 31 4 29 10 31 31 29 27 24 4 5 20 5
split_gain=8.58065 7.13331 4.68083 4.30106 4.50607 3.80403 3.5011 2.91496 4.29916 5.38902 3.13682 3.09541 2.52019 3.80137 1.83912 1.71889 1.66813 3.35728 3.23089 2.17267 2.04363 1.5179 1.33738 1.57032 1.29421 1.24665 2.09508 0.785316 0.754578 0.711064
threshold=208735757.12651321 12.500000000000002 110245695.75441229 1.0000000180025095e-35 2.5000000000000004 13716622.641910624 1.5000000000000002 163030508.22299185 92568085.19989197 4.5000000000000009 73146764.132363603 40109835.456329577 88197440.563361689 1.5000000000000002 2.5000000000000004 33293291.113492187 5.5000000000000009 83213226.35347791 1.5000000000000002 1.0000000180025095e-35 1.0000000180025095e-35 115779187.16046189 623932818.26164985 1.5000000000000002 40440658.115475945 3.5000000000000004 16.500000000000004 3.5000000000000004 2.5000000000000004 2.5000000000000004
decision_type=2 2 2 2 2 2 2 2 2 2 2 2 2 2 2 2 2 2 2 2 2 2 2 2 2 2 2 2 2 2
left_child=1 3 12 16 5 -5 -6 8 9 29 -9 -10 13 -2 15 -7 17 19 -19 -1 -21 -13 23 -4 -11 26 -3 -25 -23 -8
right_child=2 25 22 4 6 14 7 10 11 24 -12 21 -14 -15 -16 -17 -18 18 -20 20 -22 28 -24 27 -26 -27 -28 -29 -30 -31
leaf_value=-0.044806369974490896 -0.0077376862667494694 0.04909026478530245 0.047837125653422442 -0.018728527339818137 -0.033355023224151403 0.031183665830027338 -0.024825047472465347 -0.04621136011324728 -0.012700388301819097 0.014104626116834013 -7.1905922597738167e-05 0.03936394799595537 -0.01657704784772673 0.033312690883358122 0.042056358670069766 0.0014537615217965574 -0.036172459427160276 0.029967574871746241 -0.01618003022919514 -0.030880490958866559 -0.0030665311954623381 0.023857031372888943 0.012542027926637587 0.010235024558162017 -0.0097160639698811307 0.0076247631434804486 0.011471067455852971 0.034337260309323207 0.0010000974637594715 -0.046788284500549233
leaf_weight=8.9586757421493513 11.696773678064348 6.8507783114910152 11.674341559410097 7.7878935337066642 12.465672999620436 7.9674305915832582 7.4974499046802503 8.0385097265243513 8.5379454493522662 12.365332245826723 6.7997371256351462 8.4780187606811541 11.649529516696928 10.890320271253584 7.4531074464321128 12.473120689392088 11.473348140716551 6.8668231368064871 8.4726029038429242 12.615618795156479 13.859404981136322 7.4072954654693586 9.6880585551261884 6.4752272069454175 10.581717878580092 13.103994756937025 8.0497827231883985 7.0693762004375458 7.0451366901397705 7.2474092543125153
leaf_count=25 34 21 37 23 35 24 21 23 25 37 20 25 34 32 23 38 32 20 24 35 39 22 30 20 31 40 25 22 21 20
internal_value=0 -0.00471852 0.0154484 -0.00811733 -0.00301287 0.0121682 -0.00862828 -0.00495874 -0.000644411 -0.012035 -0.0250676 0.0129989 0.00231229 0.0120547 0.0207946 0.013042 -0.0189538 -0.0150628 0.00447833 -0.0235223 -0.0163202 0.0225678 0.0283322 0.0343981 0.00312004 0.0188741 0.0287671 0.0228148 0.0127149 -0.0356204
internal_weight=0 222.397 69.1436 194.392 132.146 35.6816 96.4642 83.9986 69.1603 37.6919 14.8382 31.4684 34.2366 22.5871 27.8937 20.4406 62.2465 50.7731 15.3394 35.4337 26.475 22.9305 34.907 25.2189 22.9471 28.0046 14.9006 13.5446 14.4524 14.7449
internal_count=858 649 209 563 388 108 280 245 202 109 43 93 100 66 85 62 175 143 44 99 74 68 109 79 68 86 46 42 43 41
shrinkage=0.05


end of trees

feature_importances:
RoundC_post_money_valuation_usd_augmented=68
RoundB_post_money_valuation_usd_augmented=55
RoundC_investor_count=44
num_completed_degrees_from_top_500_schools=43
RoundA_post_money_valuation_usd_augmented=41
RoundC_from_founded_binned=34
num_incomplete_degrees_from_top_500_schools=30
RoundA_investor_count=28
RoundB_investor_count=23
RoundA_from_founded_binned=19
PreSeries_investor_count=10
is_category_Data_and_Analytics=9
RoundB_from_founded_binned=9
num_social_media_url_org=7
is_category_Financial_Services=6
PreSeries_post_money_valuation_usd_augmented=5
percentage_of_male_founder=4
PreSeries_from_founded_binned=4
is_category_Lending_and_Investments=2
is_category_Payments=1
is_category_Privacy_and_Security=1

parameters:
[boosting: goss]
[objective: multiclass]
[metric: multi_logloss]
[tree_learner: serial]
[device_type: cpu]
[data: ]
[valid: ]
[num_iterations: 1000]
[learning_rate: 0.05]
[num_leaves: 31]
[num_threads: 4]
[deterministic: 0]
[force_col_wise: 0]
[force_row_wise: 0]
[histogram_pool_size: -1]
[max_depth: -1]
[min_data_in_leaf: 20]
[min_sum_hessian_in_leaf: 0.001]
[bagging_fraction: 0.9]
[pos_bagging_fraction: 1]
[neg_bagging_fraction: 1]
[bagging_freq: 0]
[bagging_seed: 7719]
[feature_fraction: 0.9]
[feature_fraction_bynode: 1]
[feature_fraction_seed: 2437]
[extra_trees: 0]
[extra_seed: 11797]
[early_stopping_round: 10]
[first_metric_only: 0]
[max_delta_step: 0]
[lambda_l1: 0]
[lambda_l2: 0]
[min_gain_to_split: 0]
[drop_rate: 0.1]
[max_drop: 50]
[skip_drop: 0.5]
[xgboost_dart_mode: 0]
[uniform_drop: 0]
[drop_seed: 21238]
[top_rate: 0.2]
[other_rate: 0.1]
[min_data_per_group: 100]
[max_cat_threshold: 32]
[cat_l2: 10]
[cat_smooth: 10]
[max_cat_to_onehot: 4]
[top_k: 20]
[monotone_constraints: ]
[monotone_constraints_method: basic]
[monotone_penalty: 0]
[feature_contri: ]
[forcedsplits_filename: ]
[refit_decay_rate: 0.9]
[cegb_tradeoff: 1]
[cegb_penalty_split: 0]
[cegb_penalty_feature_lazy: ]
[cegb_penalty_feature_coupled: ]
[path_smooth: 0]
[interaction_constraints: ]
[verbosity: -1]
[saved_feature_importance_type: 0]
[max_bin: 255]
[max_bin_by_feature: ]
[min_data_in_bin: 3]
[bin_construct_sample_cnt: 200000]
[data_random_seed: 38]
[is_enable_sparse: 1]
[enable_bundle: 1]
[use_missing: 1]
[zero_as_missing: 0]
[feature_pre_filter: 1]
[pre_partition: 0]
[two_round: 0]
[header: 0]
[label_column: ]
[weight_column: ]
[group_column: ]
[ignore_column: ]
[categorical_feature: ]
[forcedbins_filename: ]
[objective_seed: 8855]
[num_class: 3]
[is_unbalance: 0]
[scale_pos_weight: 1]
[sigmoid: 1]
[boost_from_average: 1]
[reg_sqrt: 0]
[alpha: 0.9]
[fair_c: 1]
[poisson_max_delta_step: 0.7]
[tweedie_variance_power: 1.5]
[lambdarank_truncation_level: 30]
[lambdarank_norm: 1]
[label_gain: ]
[eval_at: ]
[multi_error_top_k: 1]
[auc_mu_weights: ]
[num_machines: 1]
[local_listen_port: 12400]
[time_out: 120]
[machine_list_filename: ]
[machines: ]
[gpu_platform_id: -1]
[gpu_device_id: -1]
[gpu_use_dp: 0]
[num_gpu: 1]

end of parameters

pandas_categorical:[]
